{"learner":{"attributes":{"best_iteration":"2999","best_score":"0.05520707515103976","scikit_learn":"{\"_estimator_type\": \"regressor\"}"},"feature_names":[],"feature_types":[],"gradient_booster":{"model":{"cats":{"enc":[],"feature_segments":[],"sorted_idx":[]},"gbtree_model_param":{"num_parallel_tree":"1","num_trees":"3000"},"iteration_indptr":[0,1,2,3,4,5,6,7,8,9,10,11,12,13,14,15,16,17,18,19,20,21,22,23,24,25,26,27,28,29,30,31,32,33,34,35,36,37,38,39,40,41,42,43,44,45,46,47,48,49,50,51,52,53,54,55,56,57,58,59,60,61,62,63,64,65,66,67,68,69,70,71,72,73,74,75,76,77,78,79,80,81,82,83,84,85,86,87,88,89,90,91,92,93,94,95,96,97,98,99,100,101,102,103,104,105,106,107,108,109,110,111,112,113,114,115,116,117,118,119,120,121,122,123,124,125,126,127,128,129,130,131,132,133,134,135,136,137,138,139,140,141,142,143,144,145,146,147,148,149,150,151,152,153,154,155,156,157,158,159,160,161,162,163,164,165,166,167,168,169,170,171,172,173,174,175,176,177,178,179,180,181,182,183,184,185,186,187,188,189,190,191,192,193,194,195,196,197,198,199,200,201,202,203,204,205,206,207,208,209,210,211,212,213,214,215,216,217,218,219,220,221,222,223,224,225,226,227,228,229,230,231,232,233,234,235,236,237,238,239,240,241,242,243,244,245,246,247,248,249,250,251,252,253,254,255,256,257,258,259,260,261,262,263,264,265,266,267,268,269,270,271,272,273,274,275,276,277,278,279,280,281,282,283,284,285,286,287,288,289,290,291,292,293,294,295,296,297,298,299,300,301,302,303,304,305,306,307,308,309,310,311,312,313,314,315,316,317,318,319,320,321,322,323,324,325,326,327,328,329,330,331,332,333,334,335,336,337,338,339,340,341,342,343,344,345,346,347,348,349,350,351,352,353,354,355,356,357,358,359,360,361,362,363,364,365,366,367,368,369,370,371,372,373,374,375,376,377,378,379,380,381,382,383,384,385,386,387,388,389,390,391,392,393,394,395,396,397,398,399,400,401,402,403,404,405,406,407,408,409,410,411,412,413,414,415,416,417,418,419,420,421,422,423,424,425,426,427,428,429,430,431,432,433,434,435,436,437,438,439,440,441,442,443,444,445,446,447,448,449,450,451,452,453,454,455,456,457,458,459,460,461,462,463,464,465,466,467,468,469,470,471,472,473,474,475,476,477,478,479,480,481,482,483,484,485,486,487,488,489,490,491,492,493,494,495,496,497,498,499,500,501,502,503,504,505,506,507,508,509,510,511,512,513,514,515,516,517,518,519,520,521,522,523,524,525,526,527,528,529,530,531,532,533,534,535,536,537,538,539,540,541,542,543,544,545,546,547,548,549,550,551,552,553,554,555,556,557,558,559,560,561,562,563,564,565,566,567,568,569,570,571,572,573,574,575,576,577,578,579,580,581,582,583,584,585,586,587,588,589,590,591,592,593,594,595,596,597,598,599,600,601,602,603,604,605,606,607,608,609,610,611,612,613,614,615,616,617,618,619,620,621,622,623,624,625,626,627,628,629,630,631,632,633,634,635,636,637,638,639,640,641,642,643,644,645,646,647,648,649,650,651,652,653,654,655,656,657,658,659,660,661,662,663,664,665,666,667,668,669,670,671,672,673,674,675,676,677,678,679,680,681,682,683,684,685,686,687,688,689,690,691,692,693,694,695,696,697,698,699,700,701,702,703,704,705,706,707,708,709,710,711,712,713,714,715,716,717,718,719,720,721,722,723,724,725,726,727,728,729,730,731,732,733,734,735,736,737,738,739,740,741,742,743,744,745,746,747,748,749,750,751,752,753,754,755,756,757,758,759,760,761,762,763,764,765,766,767,768,769,770,771,772,773,774,775,776,777,778,779,780,781,782,783,784,785,786,787,788,789,790,791,792,793,794,795,796,797,798,799,800,801,802,803,804,805,806,807,808,809,810,811,812,813,814,815,816,817,818,819,820,821,822,823,824,825,826,827,828,829,830,831,832,833,834,835,836,837,838,839,840,841,842,843,844,845,846,847,848,849,850,851,852,853,854,855,856,857,858,859,860,861,862,863,864,865,866,867,868,869,870,871,872,873,874,875,876,877,878,879,880,881,882,883,884,885,886,887,888,889,890,891,892,893,894,895,896,897,898,899,900,901,902,903,904,905,906,907,908,909,910,911,912,913,914,915,916,917,918,919,920,921,922,923,924,925,926,927,928,929,930,931,932,933,934,935,936,937,938,939,940,941,942,943,944,945,946,947,948,949,950,951,952,953,954,955,956,957,958,959,960,961,962,963,964,965,966,967,968,969,970,971,972,973,974,975,976,977,978,979,980,981,982,983,984,985,986,987,988,989,990,991,992,993,994,995,996,997,998,999,1000,1001,1002,1003,1004,1005,1006,1007,1008,1009,1010,1011,1012,1013,1014,1015,1016,1017,1018,1019,1020,1021,1022,1023,1024,1025,1026,1027,1028,1029,1030,1031,1032,1033,1034,1035,1036,1037,1038,1039,1040,1041,1042,1043,1044,1045,1046,1047,1048,1049,1050,1051,1052,1053,1054,1055,1056,1057,1058,1059,1060,1061,1062,1063,1064,1065,1066,1067,1068,1069,1070,1071,1072,1073,1074,1075,1076,1077,1078,1079,1080,1081,1082,1083,1084,1085,1086,1087,1088,1089,1090,1091,1092,1093,1094,1095,1096,1097,1098,1099,1100,1101,1102,1103,1104,1105,1106,1107,1108,1109,1110,1111,1112,1113,1114,1115,1116,1117,1118,1119,1120,1121,1122,1123,1124,1125,1126,1127,1128,1129,1130,1131,1132,1133,1134,1135,1136,1137,1138,1139,1140,1141,1142,1143,1144,1145,1146,1147,1148,1149,1150,1151,1152,1153,1154,1155,1156,1157,1158,1159,1160,1161,1162,1163,1164,1165,1166,1167,1168,1169,1170,1171,1172,1173,1174,1175,1176,1177,1178,1179,1180,1181,1182,1183,1184,1185,1186,1187,1188,1189,1190,1191,1192,1193,1194,1195,1196,1197,1198,1199,1200,1201,1202,1203,1204,1205,1206,1207,1208,1209,1210,1211,1212,1213,1214,1215,1216,1217,1218,1219,1220,1221,1222,1223,1224,1225,1226,1227,1228,1229,1230,1231,1232,1233,1234,1235,1236,1237,1238,1239,1240,1241,1242,1243,1244,1245,1246,1247,1248,1249,1250,1251,1252,1253,1254,1255,1256,1257,1258,1259,1260,1261,1262,1263,1264,1265,1266,1267,1268,1269,1270,1271,1272,1273,1274,1275,1276,1277,1278,1279,1280,1281,1282,1283,1284,1285,1286,1287,1288,1289,1290,1291,1292,1293,1294,1295,1296,1297,1298,1299,1300,1301,1302,1303,1304,1305,1306,1307,1308,1309,1310,1311,1312,1313,1314,1315,1316,1317,1318,1319,1320,1321,1322,1323,1324,1325,1326,1327,1328,1329,1330,1331,1332,1333,1334,1335,1336,1337,1338,1339,1340,1341,1342,1343,1344,1345,1346,1347,1348,1349,1350,1351,1352,1353,1354,1355,1356,1357,1358,1359,1360,1361,1362,1363,1364,1365,1366,1367,1368,1369,1370,1371,1372,1373,1374,1375,1376,1377,1378,1379,1380,1381,1382,1383,1384,1385,1386,1387,1388,1389,1390,1391,1392,1393,1394,1395,1396,1397,1398,1399,1400,1401,1402,1403,1404,1405,1406,1407,1408,1409,1410,1411,1412,1413,1414,1415,1416,1417,1418,1419,1420,1421,1422,1423,1424,1425,1426,1427,1428,1429,1430,1431,1432,1433,1434,1435,1436,1437,1438,1439,1440,1441,1442,1443,1444,1445,1446,1447,1448,1449,1450,1451,1452,1453,1454,1455,1456,1457,1458,1459,1460,1461,1462,1463,1464,1465,1466,1467,1468,1469,1470,1471,1472,1473,1474,1475,1476,1477,1478,1479,1480,1481,1482,1483,1484,1485,1486,1487,1488,1489,1490,1491,1492,1493,1494,1495,1496,1497,1498,1499,1500,1501,1502,1503,1504,1505,1506,1507,1508,1509,1510,1511,1512,1513,1514,1515,1516,1517,1518,1519,1520,1521,1522,1523,1524,1525,1526,1527,1528,1529,1530,1531,1532,1533,1534,1535,1536,1537,1538,1539,1540,1541,1542,1543,1544,1545,1546,1547,1548,1549,1550,1551,1552,1553,1554,1555,1556,1557,1558,1559,1560,1561,1562,1563,1564,1565,1566,1567,1568,1569,1570,1571,1572,1573,1574,1575,1576,1577,1578,1579,1580,1581,1582,1583,1584,1585,1586,1587,1588,1589,1590,1591,1592,1593,1594,1595,1596,1597,1598,1599,1600,1601,1602,1603,1604,1605,1606,1607,1608,1609,1610,1611,1612,1613,1614,1615,1616,1617,1618,1619,1620,1621,1622,1623,1624,1625,1626,1627,1628,1629,1630,1631,1632,1633,1634,1635,1636,1637,1638,1639,1640,1641,1642,1643,1644,1645,1646,1647,1648,1649,1650,1651,1652,1653,1654,1655,1656,1657,1658,1659,1660,1661,1662,1663,1664,1665,1666,1667,1668,1669,1670,1671,1672,1673,1674,1675,1676,1677,1678,1679,1680,1681,1682,1683,1684,1685,1686,1687,1688,1689,1690,1691,1692,1693,1694,1695,1696,1697,1698,1699,1700,1701,1702,1703,1704,1705,1706,1707,1708,1709,1710,1711,1712,1713,1714,1715,1716,1717,1718,1719,1720,1721,1722,1723,1724,1725,1726,1727,1728,1729,1730,1731,1732,1733,1734,1735,1736,1737,1738,1739,1740,1741,1742,1743,1744,1745,1746,1747,1748,1749,1750,1751,1752,1753,1754,1755,1756,1757,1758,1759,1760,1761,1762,1763,1764,1765,1766,1767,1768,1769,1770,1771,1772,1773,1774,1775,1776,1777,1778,1779,1780,1781,1782,1783,1784,1785,1786,1787,1788,1789,1790,1791,1792,1793,1794,1795,1796,1797,1798,1799,1800,1801,1802,1803,1804,1805,1806,1807,1808,1809,1810,1811,1812,1813,1814,1815,1816,1817,1818,1819,1820,1821,1822,1823,1824,1825,1826,1827,1828,1829,1830,1831,1832,1833,1834,1835,1836,1837,1838,1839,1840,1841,1842,1843,1844,1845,1846,1847,1848,1849,1850,1851,1852,1853,1854,1855,1856,1857,1858,1859,1860,1861,1862,1863,1864,1865,1866,1867,1868,1869,1870,1871,1872,1873,1874,1875,1876,1877,1878,1879,1880,1881,1882,1883,1884,1885,1886,1887,1888,1889,1890,1891,1892,1893,1894,1895,1896,1897,1898,1899,1900,1901,1902,1903,1904,1905,1906,1907,1908,1909,1910,1911,1912,1913,1914,1915,1916,1917,1918,1919,1920,1921,1922,1923,1924,1925,1926,1927,1928,1929,1930,1931,1932,1933,1934,1935,1936,1937,1938,1939,1940,1941,1942,1943,1944,1945,1946,1947,1948,1949,1950,1951,1952,1953,1954,1955,1956,1957,1958,1959,1960,1961,1962,1963,1964,1965,1966,1967,1968,1969,1970,1971,1972,1973,1974,1975,1976,1977,1978,1979,1980,1981,1982,1983,1984,1985,1986,1987,1988,1989,1990,1991,1992,1993,1994,1995,1996,1997,1998,1999,2000,2001,2002,2003,2004,2005,2006,2007,2008,2009,2010,2011,2012,2013,2014,2015,2016,2017,2018,2019,2020,2021,2022,2023,2024,2025,2026,2027,2028,2029,2030,2031,2032,2033,2034,2035,2036,2037,2038,2039,2040,2041,2042,2043,2044,2045,2046,2047,2048,2049,2050,2051,2052,2053,2054,2055,2056,2057,2058,2059,2060,2061,2062,2063,2064,2065,2066,2067,2068,2069,2070,2071,2072,2073,2074,2075,2076,2077,2078,2079,2080,2081,2082,2083,2084,2085,2086,2087,2088,2089,2090,2091,2092,2093,2094,2095,2096,2097,2098,2099,2100,2101,2102,2103,2104,2105,2106,2107,2108,2109,2110,2111,2112,2113,2114,2115,2116,2117,2118,2119,2120,2121,2122,2123,2124,2125,2126,2127,2128,2129,2130,2131,2132,2133,2134,2135,2136,2137,2138,2139,2140,2141,2142,2143,2144,2145,2146,2147,2148,2149,2150,2151,2152,2153,2154,2155,2156,2157,2158,2159,2160,2161,2162,2163,2164,2165,2166,2167,2168,2169,2170,2171,2172,2173,2174,2175,2176,2177,2178,2179,2180,2181,2182,2183,2184,2185,2186,2187,2188,2189,2190,2191,2192,2193,2194,2195,2196,2197,2198,2199,2200,2201,2202,2203,2204,2205,2206,2207,2208,2209,2210,2211,2212,2213,2214,2215,2216,2217,2218,2219,2220,2221,2222,2223,2224,2225,2226,2227,2228,2229,2230,2231,2232,2233,2234,2235,2236,2237,2238,2239,2240,2241,2242,2243,2244,2245,2246,2247,2248,2249,2250,2251,2252,2253,2254,2255,2256,2257,2258,2259,2260,2261,2262,2263,2264,2265,2266,2267,2268,2269,2270,2271,2272,2273,2274,2275,2276,2277,2278,2279,2280,2281,2282,2283,2284,2285,2286,2287,2288,2289,2290,2291,2292,2293,2294,2295,2296,2297,2298,2299,2300,2301,2302,2303,2304,2305,2306,2307,2308,2309,2310,2311,2312,2313,2314,2315,2316,2317,2318,2319,2320,2321,2322,2323,2324,2325,2326,2327,2328,2329,2330,2331,2332,2333,2334,2335,2336,2337,2338,2339,2340,2341,2342,2343,2344,2345,2346,2347,2348,2349,2350,2351,2352,2353,2354,2355,2356,2357,2358,2359,2360,2361,2362,2363,2364,2365,2366,2367,2368,2369,2370,2371,2372,2373,2374,2375,2376,2377,2378,2379,2380,2381,2382,2383,2384,2385,2386,2387,2388,2389,2390,2391,2392,2393,2394,2395,2396,2397,2398,2399,2400,2401,2402,2403,2404,2405,2406,2407,2408,2409,2410,2411,2412,2413,2414,2415,2416,2417,2418,2419,2420,2421,2422,2423,2424,2425,2426,2427,2428,2429,2430,2431,2432,2433,2434,2435,2436,2437,2438,2439,2440,2441,2442,2443,2444,2445,2446,2447,2448,2449,2450,2451,2452,2453,2454,2455,2456,2457,2458,2459,2460,2461,2462,2463,2464,2465,2466,2467,2468,2469,2470,2471,2472,2473,2474,2475,2476,2477,2478,2479,2480,2481,2482,2483,2484,2485,2486,2487,2488,2489,2490,2491,2492,2493,2494,2495,2496,2497,2498,2499,2500,2501,2502,2503,2504,2505,2506,2507,2508,2509,2510,2511,2512,2513,2514,2515,2516,2517,2518,2519,2520,2521,2522,2523,2524,2525,2526,2527,2528,2529,2530,2531,2532,2533,2534,2535,2536,2537,2538,2539,2540,2541,2542,2543,2544,2545,2546,2547,2548,2549,2550,2551,2552,2553,2554,2555,2556,2557,2558,2559,2560,2561,2562,2563,2564,2565,2566,2567,2568,2569,2570,2571,2572,2573,2574,2575,2576,2577,2578,2579,2580,2581,2582,2583,2584,2585,2586,2587,2588,2589,2590,2591,2592,2593,2594,2595,2596,2597,2598,2599,2600,2601,2602,2603,2604,2605,2606,2607,2608,2609,2610,2611,2612,2613,2614,2615,2616,2617,2618,2619,2620,2621,2622,2623,2624,2625,2626,2627,2628,2629,2630,2631,2632,2633,2634,2635,2636,2637,2638,2639,2640,2641,2642,2643,2644,2645,2646,2647,2648,2649,2650,2651,2652,2653,2654,2655,2656,2657,2658,2659,2660,2661,2662,2663,2664,2665,2666,2667,2668,2669,2670,2671,2672,2673,2674,2675,2676,2677,2678,2679,2680,2681,2682,2683,2684,2685,2686,2687,2688,2689,2690,2691,2692,2693,2694,2695,2696,2697,2698,2699,2700,2701,2702,2703,2704,2705,2706,2707,2708,2709,2710,2711,2712,2713,2714,2715,2716,2717,2718,2719,2720,2721,2722,2723,2724,2725,2726,2727,2728,2729,2730,2731,2732,2733,2734,2735,2736,2737,2738,2739,2740,2741,2742,2743,2744,2745,2746,2747,2748,2749,2750,2751,2752,2753,2754,2755,2756,2757,2758,2759,2760,2761,2762,2763,2764,2765,2766,2767,2768,2769,2770,2771,2772,2773,2774,2775,2776,2777,2778,2779,2780,2781,2782,2783,2784,2785,2786,2787,2788,2789,2790,2791,2792,2793,2794,2795,2796,2797,2798,2799,2800,2801,2802,2803,2804,2805,2806,2807,2808,2809,2810,2811,2812,2813,2814,2815,2816,2817,2818,2819,2820,2821,2822,2823,2824,2825,2826,2827,2828,2829,2830,2831,2832,2833,2834,2835,2836,2837,2838,2839,2840,2841,2842,2843,2844,2845,2846,2847,2848,2849,2850,2851,2852,2853,2854,2855,2856,2857,2858,2859,2860,2861,2862,2863,2864,2865,2866,2867,2868,2869,2870,2871,2872,2873,2874,2875,2876,2877,2878,2879,2880,2881,2882,2883,2884,2885,2886,2887,2888,2889,2890,2891,2892,2893,2894,2895,2896,2897,2898,2899,2900,2901,2902,2903,2904,2905,2906,2907,2908,2909,2910,2911,2912,2913,2914,2915,2916,2917,2918,2919,2920,2921,2922,2923,2924,2925,2926,2927,2928,2929,2930,2931,2932,2933,2934,2935,2936,2937,2938,2939,2940,2941,2942,2943,2944,2945,2946,2947,2948,2949,2950,2951,2952,2953,2954,2955,2956,2957,2958,2959,2960,2961,2962,2963,2964,2965,2966,2967,2968,2969,2970,2971,2972,2973,2974,2975,2976,2977,2978,2979,2980,2981,2982,2983,2984,2985,2986,2987,2988,2989,2990,2991,2992,2993,2994,2995,2996,2997,2998,2999,3000],"tree_info":[0,0,0,0,0,0,0,0,0,0,0,0,0,0,0,0,0,0,0,0,0,0,0,0,0,0,0,0,0,0,0,0,0,0,0,0,0,0,0,0,0,0,0,0,0,0,0,0,0,0,0,0,0,0,0,0,0,0,0,0,0,0,0,0,0,0,0,0,0,0,0,0,0,0,0,0,0,0,0,0,0,0,0,0,0,0,0,0,0,0,0,0,0,0,0,0,0,0,0,0,0,0,0,0,0,0,0,0,0,0,0,0,0,0,0,0,0,0,0,0,0,0,0,0,0,0,0,0,0,0,0,0,0,0,0,0,0,0,0,0,0,0,0,0,0,0,0,0,0,0,0,0,0,0,0,0,0,0,0,0,0,0,0,0,0,0,0,0,0,0,0,0,0,0,0,0,0,0,0,0,0,0,0,0,0,0,0,0,0,0,0,0,0,0,0,0,0,0,0,0,0,0,0,0,0,0,0,0,0,0,0,0,0,0,0,0,0,0,0,0,0,0,0,0,0,0,0,0,0,0,0,0,0,0,0,0,0,0,0,0,0,0,0,0,0,0,0,0,0,0,0,0,0,0,0,0,0,0,0,0,0,0,0,0,0,0,0,0,0,0,0,0,0,0,0,0,0,0,0,0,0,0,0,0,0,0,0,0,0,0,0,0,0,0,0,0,0,0,0,0,0,0,0,0,0,0,0,0,0,0,0,0,0,0,0,0,0,0,0,0,0,0,0,0,0,0,0,0,0,0,0,0,0,0,0,0,0,0,0,0,0,0,0,0,0,0,0,0,0,0,0,0,0,0,0,0,0,0,0,0,0,0,0,0,0,0,0,0,0,0,0,0,0,0,0,0,0,0,0,0,0,0,0,0,0,0,0,0,0,0,0,0,0,0,0,0,0,0,0,0,0,0,0,0,0,0,0,0,0,0,0,0,0,0,0,0,0,0,0,0,0,0,0,0,0,0,0,0,0,0,0,0,0,0,0,0,0,0,0,0,0,0,0,0,0,0,0,0,0,0,0,0,0,0,0,0,0,0,0,0,0,0,0,0,0,0,0,0,0,0,0,0,0,0,0,0,0,0,0,0,0,0,0,0,0,0,0,0,0,0,0,0,0,0,0,0,0,0,0,0,0,0,0,0,0,0,0,0,0,0,0,0,0,0,0,0,0,0,0,0,0,0,0,0,0,0,0,0,0,0,0,0,0,0,0,0,0,0,0,0,0,0,0,0,0,0,0,0,0,0,0,0,0,0,0,0,0,0,0,0,0,0,0,0,0,0,0,0,0,0,0,0,0,0,0,0,0,0,0,0,0,0,0,0,0,0,0,0,0,0,0,0,0,0,0,0,0,0,0,0,0,0,0,0,0,0,0,0,0,0,0,0,0,0,0,0,0,0,0,0,0,0,0,0,0,0,0,0,0,0,0,0,0,0,0,0,0,0,0,0,0,0,0,0,0,0,0,0,0,0,0,0,0,0,0,0,0,0,0,0,0,0,0,0,0,0,0,0,0,0,0,0,0,0,0,0,0,0,0,0,0,0,0,0,0,0,0,0,0,0,0,0,0,0,0,0,0,0,0,0,0,0,0,0,0,0,0,0,0,0,0,0,0,0,0,0,0,0,0,0,0,0,0,0,0,0,0,0,0,0,0,0,0,0,0,0,0,0,0,0,0,0,0,0,0,0,0,0,0,0,0,0,0,0,0,0,0,0,0,0,0,0,0,0,0,0,0,0,0,0,0,0,0,0,0,0,0,0,0,0,0,0,0,0,0,0,0,0,0,0,0,0,0,0,0,0,0,0,0,0,0,0,0,0,0,0,0,0,0,0,0,0,0,0,0,0,0,0,0,0,0,0,0,0,0,0,0,0,0,0,0,0,0,0,0,0,0,0,0,0,0,0,0,0,0,0,0,0,0,0,0,0,0,0,0,0,0,0,0,0,0,0,0,0,0,0,0,0,0,0,0,0,0,0,0,0,0,0,0,0,0,0,0,0,0,0,0,0,0,0,0,0,0,0,0,0,0,0,0,0,0,0,0,0,0,0,0,0,0,0,0,0,0,0,0,0,0,0,0,0,0,0,0,0,0,0,0,0,0,0,0,0,0,0,0,0,0,0,0,0,0,0,0,0,0,0,0,0,0,0,0,0,0,0,0,0,0,0,0,0,0,0,0,0,0,0,0,0,0,0,0,0,0,0,0,0,0,0,0,0,0,0,0,0,0,0,0,0,0,0,0,0,0,0,0,0,0,0,0,0,0,0,0,0,0,0,0,0,0,0,0,0,0,0,0,0,0,0,0,0,0,0,0,0,0,0,0,0,0,0,0,0,0,0,0,0,0,0,0,0,0,0,0,0,0,0,0,0,0,0,0,0,0,0,0,0,0,0,0,0,0,0,0,0,0,0,0,0,0,0,0,0,0,0,0,0,0,0,0,0,0,0,0,0,0,0,0,0,0,0,0,0,0,0,0,0,0,0,0,0,0,0,0,0,0,0,0,0,0,0,0,0,0,0,0,0,0,0,0,0,0,0,0,0,0,0,0,0,0,0,0,0,0,0,0,0,0,0,0,0,0,0,0,0,0,0,0,0,0,0,0,0,0,0,0,0,0,0,0,0,0,0,0,0,0,0,0,0,0,0,0,0,0,0,0,0,0,0,0,0,0,0,0,0,0,0,0,0,0,0,0,0,0,0,0,0,0,0,0,0,0,0,0,0,0,0,0,0,0,0,0,0,0,0,0,0,0,0,0,0,0,0,0,0,0,0,0,0,0,0,0,0,0,0,0,0,0,0,0,0,0,0,0,0,0,0,0,0,0,0,0,0,0,0,0,0,0,0,0,0,0,0,0,0,0,0,0,0,0,0,0,0,0,0,0,0,0,0,0,0,0,0,0,0,0,0,0,0,0,0,0,0,0,0,0,0,0,0,0,0,0,0,0,0,0,0,0,0,0,0,0,0,0,0,0,0,0,0,0,0,0,0,0,0,0,0,0,0,0,0,0,0,0,0,0,0,0,0,0,0,0,0,0,0,0,0,0,0,0,0,0,0,0,0,0,0,0,0,0,0,0,0,0,0,0,0,0,0,0,0,0,0,0,0,0,0,0,0,0,0,0,0,0,0,0,0,0,0,0,0,0,0,0,0,0,0,0,0,0,0,0,0,0,0,0,0,0,0,0,0,0,0,0,0,0,0,0,0,0,0,0,0,0,0,0,0,0,0,0,0,0,0,0,0,0,0,0,0,0,0,0,0,0,0,0,0,0,0,0,0,0,0,0,0,0,0,0,0,0,0,0,0,0,0,0,0,0,0,0,0,0,0,0,0,0,0,0,0,0,0,0,0,0,0,0,0,0,0,0,0,0,0,0,0,0,0,0,0,0,0,0,0,0,0,0,0,0,0,0,0,0,0,0,0,0,0,0,0,0,0,0,0,0,0,0,0,0,0,0,0,0,0,0,0,0,0,0,0,0,0,0,0,0,0,0,0,0,0,0,0,0,0,0,0,0,0,0,0,0,0,0,0,0,0,0,0,0,0,0,0,0,0,0,0,0,0,0,0,0,0,0,0,0,0,0,0,0,0,0,0,0,0,0,0,0,0,0,0,0,0,0,0,0,0,0,0,0,0,0,0,0,0,0,0,0,0,0,0,0,0,0,0,0,0,0,0,0,0,0,0,0,0,0,0,0,0,0,0,0,0,0,0,0,0,0,0,0,0,0,0,0,0,0,0,0,0,0,0,0,0,0,0,0,0,0,0,0,0,0,0,0,0,0,0,0,0,0,0,0,0,0,0,0,0,0,0,0,0,0,0,0,0,0,0,0,0,0,0,0,0,0,0,0,0,0,0,0,0,0,0,0,0,0,0,0,0,0,0,0,0,0,0,0,0,0,0,0,0,0,0,0,0,0,0,0,0,0,0,0,0,0,0,0,0,0,0,0,0,0,0,0,0,0,0,0,0,0,0,0,0,0,0,0,0,0,0,0,0,0,0,0,0,0,0,0,0,0,0,0,0,0,0,0,0,0,0,0,0,0,0,0,0,0,0,0,0,0,0,0,0,0,0,0,0,0,0,0,0,0,0,0,0,0,0,0,0,0,0,0,0,0,0,0,0,0,0,0,0,0,0,0,0,0,0,0,0,0,0,0,0,0,0,0,0,0,0,0,0,0,0,0,0,0,0,0,0,0,0,0,0,0,0,0,0,0,0,0,0,0,0,0,0,0,0,0,0,0,0,0,0,0,0,0,0,0,0,0,0,0,0,0,0,0,0,0,0,0,0,0,0,0,0,0,0,0,0,0,0,0,0,0,0,0,0,0,0,0,0,0,0,0,0,0,0,0,0,0,0,0,0,0,0,0,0,0,0,0,0,0,0,0,0,0,0,0,0,0,0,0,0,0,0,0,0,0,0,0,0,0,0,0,0,0,0,0,0,0,0,0,0,0,0,0,0,0,0,0,0,0,0,0,0,0,0,0,0,0,0,0,0,0,0,0,0,0,0,0,0,0,0,0,0,0,0,0,0,0,0,0,0,0,0,0,0,0,0,0,0,0,0,0,0,0,0,0,0,0,0,0,0,0,0,0,0,0,0,0,0,0,0,0,0,0,0,0,0,0,0,0,0,0,0,0,0,0,0,0,0,0,0,0,0,0,0,0,0,0,0,0,0,0,0,0,0,0,0,0,0,0,0,0,0,0,0,0,0,0,0,0,0,0,0,0,0,0,0,0,0,0,0,0,0,0,0,0,0,0,0,0,0,0,0,0,0,0,0,0,0,0,0,0,0,0,0,0,0,0,0,0,0,0,0,0,0,0,0,0,0,0,0,0,0,0,0,0,0,0,0,0,0,0,0,0,0,0,0,0,0,0,0,0,0,0,0,0,0,0,0,0,0,0,0,0,0,0,0,0,0,0,0,0,0,0,0,0,0,0,0,0,0,0,0,0,0,0,0,0,0,0,0,0,0,0,0,0,0,0,0,0,0,0,0,0,0,0,0,0,0,0,0,0,0,0,0,0,0,0,0,0,0,0,0,0,0,0,0,0,0,0,0,0,0,0,0,0,0,0,0,0,0,0,0,0,0,0,0,0,0,0,0,0,0,0,0,0,0,0,0,0,0,0,0,0,0,0,0,0,0,0,0,0,0,0,0,0,0,0,0,0,0,0,0,0,0,0,0,0,0,0,0,0,0,0,0,0,0,0,0,0,0,0,0,0,0,0,0,0,0,0,0,0,0,0,0,0,0,0,0,0,0,0,0,0,0,0,0,0,0,0,0,0,0,0,0,0,0,0,0,0,0,0,0,0,0,0,0,0,0,0,0,0,0,0,0,0,0,0,0,0,0,0,0,0,0,0,0,0,0,0,0,0,0,0,0,0,0,0,0,0,0,0,0,0,0,0,0,0,0,0,0,0,0,0,0,0,0,0,0,0,0,0,0,0,0,0,0,0,0,0,0,0,0,0,0,0,0,0,0,0,0,0,0,0,0,0,0,0,0,0,0,0,0,0,0,0,0,0,0,0,0,0,0,0,0,0,0,0,0,0,0,0,0,0,0,0,0,0,0,0,0,0,0,0,0,0,0,0,0,0,0,0,0,0,0,0,0,0,0,0,0,0,0,0,0,0,0,0,0,0,0,0,0,0,0,0,0,0,0,0,0,0,0,0,0,0,0,0,0,0,0,0,0,0,0,0,0,0,0,0,0,0,0,0,0,0,0,0,0,0,0,0,0,0,0,0,0,0,0,0,0,0,0,0,0,0,0,0,0,0,0,0,0,0,0,0,0,0,0,0,0,0,0,0,0,0,0,0,0,0,0,0,0,0,0,0,0,0,0,0,0,0,0,0,0,0,0,0,0,0,0,0,0,0,0,0,0,0,0,0,0,0,0,0,0,0,0,0,0,0,0,0,0,0,0,0,0,0,0,0,0,0,0,0,0,0,0,0,0,0,0,0,0,0,0,0,0,0,0,0,0,0,0,0,0,0,0,0,0,0,0,0,0,0,0,0,0,0,0,0,0,0,0,0,0,0,0,0,0,0,0,0,0,0,0,0,0,0,0,0,0,0,0,0,0,0,0,0,0,0,0,0,0,0,0,0,0,0,0,0,0,0,0,0,0,0,0,0,0,0,0,0,0,0,0,0,0,0,0,0,0,0,0,0,0,0,0,0,0,0,0,0,0,0,0,0,0,0,0,0,0,0,0,0,0,0,0,0,0,0,0,0,0,0,0,0,0,0,0,0,0,0,0,0,0,0,0,0,0,0,0,0,0,0,0,0,0,0,0,0,0,0,0,0,0,0,0,0,0,0,0,0,0,0,0,0,0,0,0,0,0,0,0,0,0,0,0,0,0,0,0,0,0,0,0,0,0,0,0,0,0,0,0,0,0,0,0,0,0,0,0,0,0,0,0,0,0,0,0,0,0,0,0,0,0,0,0,0,0,0,0,0,0,0,0,0,0,0,0,0,0,0,0,0,0,0,0,0,0,0,0,0,0,0,0,0,0,0,0,0,0,0,0,0,0,0,0,0,0,0,0,0,0,0,0,0,0,0,0,0,0,0,0,0,0,0,0,0,0,0,0,0,0,0,0,0,0,0,0,0,0,0,0,0,0,0,0,0,0,0,0,0,0,0,0,0,0,0,0,0,0,0,0,0,0,0,0,0,0,0,0,0,0,0,0,0,0,0,0,0,0,0,0,0,0,0,0,0,0,0,0,0,0,0,0,0,0,0,0,0,0,0,0,0,0,0,0,0,0,0,0],"trees":[{"base_weights":[4.0079595E-4,-9.0638976E-5,4.1963445E-4],"categories":[],"categories_nodes":[],"categories_segments":[],"categories_sizes":[],"default_left":[0,0,0],"id":0,"left_children":[1,-1,-1],"loss_changes":[1.7516999E-1,0E0,0E0],"parents":[2147483647,0,0],"right_children":[2,-1,-1],"split_conditions":[1.5203756E-1,-9.0638976E-5,4.1963445E-4],"split_indices":[92,0,0],"split_type":[0,0,0],"sum_hessian":[4.33E2,3.52E2,8.1E1],"tree_param":{"num_deleted":"0","num_feature":"97","num_nodes":"3","size_leaf_vector":"1"}},{"base_weights":[-0E0,-1.1076985E-4,4.529191E-4],"categories":[],"categories_nodes":[],"categories_segments":[],"categories_sizes":[],"default_left":[0,0,0],"id":1,"left_children":[1,-1,-1],"loss_changes":[2.077551E-1,0E0,0E0],"parents":[2147483647,0,0],"right_children":[2,-1,-1],"split_conditions":[1.4693505E-1,-1.1076985E-4,4.529191E-4],"split_indices":[9,0,0],"split_type":[0,0,0],"sum_hessian":[4.16E2,3.37E2,7.9E1],"tree_param":{"num_deleted":"0","num_feature":"97","num_nodes":"3","size_leaf_vector":"1"}},{"base_weights":[8.0544344E-4,-9.970168E-5,4.6391567E-4],"categories":[],"categories_nodes":[],"categories_segments":[],"categories_sizes":[],"default_left":[0,0,0],"id":2,"left_children":[1,-1,-1],"loss_changes":[2.1235257E-1,0E0,0E0],"parents":[2147483647,0,0],"right_children":[2,-1,-1],"split_conditions":[1.4693505E-1,-9.970168E-5,4.6391567E-4],"split_indices":[9,0,0],"split_type":[0,0,0],"sum_hessian":[4.21E2,3.4E2,8.1E1],"tree_param":{"num_deleted":"0","num_feature":"97","num_nodes":"3","size_leaf_vector":"1"}},{"base_weights":[-5.0138583E-4,-1.0981958E-4,3.6412117E-4],"categories":[],"categories_nodes":[],"categories_segments":[],"categories_sizes":[],"default_left":[0,0,0],"id":3,"left_children":[1,-1,-1],"loss_changes":[1.6383907E-1,0E0,0E0],"parents":[2147483647,0,0],"right_children":[2,-1,-1],"split_conditions":[1.1740938E-1,-1.0981958E-4,3.6412117E-4],"split_indices":[0,0,0],"split_type":[0,0,0],"sum_hessian":[4.26E2,3.35E2,9.1E1],"tree_param":{"num_deleted":"0","num_feature":"97","num_nodes":"3","size_leaf_vector":"1"}},{"base_weights":[-2.2604648E-4,-1.0178857E-4,4.1824332E-4],"categories":[],"categories_nodes":[],"categories_segments":[],"categories_sizes":[],"default_left":[0,0,0],"id":4,"left_children":[1,-1,-1],"loss_changes":[1.7597619E-1,0E0,0E0],"parents":[2147483647,0,0],"right_children":[2,-1,-1],"split_conditions":[1.4693505E-1,-1.0178857E-4,4.1824332E-4],"split_indices":[9,0,0],"split_type":[0,0,0],"sum_hessian":[4.24E2,3.46E2,7.8E1],"tree_param":{"num_deleted":"0","num_feature":"97","num_nodes":"3","size_leaf_vector":"1"}},{"base_weights":[1.2064562E-3,-8.9964735E-5,4.3787243E-4],"categories":[],"categories_nodes":[],"categories_segments":[],"categories_sizes":[],"default_left":[0,0,0],"id":5,"left_children":[1,-1,-1],"loss_changes":[1.880388E-1,0E0,0E0],"parents":[2147483647,0,0],"right_children":[2,-1,-1],"split_conditions":[1.4693505E-1,-8.9964735E-5,4.3787243E-4],"split_indices":[9,0,0],"split_type":[0,0,0],"sum_hessian":[4.21E2,3.39E2,8.2E1],"tree_param":{"num_deleted":"0","num_feature":"97","num_nodes":"3","size_leaf_vector":"1"}},{"base_weights":[-3.2859063E-4,-9.551415E-5,3.7158045E-4],"categories":[],"categories_nodes":[],"categories_segments":[],"categories_sizes":[],"default_left":[0,0,0],"id":6,"left_children":[1,-1,-1],"loss_changes":[1.4281113E-1,0E0,0E0],"parents":[2147483647,0,0],"right_children":[2,-1,-1],"split_conditions":[1.4693505E-1,-9.551415E-5,3.7158045E-4],"split_indices":[9,0,0],"split_type":[0,0,0],"sum_hessian":[4.17E2,3.38E2,7.9E1],"tree_param":{"num_deleted":"0","num_feature":"97","num_nodes":"3","size_leaf_vector":"1"}},{"base_weights":[1.4055485E-4,4.1640375E-4,-7.285398E-5],"categories":[],"categories_nodes":[],"categories_segments":[],"categories_sizes":[],"default_left":[0,0,0],"id":7,"left_children":[1,-1,-1],"loss_changes":[1.3532509E-1,0E0,0E0],"parents":[2147483647,0,0],"right_children":[2,-1,-1],"split_conditions":[-2.962588E-1,4.1640375E-4,-7.285398E-5],"split_indices":[73,0,0],"split_type":[0,0,0],"sum_hessian":[4.24E2,6.5E1,3.59E2],"tree_param":{"num_deleted":"0","num_feature":"97","num_nodes":"3","size_leaf_vector":"1"}},{"base_weights":[9.499514E-4,-6.370707E-5,6.292099E-4],"categories":[],"categories_nodes":[],"categories_segments":[],"categories_sizes":[],"default_left":[0,0,0],"id":8,"left_children":[1,-1,-1],"loss_changes":[1.9699766E-1,0E0,0E0],"parents":[2147483647,0,0],"right_children":[2,-1,-1],"split_conditions":[2.9983246E-1,-6.370707E-5,6.292099E-4],"split_indices":[9,0,0],"split_type":[0,0,0],"sum_hessian":[4.18E2,3.74E2,4.4E1],"tree_param":{"num_deleted":"0","num_feature":"97","num_nodes":"3","size_leaf_vector":"1"}},{"base_weights":[-7.561177E-4,-7.329246E-5,5.6641176E-4],"categories":[],"categories_nodes":[],"categories_segments":[],"categories_sizes":[],"default_left":[0,0,0],"id":9,"left_children":[1,-1,-1],"loss_changes":[1.5133835E-1,0E0,0E0],"parents":[2147483647,0,0],"right_children":[2,-1,-1],"split_conditions":[2.9983246E-1,-7.329246E-5,5.6641176E-4],"split_indices":[9,0,0],"split_type":[0,0,0],"sum_hessian":[4.1E2,3.71E2,3.9E1],"tree_param":{"num_deleted":"0","num_feature":"97","num_nodes":"3","size_leaf_vector":"1"}},{"base_weights":[9.1532833E-4,-8.4809966E-5,3.9110007E-4],"categories":[],"categories_nodes":[],"categories_segments":[],"categories_sizes":[],"default_left":[0,0,0],"id":10,"left_children":[1,-1,-1],"loss_changes":[1.5194772E-1,0E0,0E0],"parents":[2147483647,0,0],"right_children":[2,-1,-1],"split_conditions":[1.5203756E-1,-8.4809966E-5,3.9110007E-4],"split_indices":[92,0,0],"split_type":[0,0,0],"sum_hessian":[4.11E2,3.29E2,8.2E1],"tree_param":{"num_deleted":"0","num_feature":"97","num_nodes":"3","size_leaf_vector":"1"}},{"base_weights":[-0E0,-9.3727984E-5,4.1362058E-4],"categories":[],"categories_nodes":[],"categories_segments":[],"categories_sizes":[],"default_left":[0,0,0],"id":11,"left_children":[1,-1,-1],"loss_changes":[1.6098696E-1,0E0,0E0],"parents":[2147483647,0,0],"right_children":[2,-1,-1],"split_conditions":[1.5203756E-1,-9.3727984E-5,4.1362058E-4],"split_indices":[92,0,0],"split_type":[0,0,0],"sum_hessian":[4.06E2,3.31E2,7.5E1],"tree_param":{"num_deleted":"0","num_feature":"97","num_nodes":"3","size_leaf_vector":"1"}},{"base_weights":[-0E0,-9.4515315E-5,4.2367968E-4],"categories":[],"categories_nodes":[],"categories_segments":[],"categories_sizes":[],"default_left":[0,0,0],"id":12,"left_children":[1,-1,-1],"loss_changes":[1.6670676E-1,0E0,0E0],"parents":[2147483647,0,0],"right_children":[2,-1,-1],"split_conditions":[1.4693505E-1,-9.4515315E-5,4.2367968E-4],"split_indices":[9,0,0],"split_type":[0,0,0],"sum_hessian":[4.11E2,3.37E2,7.4E1],"tree_param":{"num_deleted":"0","num_feature":"97","num_nodes":"3","size_leaf_vector":"1"}},{"base_weights":[4.1540826E-4,-9.066953E-5,4.0931365E-4],"categories":[],"categories_nodes":[],"categories_segments":[],"categories_sizes":[],"default_left":[0,0,0],"id":13,"left_children":[1,-1,-1],"loss_changes":[1.7335515E-1,0E0,0E0],"parents":[2147483647,0,0],"right_children":[2,-1,-1],"split_conditions":[1.4693505E-1,-9.066953E-5,4.0931365E-4],"split_indices":[9,0,0],"split_type":[0,0,0],"sum_hessian":[4.39E2,3.55E2,8.4E1],"tree_param":{"num_deleted":"0","num_feature":"97","num_nodes":"3","size_leaf_vector":"1"}},{"base_weights":[-9.939802E-4,-1.02834754E-4,3.5881906E-4],"categories":[],"categories_nodes":[],"categories_segments":[],"categories_sizes":[],"default_left":[0,0,0],"id":14,"left_children":[1,-1,-1],"loss_changes":[1.4410801E-1,0E0,0E0],"parents":[2147483647,0,0],"right_children":[2,-1,-1],"split_conditions":[1.2322334E-1,-1.02834754E-4,3.5881906E-4],"split_indices":[92,0,0],"split_type":[0,0,0],"sum_hessian":[4.24E2,3.42E2,8.2E1],"tree_param":{"num_deleted":"0","num_feature":"97","num_nodes":"3","size_leaf_vector":"1"}},{"base_weights":[3.8895005E-4,-5.8396992E-5,6.1386585E-4],"categories":[],"categories_nodes":[],"categories_segments":[],"categories_sizes":[],"default_left":[0,0,0],"id":15,"left_children":[1,-1,-1],"loss_changes":[1.5938461E-1,0E0,0E0],"parents":[2147483647,0,0],"right_children":[2,-1,-1],"split_conditions":[3.2481822E-1,-5.8396992E-5,6.1386585E-4],"split_indices":[9,0,0],"split_type":[0,0,0],"sum_hessian":[4.01E2,3.64E2,3.7E1],"tree_param":{"num_deleted":"0","num_feature":"97","num_nodes":"3","size_leaf_vector":"1"}},{"base_weights":[-6.2422194E-5,-8.7181135E-5,3.4401793E-4],"categories":[],"categories_nodes":[],"categories_segments":[],"categories_sizes":[],"default_left":[0,0,0],"id":16,"left_children":[1,-1,-1],"loss_changes":[1.2570883E-1,0E0,0E0],"parents":[2147483647,0,0],"right_children":[2,-1,-1],"split_conditions":[1.4693505E-1,-8.7181135E-5,3.4401793E-4],"split_indices":[9,0,0],"split_type":[0,0,0],"sum_hessian":[4.26E2,3.44E2,8.2E1],"tree_param":{"num_deleted":"0","num_feature":"97","num_nodes":"3","size_leaf_vector":"1"}},{"base_weights":[-1.7151368E-5,-9.5314645E-5,4.3117805E-4],"categories":[],"categories_nodes":[],"categories_segments":[],"categories_sizes":[],"default_left":[0,0,0],"id":17,"left_children":[1,-1,-1],"loss_changes":[1.6901031E-1,0E0,0E0],"parents":[2147483647,0,0],"right_children":[2,-1,-1],"split_conditions":[1.5203756E-1,-9.5314645E-5,4.3117805E-4],"split_indices":[92,0,0],"split_type":[0,0,0],"sum_hessian":[4.16E2,3.44E2,7.2E1],"tree_param":{"num_deleted":"0","num_feature":"97","num_nodes":"3","size_leaf_vector":"1"}},{"base_weights":[-0E0,-8.566358E-5,2.991958E-4],"categories":[],"categories_nodes":[],"categories_segments":[],"categories_sizes":[],"default_left":[0,0,0],"id":18,"left_children":[1,-1,-1],"loss_changes":[1.0717455E-1,0E0,0E0],"parents":[2147483647,0,0],"right_children":[2,-1,-1],"split_conditions":[2.078324E-1,-8.566358E-5,2.991958E-4],"split_indices":[4,0,0],"split_type":[0,0,0],"sum_hessian":[4.15E2,3.24E2,9.1E1],"tree_param":{"num_deleted":"0","num_feature":"97","num_nodes":"3","size_leaf_vector":"1"}},{"base_weights":[-2.5498659E-5,-8.988767E-5,4.2499407E-4],"categories":[],"categories_nodes":[],"categories_segments":[],"categories_sizes":[],"default_left":[0,0,0],"id":19,"left_children":[1,-1,-1],"loss_changes":[1.563576E-1,0E0,0E0],"parents":[2147483647,0,0],"right_children":[2,-1,-1],"split_conditions":[1.65075E-1,-8.988767E-5,4.2499407E-4],"split_indices":[92,0,0],"split_type":[0,0,0],"sum_hessian":[4.15E2,3.46E2,6.9E1],"tree_param":{"num_deleted":"0","num_feature":"97","num_nodes":"3","size_leaf_vector":"1"}},{"base_weights":[-4.6011535E-4,-6.861461E-5,5.5859843E-4],"categories":[],"categories_nodes":[],"categories_segments":[],"categories_sizes":[],"default_left":[0,0,0],"id":20,"left_children":[1,-1,-1],"loss_changes":[1.4908923E-1,0E0,0E0],"parents":[2147483647,0,0],"right_children":[2,-1,-1],"split_conditions":[3.2481822E-1,-6.861461E-5,5.5859843E-4],"split_indices":[9,0,0],"split_type":[0,0,0],"sum_hessian":[4.23E2,3.83E2,4E1],"tree_param":{"num_deleted":"0","num_feature":"97","num_nodes":"3","size_leaf_vector":"1"}},{"base_weights":[-2.1837263E-4,-9.616183E-5,3.79924E-4],"categories":[],"categories_nodes":[],"categories_segments":[],"categories_sizes":[],"default_left":[0,0,0],"id":21,"left_children":[1,-1,-1],"loss_changes":[1.5015043E-1,0E0,0E0],"parents":[2147483647,0,0],"right_children":[2,-1,-1],"split_conditions":[1.4693505E-1,-9.616183E-5,3.79924E-4],"split_indices":[9,0,0],"split_type":[0,0,0],"sum_hessian":[4.22E2,3.42E2,8E1],"tree_param":{"num_deleted":"0","num_feature":"97","num_nodes":"3","size_leaf_vector":"1"}},{"base_weights":[-3.3060747E-4,-9.314019E-5,3.8098148E-4],"categories":[],"categories_nodes":[],"categories_segments":[],"categories_sizes":[],"default_left":[0,0,0],"id":22,"left_children":[1,-1,-1],"loss_changes":[1.4489555E-1,0E0,0E0],"parents":[2147483647,0,0],"right_children":[2,-1,-1],"split_conditions":[1.4693505E-1,-9.314019E-5,3.8098148E-4],"split_indices":[9,0,0],"split_type":[0,0,0],"sum_hessian":[4.24E2,3.47E2,7.7E1],"tree_param":{"num_deleted":"0","num_feature":"97","num_nodes":"3","size_leaf_vector":"1"}},{"base_weights":[-0E0,-8.588744E-5,3.1202077E-4],"categories":[],"categories_nodes":[],"categories_segments":[],"categories_sizes":[],"default_left":[0,0,0],"id":23,"left_children":[1,-1,-1],"loss_changes":[1.12495184E-1,0E0,0E0],"parents":[2147483647,0,0],"right_children":[2,-1,-1],"split_conditions":[2.078324E-1,-8.588744E-5,3.1202077E-4],"split_indices":[4,0,0],"split_type":[0,0,0],"sum_hessian":[4.11E2,3.22E2,8.9E1],"tree_param":{"num_deleted":"0","num_feature":"97","num_nodes":"3","size_leaf_vector":"1"}},{"base_weights":[-0E0,-8.4344705E-5,3.0716063E-4],"categories":[],"categories_nodes":[],"categories_segments":[],"categories_sizes":[],"default_left":[0,0,0],"id":24,"left_children":[1,-1,-1],"loss_changes":[1.0737457E-1,0E0,0E0],"parents":[2147483647,0,0],"right_children":[2,-1,-1],"split_conditions":[2.078324E-1,-8.4344705E-5,3.0716063E-4],"split_indices":[4,0,0],"split_type":[0,0,0],"sum_hessian":[4.14E2,3.27E2,8.7E1],"tree_param":{"num_deleted":"0","num_feature":"97","num_nodes":"3","size_leaf_vector":"1"}},{"base_weights":[-1.4656211E-5,-9.217364E-5,2.9930103E-4],"categories":[],"categories_nodes":[],"categories_segments":[],"categories_sizes":[],"default_left":[0,0,0],"id":25,"left_children":[1,-1,-1],"loss_changes":[1.1697683E-1,0E0,0E0],"parents":[2147483647,0,0],"right_children":[2,-1,-1],"split_conditions":[1.8886653E-1,-9.217364E-5,2.9930103E-4],"split_indices":[4,0,0],"split_type":[0,0,0],"sum_hessian":[4.28E2,3.31E2,9.7E1],"tree_param":{"num_deleted":"0","num_feature":"97","num_nodes":"3","size_leaf_vector":"1"}},{"base_weights":[-0E0,-6.379653E-5,5.094273E-4],"categories":[],"categories_nodes":[],"categories_segments":[],"categories_sizes":[],"default_left":[0,0,0],"id":26,"left_children":[1,-1,-1],"loss_changes":[1.425068E-1,0E0,0E0],"parents":[2147483647,0,0],"right_children":[2,-1,-1],"split_conditions":[2.9983246E-1,-6.379653E-5,5.094273E-4],"split_indices":[9,0,0],"split_type":[0,0,0],"sum_hessian":[4.22E2,3.75E2,4.7E1],"tree_param":{"num_deleted":"0","num_feature":"97","num_nodes":"3","size_leaf_vector":"1"}},{"base_weights":[5.234593E-4,-4.6459492E-5,4.9773406E-4],"categories":[],"categories_nodes":[],"categories_segments":[],"categories_sizes":[],"default_left":[0,0,0],"id":27,"left_children":[1,-1,-1],"loss_changes":[1.1215893E-1,0E0,0E0],"parents":[2147483647,0,0],"right_children":[2,-1,-1],"split_conditions":[2.9983246E-1,-4.6459492E-5,4.9773406E-4],"split_indices":[9,0,0],"split_type":[0,0,0],"sum_hessian":[4.19E2,3.79E2,4E1],"tree_param":{"num_deleted":"0","num_feature":"97","num_nodes":"3","size_leaf_vector":"1"}},{"base_weights":[6.271175E-5,-6.262309E-5,5.379656E-4],"categories":[],"categories_nodes":[],"categories_segments":[],"categories_sizes":[],"default_left":[0,0,0],"id":28,"left_children":[1,-1,-1],"loss_changes":[1.4783177E-1,0E0,0E0],"parents":[2147483647,0,0],"right_children":[2,-1,-1],"split_conditions":[2.9983246E-1,-6.262309E-5,5.379656E-4],"split_indices":[9,0,0],"split_type":[0,0,0],"sum_hessian":[4.17E2,3.73E2,4.4E1],"tree_param":{"num_deleted":"0","num_feature":"97","num_nodes":"3","size_leaf_vector":"1"}},{"base_weights":[-0E0,-6.085999E-5,5.3198525E-4],"categories":[],"categories_nodes":[],"categories_segments":[],"categories_sizes":[],"default_left":[0,0,0],"id":29,"left_children":[1,-1,-1],"loss_changes":[1.4194727E-1,0E0,0E0],"parents":[2147483647,0,0],"right_children":[2,-1,-1],"split_conditions":[2.9983246E-1,-6.085999E-5,5.3198525E-4],"split_indices":[9,0,0],"split_type":[0,0,0],"sum_hessian":[4.35E2,3.92E2,4.3E1],"tree_param":{"num_deleted":"0","num_feature":"97","num_nodes":"3","size_leaf_vector":"1"}},{"base_weights":[4.7271737E-5,-8.9758774E-5,3.8648097E-4],"categories":[],"categories_nodes":[],"categories_segments":[],"categories_sizes":[],"default_left":[0,0,0],"id":30,"left_children":[1,-1,-1],"loss_changes":[1.5168893E-1,0E0,0E0],"parents":[2147483647,0,0],"right_children":[2,-1,-1],"split_conditions":[1.4461003E-1,-8.9758774E-5,3.8648097E-4],"split_indices":[0,0,0],"split_type":[0,0,0],"sum_hessian":[4.23E2,3.42E2,8.1E1],"tree_param":{"num_deleted":"0","num_feature":"97","num_nodes":"3","size_leaf_vector":"1"}},{"base_weights":[1.8712238E-4,-9.262316E-5,2.9015972E-4],"categories":[],"categories_nodes":[],"categories_segments":[],"categories_sizes":[],"default_left":[0,0,0],"id":31,"left_children":[1,-1,-1],"loss_changes":[1.19379535E-1,0E0,0E0],"parents":[2147483647,0,0],"right_children":[2,-1,-1],"split_conditions":[9.577372E-2,-9.262316E-5,2.9015972E-4],"split_indices":[92,0,0],"split_type":[0,0,0],"sum_hessian":[4.27E2,3.2E2,1.07E2],"tree_param":{"num_deleted":"0","num_feature":"97","num_nodes":"3","size_leaf_vector":"1"}},{"base_weights":[4.7352468E-4,-4.898178E-5,4.9727125E-4],"categories":[],"categories_nodes":[],"categories_segments":[],"categories_sizes":[],"default_left":[0,0,0],"id":32,"left_children":[1,-1,-1],"loss_changes":[1.1794386E-1,0E0,0E0],"parents":[2147483647,0,0],"right_children":[2,-1,-1],"split_conditions":[2.9983246E-1,-4.898178E-5,4.9727125E-4],"split_indices":[9,0,0],"split_type":[0,0,0],"sum_hessian":[4.25E2,3.83E2,4.2E1],"tree_param":{"num_deleted":"0","num_feature":"97","num_nodes":"3","size_leaf_vector":"1"}},{"base_weights":[-7.0180866E-4,-1.4346172E-4,1.3523687E-4],"categories":[],"categories_nodes":[],"categories_segments":[],"categories_sizes":[],"default_left":[0,0,0],"id":33,"left_children":[1,-1,-1],"loss_changes":[8.3155945E-2,0E0,0E0],"parents":[2147483647,0,0],"right_children":[2,-1,-1],"split_conditions":[1.5183831E-2,-1.4346172E-4,1.3523687E-4],"split_indices":[23,0,0],"split_type":[0,0,0],"sum_hessian":[4.24E2,2.2E2,2.04E2],"tree_param":{"num_deleted":"0","num_feature":"97","num_nodes":"3","size_leaf_vector":"1"}},{"base_weights":[-3.9386298E-4,-1.1251359E-4,2.203389E-4],"categories":[],"categories_nodes":[],"categories_segments":[],"categories_sizes":[],"default_left":[0,0,0],"id":34,"left_children":[1,-1,-1],"loss_changes":[1.0193497E-1,0E0,0E0],"parents":[2147483647,0,0],"right_children":[2,-1,-1],"split_conditions":[7.1497455E-2,-1.1251359E-4,2.203389E-4],"split_indices":[92,0,0],"split_type":[0,0,0],"sum_hessian":[4.19E2,2.86E2,1.33E2],"tree_param":{"num_deleted":"0","num_feature":"97","num_nodes":"3","size_leaf_vector":"1"}},{"base_weights":[3.6283114E-4,-5.2509055E-5,5.0348067E-4],"categories":[],"categories_nodes":[],"categories_segments":[],"categories_sizes":[],"default_left":[0,0,0],"id":35,"left_children":[1,-1,-1],"loss_changes":[1.2457574E-1,0E0,0E0],"parents":[2147483647,0,0],"right_children":[2,-1,-1],"split_conditions":[2.9983246E-1,-5.2509055E-5,5.0348067E-4],"split_indices":[9,0,0],"split_type":[0,0,0],"sum_hessian":[4.24E2,3.81E2,4.3E1],"tree_param":{"num_deleted":"0","num_feature":"97","num_nodes":"3","size_leaf_vector":"1"}},{"base_weights":[-0E0,-8.06824E-5,3.6591396E-4],"categories":[],"categories_nodes":[],"categories_segments":[],"categories_sizes":[],"default_left":[0,0,0],"id":36,"left_children":[1,-1,-1],"loss_changes":[1.2575121E-1,0E0,0E0],"parents":[2147483647,0,0],"right_children":[2,-1,-1],"split_conditions":[1.4693505E-1,-8.06824E-5,3.6591396E-4],"split_indices":[9,0,0],"split_type":[0,0,0],"sum_hessian":[4.21E2,3.46E2,7.5E1],"tree_param":{"num_deleted":"0","num_feature":"97","num_nodes":"3","size_leaf_vector":"1"}},{"base_weights":[-3.0057484E-4,-1.0834132E-4,2.7958245E-4],"categories":[],"categories_nodes":[],"categories_segments":[],"categories_sizes":[],"default_left":[0,0,0],"id":37,"left_children":[1,-1,-1],"loss_changes":[1.3046174E-1,0E0,0E0],"parents":[2147483647,0,0],"right_children":[2,-1,-1],"split_conditions":[8.592559E-2,-1.0834132E-4,2.7958245E-4],"split_indices":[92,0,0],"split_type":[0,0,0],"sum_hessian":[4.4E2,3.24E2,1.16E2],"tree_param":{"num_deleted":"0","num_feature":"97","num_nodes":"3","size_leaf_vector":"1"}},{"base_weights":[9.892207E-4,-6.451038E-5,3.7414196E-4],"categories":[],"categories_nodes":[],"categories_segments":[],"categories_sizes":[],"default_left":[0,0,0],"id":38,"left_children":[1,-1,-1],"loss_changes":[1.1930084E-1,0E0,0E0],"parents":[2147483647,0,0],"right_children":[2,-1,-1],"split_conditions":[1.6009428E-1,-6.451038E-5,3.7414196E-4],"split_indices":[0,0,0],"split_type":[0,0,0],"sum_hessian":[4.25E2,3.52E2,7.3E1],"tree_param":{"num_deleted":"0","num_feature":"97","num_nodes":"3","size_leaf_vector":"1"}},{"base_weights":[-0E0,-6.2384286E-5,5.3698395E-4],"categories":[],"categories_nodes":[],"categories_segments":[],"categories_sizes":[],"default_left":[0,0,0],"id":39,"left_children":[1,-1,-1],"loss_changes":[1.3562416E-1,0E0,0E0],"parents":[2147483647,0,0],"right_children":[2,-1,-1],"split_conditions":[2.9983246E-1,-6.2384286E-5,5.3698395E-4],"split_indices":[9,0,0],"split_type":[0,0,0],"sum_hessian":[4.11E2,3.71E2,4E1],"tree_param":{"num_deleted":"0","num_feature":"97","num_nodes":"3","size_leaf_vector":"1"}},{"base_weights":[4.7884456E-5,-5.1499865E-5,5.338873E-4],"categories":[],"categories_nodes":[],"categories_segments":[],"categories_sizes":[],"default_left":[0,0,0],"id":40,"left_children":[1,-1,-1],"loss_changes":[1.2126798E-1,0E0,0E0],"parents":[2147483647,0,0],"right_children":[2,-1,-1],"split_conditions":[2.9983246E-1,-5.1499865E-5,5.338873E-4],"split_indices":[9,0,0],"split_type":[0,0,0],"sum_hessian":[4.16E2,3.79E2,3.7E1],"tree_param":{"num_deleted":"0","num_feature":"97","num_nodes":"3","size_leaf_vector":"1"}},{"base_weights":[-9.960214E-4,-5.591565E-5,5.9677183E-4],"categories":[],"categories_nodes":[],"categories_segments":[],"categories_sizes":[],"default_left":[0,0,0],"id":41,"left_children":[1,-1,-1],"loss_changes":[1.11529425E-1,0E0,0E0],"parents":[2147483647,0,0],"right_children":[2,-1,-1],"split_conditions":[4.242731E-1,-5.591565E-5,5.9677183E-4],"split_indices":[9,0,0],"split_type":[0,0,0],"sum_hessian":[4.15E2,3.89E2,2.6E1],"tree_param":{"num_deleted":"0","num_feature":"97","num_nodes":"3","size_leaf_vector":"1"}},{"base_weights":[-0E0,-1.7795725E-4,1.4183583E-4],"categories":[],"categories_nodes":[],"categories_segments":[],"categories_sizes":[],"default_left":[0,0,0],"id":42,"left_children":[1,-1,-1],"loss_changes":[1.06727555E-1,0E0,0E0],"parents":[2147483647,0,0],"right_children":[2,-1,-1],"split_conditions":[3.1319135E-4,-1.7795725E-4,1.4183583E-4],"split_indices":[11,0,0],"split_type":[0,0,0],"sum_hessian":[4.18E2,1.87E2,2.31E2],"tree_param":{"num_deleted":"0","num_feature":"97","num_nodes":"3","size_leaf_vector":"1"}},{"base_weights":[-3.4250144E-4,-7.787966E-5,3.0245422E-4],"categories":[],"categories_nodes":[],"categories_segments":[],"categories_sizes":[],"default_left":[0,0,0],"id":43,"left_children":[1,-1,-1],"loss_changes":[9.38767E-2,0E0,0E0],"parents":[2147483647,0,0],"right_children":[2,-1,-1],"split_conditions":[1.4693505E-1,-7.787966E-5,3.0245422E-4],"split_indices":[9,0,0],"split_type":[0,0,0],"sum_hessian":[4.18E2,3.4E2,7.8E1],"tree_param":{"num_deleted":"0","num_feature":"97","num_nodes":"3","size_leaf_vector":"1"}},{"base_weights":[-0E0,-8.138106E-5,3.4221465E-4],"categories":[],"categories_nodes":[],"categories_segments":[],"categories_sizes":[],"default_left":[0,0,0],"id":44,"left_children":[1,-1,-1],"loss_changes":[1.1627271E-1,0E0,0E0],"parents":[2147483647,0,0],"right_children":[2,-1,-1],"split_conditions":[1.4693505E-1,-8.138106E-5,3.4221465E-4],"split_indices":[9,0,0],"split_type":[0,0,0],"sum_hessian":[4.17E2,3.39E2,7.8E1],"tree_param":{"num_deleted":"0","num_feature":"97","num_nodes":"3","size_leaf_vector":"1"}},{"base_weights":[9.695687E-4,-2.8530727E-4,9.665154E-5],"categories":[],"categories_nodes":[],"categories_segments":[],"categories_sizes":[],"default_left":[0,0,0],"id":45,"left_children":[1,-1,-1],"loss_changes":[1.035826E-1,0E0,0E0],"parents":[2147483647,0,0],"right_children":[2,-1,-1],"split_conditions":[-3.8476396E-2,-2.8530727E-4,9.665154E-5],"split_indices":[92,0,0],"split_type":[0,0,0],"sum_hessian":[4.07E2,8.9E1,3.18E2],"tree_param":{"num_deleted":"0","num_feature":"97","num_nodes":"3","size_leaf_vector":"1"}},{"base_weights":[-1.1267326E-3,-2.8326802E-4,7.375845E-5],"categories":[],"categories_nodes":[],"categories_segments":[],"categories_sizes":[],"default_left":[0,0,0],"id":46,"left_children":[1,-1,-1],"loss_changes":[1.0427208E-1,0E0,0E0],"parents":[2147483647,0,0],"right_children":[2,-1,-1],"split_conditions":[-3.8476396E-2,-2.8326802E-4,7.375845E-5],"split_indices":[92,0,0],"split_type":[0,0,0],"sum_hessian":[4.38E2,1.06E2,3.32E2],"tree_param":{"num_deleted":"0","num_feature":"97","num_nodes":"3","size_leaf_vector":"1"}},{"base_weights":[-1.7214128E-4,-2.9761743E-4,8.2208244E-5],"categories":[],"categories_nodes":[],"categories_segments":[],"categories_sizes":[],"default_left":[0,0,0],"id":47,"left_children":[1,-1,-1],"loss_changes":[1.0371963E-1,0E0,0E0],"parents":[2147483647,0,0],"right_children":[2,-1,-1],"split_conditions":[-3.8476396E-2,-2.9761743E-4,8.2208244E-5],"split_indices":[92,0,0],"split_type":[0,0,0],"sum_hessian":[4.05E2,9.1E1,3.14E2],"tree_param":{"num_deleted":"0","num_feature":"97","num_nodes":"3","size_leaf_vector":"1"}},{"base_weights":[-0E0,-8.103368E-5,3.466466E-4],"categories":[],"categories_nodes":[],"categories_segments":[],"categories_sizes":[],"default_left":[0,0,0],"id":48,"left_children":[1,-1,-1],"loss_changes":[1.21122986E-1,0E0,0E0],"parents":[2147483647,0,0],"right_children":[2,-1,-1],"split_conditions":[1.5203756E-1,-8.103368E-5,3.466466E-4],"split_indices":[92,0,0],"split_type":[0,0,0],"sum_hessian":[4.22E2,3.42E2,8E1],"tree_param":{"num_deleted":"0","num_feature":"97","num_nodes":"3","size_leaf_vector":"1"}},{"base_weights":[-1.3383575E-4,-5.7061952E-5,4.4705372E-4],"categories":[],"categories_nodes":[],"categories_segments":[],"categories_sizes":[],"default_left":[0,0,0],"id":49,"left_children":[1,-1,-1],"loss_changes":[1.02301136E-1,0E0,0E0],"parents":[2147483647,0,0],"right_children":[2,-1,-1],"split_conditions":[2.9983246E-1,-5.7061952E-5,4.4705372E-4],"split_indices":[9,0,0],"split_type":[0,0,0],"sum_hessian":[4.21E2,3.78E2,4.3E1],"tree_param":{"num_deleted":"0","num_feature":"97","num_nodes":"3","size_leaf_vector":"1"}},{"base_weights":[9.031326E-5,-8.95935E-5,2.4880897E-4],"categories":[],"categories_nodes":[],"categories_segments":[],"categories_sizes":[],"default_left":[0,0,0],"id":50,"left_children":[1,-1,-1],"loss_changes":[9.559045E-2,0E0,0E0],"parents":[2147483647,0,0],"right_children":[2,-1,-1],"split_conditions":[8.592559E-2,-8.95935E-5,2.4880897E-4],"split_indices":[92,0,0],"split_type":[0,0,0],"sum_hessian":[4.15E2,3.02E2,1.13E2],"tree_param":{"num_deleted":"0","num_feature":"97","num_nodes":"3","size_leaf_vector":"1"}},{"base_weights":[1.1280682E-3,-6.643612E-5,3.0882977E-4],"categories":[],"categories_nodes":[],"categories_segments":[],"categories_sizes":[],"default_left":[0,0,0],"id":51,"left_children":[1,-1,-1],"loss_changes":[9.995746E-2,0E0,0E0],"parents":[2147483647,0,0],"right_children":[2,-1,-1],"split_conditions":[2.2407046E-1,-6.643612E-5,3.0882977E-4],"split_indices":[4,0,0],"split_type":[0,0,0],"sum_hessian":[4.18E2,3.3E2,8.8E1],"tree_param":{"num_deleted":"0","num_feature":"97","num_nodes":"3","size_leaf_vector":"1"}},{"base_weights":[-0E0,-6.189227E-5,4.256172E-4],"categories":[],"categories_nodes":[],"categories_segments":[],"categories_sizes":[],"default_left":[0,0,0],"id":52,"left_children":[1,-1,-1],"loss_changes":[1.10451065E-1,0E0,0E0],"parents":[2147483647,0,0],"right_children":[2,-1,-1],"split_conditions":[2.9983246E-1,-6.189227E-5,4.256172E-4],"split_indices":[9,0,0],"split_type":[0,0,0],"sum_hessian":[4.26E2,3.75E2,5.1E1],"tree_param":{"num_deleted":"0","num_feature":"97","num_nodes":"3","size_leaf_vector":"1"}},{"base_weights":[-0E0,-4.146922E-5,5.604177E-4],"categories":[],"categories_nodes":[],"categories_segments":[],"categories_sizes":[],"default_left":[0,0,0],"id":53,"left_children":[1,-1,-1],"loss_changes":[1.01047605E-1,0E0,0E0],"parents":[2147483647,0,0],"right_children":[2,-1,-1],"split_conditions":[4.242731E-1,-4.146922E-5,5.604177E-4],"split_indices":[9,0,0],"split_type":[0,0,0],"sum_hessian":[4.23E2,3.95E2,2.8E1],"tree_param":{"num_deleted":"0","num_feature":"97","num_nodes":"3","size_leaf_vector":"1"}},{"base_weights":[3.7986552E-5,-1.0787969E-4,1.9737714E-4],"categories":[],"categories_nodes":[],"categories_segments":[],"categories_sizes":[],"default_left":[0,0,0],"id":54,"left_children":[1,-1,-1],"loss_changes":[9.153336E-2,0E0,0E0],"parents":[2147483647,0,0],"right_children":[2,-1,-1],"split_conditions":[5.323866E-2,-1.0787969E-4,1.9737714E-4],"split_indices":[92,0,0],"split_type":[0,0,0],"sum_hessian":[4.21E2,2.69E2,1.52E2],"tree_param":{"num_deleted":"0","num_feature":"97","num_nodes":"3","size_leaf_vector":"1"}},{"base_weights":[-0E0,-7.554678E-5,3.071106E-4],"categories":[],"categories_nodes":[],"categories_segments":[],"categories_sizes":[],"default_left":[0,0,0],"id":55,"left_children":[1,-1,-1],"loss_changes":[1.0197426E-1,0E0,0E0],"parents":[2147483647,0,0],"right_children":[2,-1,-1],"split_conditions":[1.4693505E-1,-7.554678E-5,3.071106E-4],"split_indices":[9,0,0],"split_type":[0,0,0],"sum_hessian":[4.32E2,3.47E2,8.5E1],"tree_param":{"num_deleted":"0","num_feature":"97","num_nodes":"3","size_leaf_vector":"1"}},{"base_weights":[1.0637695E-3,-2.7870728E-5,5.6312553E-4],"categories":[],"categories_nodes":[],"categories_segments":[],"categories_sizes":[],"default_left":[0,0,0],"id":56,"left_children":[1,-1,-1],"loss_changes":[9.778908E-2,0E0,0E0],"parents":[2147483647,0,0],"right_children":[2,-1,-1],"split_conditions":[4.242731E-1,-2.7870728E-5,5.6312553E-4],"split_indices":[9,0,0],"split_type":[0,0,0],"sum_hessian":[4.31E2,4.03E2,2.8E1],"tree_param":{"num_deleted":"0","num_feature":"97","num_nodes":"3","size_leaf_vector":"1"}},{"base_weights":[7.2830886E-4,-1.5292302E-4,1.4032304E-4],"categories":[],"categories_nodes":[],"categories_segments":[],"categories_sizes":[],"default_left":[0,0,0],"id":57,"left_children":[1,-1,-1],"loss_changes":[9.024747E-2,0E0,0E0],"parents":[2147483647,0,0],"right_children":[2,-1,-1],"split_conditions":[3.1319135E-4,-1.5292302E-4,1.4032304E-4],"split_indices":[11,0,0],"split_type":[0,0,0],"sum_hessian":[4.2E2,1.87E2,2.33E2],"tree_param":{"num_deleted":"0","num_feature":"97","num_nodes":"3","size_leaf_vector":"1"}},{"base_weights":[-9.252594E-4,-3.3966976E-4,4.6140973E-5],"categories":[],"categories_nodes":[],"categories_segments":[],"categories_sizes":[],"default_left":[0,0,0],"id":58,"left_children":[1,-1,-1],"loss_changes":[8.250067E-2,0E0,0E0],"parents":[2147483647,0,0],"right_children":[2,-1,-1],"split_conditions":[3.390762E-1,-3.3966976E-4,4.6140973E-5],"split_indices":[14,0,0],"split_type":[0,0,0],"sum_hessian":[4.31E2,6.3E1,3.68E2],"tree_param":{"num_deleted":"0","num_feature":"97","num_nodes":"3","size_leaf_vector":"1"}},{"base_weights":[-2.4804083E-4,-1.21826204E-4,1.9276534E-4],"categories":[],"categories_nodes":[],"categories_segments":[],"categories_sizes":[],"default_left":[0,0,0],"id":59,"left_children":[1,-1,-1],"loss_changes":[1.01355955E-1,0E0,0E0],"parents":[2147483647,0,0],"right_children":[2,-1,-1],"split_conditions":[4.6099845E-2,-1.21826204E-4,1.9276534E-4],"split_indices":[0,0,0],"split_type":[0,0,0],"sum_hessian":[4.34E2,2.73E2,1.61E2],"tree_param":{"num_deleted":"0","num_feature":"97","num_nodes":"3","size_leaf_vector":"1"}},{"base_weights":[-1.0049458E-3,-1.03630395E-4,2.3192434E-4],"categories":[],"categories_nodes":[],"categories_segments":[],"categories_sizes":[],"default_left":[0,0,0],"id":60,"left_children":[1,-1,-1],"loss_changes":[9.611464E-2,0E0,0E0],"parents":[2147483647,0,0],"right_children":[2,-1,-1],"split_conditions":[8.592559E-2,-1.03630395E-4,2.3192434E-4],"split_indices":[92,0,0],"split_type":[0,0,0],"sum_hessian":[4.26E2,3.11E2,1.15E2],"tree_param":{"num_deleted":"0","num_feature":"97","num_nodes":"3","size_leaf_vector":"1"}},{"base_weights":[-7.2259584E-4,-9.665086E-5,2.1333982E-4],"categories":[],"categories_nodes":[],"categories_segments":[],"categories_sizes":[],"default_left":[0,0,0],"id":61,"left_children":[1,-1,-1],"loss_changes":[8.307282E-2,0E0,0E0],"parents":[2147483647,0,0],"right_children":[2,-1,-1],"split_conditions":[8.5439965E-2,-9.665086E-5,2.1333982E-4],"split_indices":[0,0,0],"split_type":[0,0,0],"sum_hessian":[4.23E2,3.05E2,1.18E2],"tree_param":{"num_deleted":"0","num_feature":"97","num_nodes":"3","size_leaf_vector":"1"}},{"base_weights":[7.963027E-4,-1.525952E-4,1.3677575E-4],"categories":[],"categories_nodes":[],"categories_segments":[],"categories_sizes":[],"default_left":[0,0,0],"id":62,"left_children":[1,-1,-1],"loss_changes":[8.5055195E-2,0E0,0E0],"parents":[2147483647,0,0],"right_children":[2,-1,-1],"split_conditions":[2.131113E-2,-1.525952E-4,1.3677575E-4],"split_indices":[12,0,0],"split_type":[0,0,0],"sum_hessian":[4.08E2,1.78E2,2.3E2],"tree_param":{"num_deleted":"0","num_feature":"97","num_nodes":"3","size_leaf_vector":"1"}},{"base_weights":[-0E0,-1.0923411E-4,1.9212427E-4],"categories":[],"categories_nodes":[],"categories_segments":[],"categories_sizes":[],"default_left":[0,0,0],"id":63,"left_children":[1,-1,-1],"loss_changes":[9.125311E-2,0E0,0E0],"parents":[2147483647,0,0],"right_children":[2,-1,-1],"split_conditions":[5.1387843E-2,-1.0923411E-4,1.9212427E-4],"split_indices":[92,0,0],"split_type":[0,0,0],"sum_hessian":[4.3E2,2.74E2,1.56E2],"tree_param":{"num_deleted":"0","num_feature":"97","num_nodes":"3","size_leaf_vector":"1"}},{"base_weights":[3.2256977E-4,-5.5649976E-5,3.7232167E-4],"categories":[],"categories_nodes":[],"categories_segments":[],"categories_sizes":[],"default_left":[0,0,0],"id":64,"left_children":[1,-1,-1],"loss_changes":[9.267728E-2,0E0,0E0],"parents":[2147483647,0,0],"right_children":[2,-1,-1],"split_conditions":[2.8468892E-1,-5.5649976E-5,3.7232167E-4],"split_indices":[4,0,0],"split_type":[0,0,0],"sum_hessian":[4.08E2,3.51E2,5.7E1],"tree_param":{"num_deleted":"0","num_feature":"97","num_nodes":"3","size_leaf_vector":"1"}},{"base_weights":[4.2565644E-4,-3.8139937E-5,6.1813823E-4],"categories":[],"categories_nodes":[],"categories_segments":[],"categories_sizes":[],"default_left":[0,0,0],"id":65,"left_children":[1,-1,-1],"loss_changes":[1.2052754E-1,0E0,0E0],"parents":[2147483647,0,0],"right_children":[2,-1,-1],"split_conditions":[4.242731E-1,-3.8139937E-5,6.1813823E-4],"split_indices":[9,0,0],"split_type":[0,0,0],"sum_hessian":[4.37E2,4.09E2,2.8E1],"tree_param":{"num_deleted":"0","num_feature":"97","num_nodes":"3","size_leaf_vector":"1"}},{"base_weights":[2.8988617E-4,-1.0404454E-4,1.7915759E-4],"categories":[],"categories_nodes":[],"categories_segments":[],"categories_sizes":[],"default_left":[0,0,0],"id":66,"left_children":[1,-1,-1],"loss_changes":[8.085821E-2,0E0,0E0],"parents":[2147483647,0,0],"right_children":[2,-1,-1],"split_conditions":[4.739329E-2,-1.0404454E-4,1.7915759E-4],"split_indices":[0,0,0],"split_type":[0,0,0],"sum_hessian":[4.21E2,2.59E2,1.62E2],"tree_param":{"num_deleted":"0","num_feature":"97","num_nodes":"3","size_leaf_vector":"1"}},{"base_weights":[-1.153711E-3,-1.6977626E-4,1.1324053E-4],"categories":[],"categories_nodes":[],"categories_segments":[],"categories_sizes":[],"default_left":[0,0,0],"id":67,"left_children":[1,-1,-1],"loss_changes":[8.723425E-2,0E0,0E0],"parents":[2147483647,0,0],"right_children":[2,-1,-1],"split_conditions":[3.1319135E-4,-1.6977626E-4,1.1324053E-4],"split_indices":[11,0,0],"split_type":[0,0,0],"sum_hessian":[4.35E2,1.95E2,2.4E2],"tree_param":{"num_deleted":"0","num_feature":"97","num_nodes":"3","size_leaf_vector":"1"}},{"base_weights":[1.5752803E-5,-1.5535402E-4,1.1981003E-4],"categories":[],"categories_nodes":[],"categories_segments":[],"categories_sizes":[],"default_left":[0,0,0],"id":68,"left_children":[1,-1,-1],"loss_changes":[7.7795535E-2,0E0,0E0],"parents":[2147483647,0,0],"right_children":[2,-1,-1],"split_conditions":[3.1319135E-4,-1.5535402E-4,1.1981003E-4],"split_indices":[11,0,0],"split_type":[0,0,0],"sum_hessian":[4.16E2,1.77E2,2.39E2],"tree_param":{"num_deleted":"0","num_feature":"97","num_nodes":"3","size_leaf_vector":"1"}},{"base_weights":[-0E0,-3.5448382E-5,5.189238E-4],"categories":[],"categories_nodes":[],"categories_segments":[],"categories_sizes":[],"default_left":[0,0,0],"id":69,"left_children":[1,-1,-1],"loss_changes":[8.313068E-2,0E0,0E0],"parents":[2147483647,0,0],"right_children":[2,-1,-1],"split_conditions":[4.242731E-1,-3.5448382E-5,5.189238E-4],"split_indices":[9,0,0],"split_type":[0,0,0],"sum_hessian":[4.26E2,3.99E2,2.7E1],"tree_param":{"num_deleted":"0","num_feature":"97","num_nodes":"3","size_leaf_vector":"1"}},{"base_weights":[-0E0,-4.5156878E-5,4.4564603E-4],"categories":[],"categories_nodes":[],"categories_segments":[],"categories_sizes":[],"default_left":[0,0,0],"id":70,"left_children":[1,-1,-1],"loss_changes":[8.759674E-2,0E0,0E0],"parents":[2147483647,0,0],"right_children":[2,-1,-1],"split_conditions":[2.9983246E-1,-4.5156878E-5,4.4564603E-4],"split_indices":[9,0,0],"split_type":[0,0,0],"sum_hessian":[4.36E2,3.98E2,3.8E1],"tree_param":{"num_deleted":"0","num_feature":"97","num_nodes":"3","size_leaf_vector":"1"}},{"base_weights":[-1.7373511E-4,-1.5842698E-4,1.2404118E-4],"categories":[],"categories_nodes":[],"categories_segments":[],"categories_sizes":[],"default_left":[0,0,0],"id":71,"left_children":[1,-1,-1],"loss_changes":[8.508795E-2,0E0,0E0],"parents":[2147483647,0,0],"right_children":[2,-1,-1],"split_conditions":[3.1319135E-4,-1.5842698E-4,1.2404118E-4],"split_indices":[11,0,0],"split_type":[0,0,0],"sum_hessian":[4.26E2,1.93E2,2.33E2],"tree_param":{"num_deleted":"0","num_feature":"97","num_nodes":"3","size_leaf_vector":"1"}},{"base_weights":[-4.3551606E-4,-2.5673816E-4,6.99745E-5],"categories":[],"categories_nodes":[],"categories_segments":[],"categories_sizes":[],"default_left":[0,0,0],"id":72,"left_children":[1,-1,-1],"loss_changes":[8.345576E-2,0E0,0E0],"parents":[2147483647,0,0],"right_children":[2,-1,-1],"split_conditions":[-3.8476396E-2,-2.5673816E-4,6.99745E-5],"split_indices":[92,0,0],"split_type":[0,0,0],"sum_hessian":[4.31E2,1E2,3.31E2],"tree_param":{"num_deleted":"0","num_feature":"97","num_nodes":"3","size_leaf_vector":"1"}},{"base_weights":[4.0254206E-4,-9.4826835E-5,1.7626128E-4],"categories":[],"categories_nodes":[],"categories_segments":[],"categories_sizes":[],"default_left":[0,0,0],"id":73,"left_children":[1,-1,-1],"loss_changes":[7.333847E-2,0E0,0E0],"parents":[2147483647,0,0],"right_children":[2,-1,-1],"split_conditions":[5.0592236E-2,-9.4826835E-5,1.7626128E-4],"split_indices":[0,0,0],"split_type":[0,0,0],"sum_hessian":[4.22E2,2.65E2,1.57E2],"tree_param":{"num_deleted":"0","num_feature":"97","num_nodes":"3","size_leaf_vector":"1"}},{"base_weights":[1.9128468E-4,-1.2450443E-4,1.4405645E-4],"categories":[],"categories_nodes":[],"categories_segments":[],"categories_sizes":[],"default_left":[0,0,0],"id":74,"left_children":[1,-1,-1],"loss_changes":[7.5127274E-2,0E0,0E0],"parents":[2147483647,0,0],"right_children":[2,-1,-1],"split_conditions":[1.7709333E-2,-1.2450443E-4,1.4405645E-4],"split_indices":[11,0,0],"split_type":[0,0,0],"sum_hessian":[4.13E2,2.15E2,1.98E2],"tree_param":{"num_deleted":"0","num_feature":"97","num_nodes":"3","size_leaf_vector":"1"}},{"base_weights":[4.6185995E-4,-1.023485E-4,1.8284992E-4],"categories":[],"categories_nodes":[],"categories_segments":[],"categories_sizes":[],"default_left":[0,0,0],"id":75,"left_children":[1,-1,-1],"loss_changes":[8.087054E-2,0E0,0E0],"parents":[2147483647,0,0],"right_children":[2,-1,-1],"split_conditions":[5.1387843E-2,-1.023485E-4,1.8284992E-4],"split_indices":[92,0,0],"split_type":[0,0,0],"sum_hessian":[4.16E2,2.57E2,1.59E2],"tree_param":{"num_deleted":"0","num_feature":"97","num_nodes":"3","size_leaf_vector":"1"}},{"base_weights":[-9.630586E-4,-5.049731E-5,5.362343E-4],"categories":[],"categories_nodes":[],"categories_segments":[],"categories_sizes":[],"default_left":[0,0,0],"id":76,"left_children":[1,-1,-1],"loss_changes":[9.0268895E-2,0E0,0E0],"parents":[2147483647,0,0],"right_children":[2,-1,-1],"split_conditions":[4.242731E-1,-5.049731E-5,5.362343E-4],"split_indices":[9,0,0],"split_type":[0,0,0],"sum_hessian":[4.22E2,3.96E2,2.6E1],"tree_param":{"num_deleted":"0","num_feature":"97","num_nodes":"3","size_leaf_vector":"1"}},{"base_weights":[1.2064603E-3,-4.7852925E-5,3.1187845E-4],"categories":[],"categories_nodes":[],"categories_segments":[],"categories_sizes":[],"default_left":[0,0,0],"id":77,"left_children":[1,-1,-1],"loss_changes":[8.162152E-2,0E0,0E0],"parents":[2147483647,0,0],"right_children":[2,-1,-1],"split_conditions":[1.6009428E-1,-4.7852925E-5,3.1187845E-4],"split_indices":[0,0,0],"split_type":[0,0,0],"sum_hessian":[4.36E2,3.62E2,7.4E1],"tree_param":{"num_deleted":"0","num_feature":"97","num_nodes":"3","size_leaf_vector":"1"}},{"base_weights":[-0E0,-6.0544557E-5,2.8200774E-4],"categories":[],"categories_nodes":[],"categories_segments":[],"categories_sizes":[],"default_left":[0,0,0],"id":78,"left_children":[1,-1,-1],"loss_changes":[7.3809996E-2,0E0,0E0],"parents":[2147483647,0,0],"right_children":[2,-1,-1],"split_conditions":[1.4693505E-1,-6.0544557E-5,2.8200774E-4],"split_indices":[9,0,0],"split_type":[0,0,0],"sum_hessian":[4.16E2,3.41E2,7.5E1],"tree_param":{"num_deleted":"0","num_feature":"97","num_nodes":"3","size_leaf_vector":"1"}},{"base_weights":[-3.9684417E-4,-1.5592175E-4,1.1910131E-4],"categories":[],"categories_nodes":[],"categories_segments":[],"categories_sizes":[],"default_left":[0,0,0],"id":79,"left_children":[1,-1,-1],"loss_changes":[7.90962E-2,0E0,0E0],"parents":[2147483647,0,0],"right_children":[2,-1,-1],"split_conditions":[3.1319135E-4,-1.5592175E-4,1.1910131E-4],"split_indices":[11,0,0],"split_type":[0,0,0],"sum_hessian":[4.17E2,1.9E2,2.27E2],"tree_param":{"num_deleted":"0","num_feature":"97","num_nodes":"3","size_leaf_vector":"1"}},{"base_weights":[-6.076409E-4,-2.3173817E-4,6.5363776E-5],"categories":[],"categories_nodes":[],"categories_segments":[],"categories_sizes":[],"default_left":[0,0,0],"id":80,"left_children":[1,-1,-1],"loss_changes":[7.04823E-2,0E0,0E0],"parents":[2147483647,0,0],"right_children":[2,-1,-1],"split_conditions":[-3.4465954E-2,-2.3173817E-4,6.5363776E-5],"split_indices":[0,0,0],"split_type":[0,0,0],"sum_hessian":[4.23E2,1.04E2,3.19E2],"tree_param":{"num_deleted":"0","num_feature":"97","num_nodes":"3","size_leaf_vector":"1"}},{"base_weights":[-4.546764E-4,-2.6392582E-4,5.837673E-5],"categories":[],"categories_nodes":[],"categories_segments":[],"categories_sizes":[],"default_left":[0,0,0],"id":81,"left_children":[1,-1,-1],"loss_changes":[7.303373E-2,0E0,0E0],"parents":[2147483647,0,0],"right_children":[2,-1,-1],"split_conditions":[-4.7497053E-2,-2.6392582E-4,5.837673E-5],"split_indices":[0,0,0],"split_type":[0,0,0],"sum_hessian":[4.31E2,8.6E1,3.45E2],"tree_param":{"num_deleted":"0","num_feature":"97","num_nodes":"3","size_leaf_vector":"1"}},{"base_weights":[1.6590275E-4,-3.05951E-5,4.945723E-4],"categories":[],"categories_nodes":[],"categories_segments":[],"categories_sizes":[],"default_left":[0,0,0],"id":82,"left_children":[1,-1,-1],"loss_changes":[7.2193E-2,0E0,0E0],"parents":[2147483647,0,0],"right_children":[2,-1,-1],"split_conditions":[4.242731E-1,-3.05951E-5,4.945723E-4],"split_indices":[9,0,0],"split_type":[0,0,0],"sum_hessian":[4.21E2,3.95E2,2.6E1],"tree_param":{"num_deleted":"0","num_feature":"97","num_nodes":"3","size_leaf_vector":"1"}},{"base_weights":[7.3241E-4,-3.014422E-5,5.490621E-4],"categories":[],"categories_nodes":[],"categories_segments":[],"categories_sizes":[],"default_left":[0,0,0],"id":83,"left_children":[1,-1,-1],"loss_changes":[9.077185E-2,0E0,0E0],"parents":[2147483647,0,0],"right_children":[2,-1,-1],"split_conditions":[4.242731E-1,-3.014422E-5,5.490621E-4],"split_indices":[9,0,0],"split_type":[0,0,0],"sum_hessian":[4.18E2,3.91E2,2.7E1],"tree_param":{"num_deleted":"0","num_feature":"97","num_nodes":"3","size_leaf_vector":"1"}},{"base_weights":[8.636383E-4,-1.0048986E-4,1.3915215E-4],"categories":[],"categories_nodes":[],"categories_segments":[],"categories_sizes":[],"default_left":[0,0,0],"id":84,"left_children":[1,-1,-1],"loss_changes":[6.1340176E-2,0E0,0E0],"parents":[2147483647,0,0],"right_children":[2,-1,-1],"split_conditions":[2.0143947E-2,-1.0048986E-4,1.3915215E-4],"split_indices":[23,0,0],"split_type":[0,0,0],"sum_hessian":[4.24E2,2.27E2,1.97E2],"tree_param":{"num_deleted":"0","num_feature":"97","num_nodes":"3","size_leaf_vector":"1"}},{"base_weights":[-0E0,-8.5258864E-5,2.1125942E-4],"categories":[],"categories_nodes":[],"categories_segments":[],"categories_sizes":[],"default_left":[0,0,0],"id":85,"left_children":[1,-1,-1],"loss_changes":[7.343327E-2,0E0,0E0],"parents":[2147483647,0,0],"right_children":[2,-1,-1],"split_conditions":[8.5439965E-2,-8.5258864E-5,2.1125942E-4],"split_indices":[0,0,0],"split_type":[0,0,0],"sum_hessian":[4.1E2,2.96E2,1.14E2],"tree_param":{"num_deleted":"0","num_feature":"97","num_nodes":"3","size_leaf_vector":"1"}},{"base_weights":[-0E0,-3.932599E-5,5.157302E-4],"categories":[],"categories_nodes":[],"categories_segments":[],"categories_sizes":[],"default_left":[0,0,0],"id":86,"left_children":[1,-1,-1],"loss_changes":[9.1376305E-2,0E0,0E0],"parents":[2147483647,0,0],"right_children":[2,-1,-1],"split_conditions":[4.242731E-1,-3.932599E-5,5.157302E-4],"split_indices":[9,0,0],"split_type":[0,0,0],"sum_hessian":[4.33E2,4.03E2,3E1],"tree_param":{"num_deleted":"0","num_feature":"97","num_nodes":"3","size_leaf_vector":"1"}},{"base_weights":[5.026789E-4,-4.3137297E-5,4.1814233E-4],"categories":[],"categories_nodes":[],"categories_segments":[],"categories_sizes":[],"default_left":[0,0,0],"id":87,"left_children":[1,-1,-1],"loss_changes":[8.728166E-2,0E0,0E0],"parents":[2147483647,0,0],"right_children":[2,-1,-1],"split_conditions":[2.9983246E-1,-4.3137297E-5,4.1814233E-4],"split_indices":[9,0,0],"split_type":[0,0,0],"sum_hessian":[4.16E2,3.72E2,4.4E1],"tree_param":{"num_deleted":"0","num_feature":"97","num_nodes":"3","size_leaf_vector":"1"}},{"base_weights":[1.0557002E-3,-3.0199926E-5,5.289567E-4],"categories":[],"categories_nodes":[],"categories_segments":[],"categories_sizes":[],"default_left":[0,0,0],"id":88,"left_children":[1,-1,-1],"loss_changes":[9.256726E-2,0E0,0E0],"parents":[2147483647,0,0],"right_children":[2,-1,-1],"split_conditions":[4.242731E-1,-3.0199926E-5,5.289567E-4],"split_indices":[9,0,0],"split_type":[0,0,0],"sum_hessian":[4.11E2,3.81E2,3E1],"tree_param":{"num_deleted":"0","num_feature":"97","num_nodes":"3","size_leaf_vector":"1"}},{"base_weights":[-6.7100904E-5,-2.2493099E-4,6.629905E-5],"categories":[],"categories_nodes":[],"categories_segments":[],"categories_sizes":[],"default_left":[0,0,0],"id":89,"left_children":[1,-1,-1],"loss_changes":[6.6615194E-2,0E0,0E0],"parents":[2147483647,0,0],"right_children":[2,-1,-1],"split_conditions":[-4.179828E-2,-2.2493099E-4,6.629905E-5],"split_indices":[92,0,0],"split_type":[0,0,0],"sum_hessian":[4.29E2,1.01E2,3.28E2],"tree_param":{"num_deleted":"0","num_feature":"97","num_nodes":"3","size_leaf_vector":"1"}},{"base_weights":[5.2307604E-4,-2.625165E-5,4.5168435E-4],"categories":[],"categories_nodes":[],"categories_segments":[],"categories_sizes":[],"default_left":[0,0,0],"id":90,"left_children":[1,-1,-1],"loss_changes":[6.380541E-2,0E0,0E0],"parents":[2147483647,0,0],"right_children":[2,-1,-1],"split_conditions":[4.242731E-1,-2.625165E-5,4.5168435E-4],"split_indices":[9,0,0],"split_type":[0,0,0],"sum_hessian":[4.2E2,3.92E2,2.8E1],"tree_param":{"num_deleted":"0","num_feature":"97","num_nodes":"3","size_leaf_vector":"1"}},{"base_weights":[3.4550896E-5,-3.266273E-5,4.7266542E-4],"categories":[],"categories_nodes":[],"categories_segments":[],"categories_sizes":[],"default_left":[0,0,0],"id":91,"left_children":[1,-1,-1],"loss_changes":[7.128002E-2,0E0,0E0],"parents":[2147483647,0,0],"right_children":[2,-1,-1],"split_conditions":[4.242731E-1,-3.266273E-5,4.7266542E-4],"split_indices":[9,0,0],"split_type":[0,0,0],"sum_hessian":[4.25E2,3.97E2,2.8E1],"tree_param":{"num_deleted":"0","num_feature":"97","num_nodes":"3","size_leaf_vector":"1"}},{"base_weights":[-2.814073E-4,-3.0481728E-4,4.4625875E-5],"categories":[],"categories_nodes":[],"categories_segments":[],"categories_sizes":[],"default_left":[0,0,0],"id":92,"left_children":[1,-1,-1],"loss_changes":[6.290417E-2,0E0,0E0],"parents":[2147483647,0,0],"right_children":[2,-1,-1],"split_conditions":[3.3267954E-1,-3.0481728E-4,4.4625875E-5],"split_indices":[2,0,0],"split_type":[0,0,0],"sum_hessian":[4.17E2,5.8E1,3.59E2],"tree_param":{"num_deleted":"0","num_feature":"97","num_nodes":"3","size_leaf_vector":"1"}},{"base_weights":[-1.0869533E-3,-3.2687886E-4,3.7249876E-5],"categories":[],"categories_nodes":[],"categories_segments":[],"categories_sizes":[],"default_left":[0,0,0],"id":93,"left_children":[1,-1,-1],"loss_changes":[6.53331E-2,0E0,0E0],"parents":[2147483647,0,0],"right_children":[2,-1,-1],"split_conditions":[3.3267954E-1,-3.2687886E-4,3.7249876E-5],"split_indices":[2,0,0],"split_type":[0,0,0],"sum_hessian":[4.07E2,5.5E1,3.52E2],"tree_param":{"num_deleted":"0","num_feature":"97","num_nodes":"3","size_leaf_vector":"1"}},{"base_weights":[1.8833713E-4,-2.3773614E-4,7.850211E-5],"categories":[],"categories_nodes":[],"categories_segments":[],"categories_sizes":[],"default_left":[0,0,0],"id":94,"left_children":[1,-1,-1],"loss_changes":[7.809329E-2,0E0,0E0],"parents":[2147483647,0,0],"right_children":[2,-1,-1],"split_conditions":[-3.4465954E-2,-2.3773614E-4,7.850211E-5],"split_indices":[0,0,0],"split_type":[0,0,0],"sum_hessian":[4.3E2,1E2,3.3E2],"tree_param":{"num_deleted":"0","num_feature":"97","num_nodes":"3","size_leaf_vector":"1"}},{"base_weights":[-5.469642E-4,-2.319652E-4,5.957689E-5],"categories":[],"categories_nodes":[],"categories_segments":[],"categories_sizes":[],"default_left":[0,0,0],"id":95,"left_children":[1,-1,-1],"loss_changes":[6.5498434E-2,0E0,0E0],"parents":[2147483647,0,0],"right_children":[2,-1,-1],"split_conditions":[-3.8476396E-2,-2.319652E-4,5.957689E-5],"split_indices":[92,0,0],"split_type":[0,0,0],"sum_hessian":[4.29E2,9.8E1,3.31E2],"tree_param":{"num_deleted":"0","num_feature":"97","num_nodes":"3","size_leaf_vector":"1"}},{"base_weights":[-0E0,-2.3316708E-4,7.5170465E-5],"categories":[],"categories_nodes":[],"categories_segments":[],"categories_sizes":[],"default_left":[0,0,0],"id":96,"left_children":[1,-1,-1],"loss_changes":[7.665003E-2,0E0,0E0],"parents":[2147483647,0,0],"right_children":[2,-1,-1],"split_conditions":[-3.8476396E-2,-2.3316708E-4,7.5170465E-5],"split_indices":[92,0,0],"split_type":[0,0,0],"sum_hessian":[4.3E2,1.05E2,3.25E2],"tree_param":{"num_deleted":"0","num_feature":"97","num_nodes":"3","size_leaf_vector":"1"}},{"base_weights":[7.9163816E-4,-3.3821052E-5,4.4089401E-4],"categories":[],"categories_nodes":[],"categories_segments":[],"categories_sizes":[],"default_left":[0,0,0],"id":97,"left_children":[1,-1,-1],"loss_changes":[7.990731E-2,0E0,0E0],"parents":[2147483647,0,0],"right_children":[2,-1,-1],"split_conditions":[3.2481822E-1,-3.3821052E-5,4.4089401E-4],"split_indices":[9,0,0],"split_type":[0,0,0],"sum_hessian":[4.16E2,3.79E2,3.7E1],"tree_param":{"num_deleted":"0","num_feature":"97","num_nodes":"3","size_leaf_vector":"1"}},{"base_weights":[-0E0,-2.454092E-4,7.0326E-5],"categories":[],"categories_nodes":[],"categories_segments":[],"categories_sizes":[],"default_left":[0,0,0],"id":98,"left_children":[1,-1,-1],"loss_changes":[7.544105E-2,0E0,0E0],"parents":[2147483647,0,0],"right_children":[2,-1,-1],"split_conditions":[-3.489998E-2,-2.454092E-4,7.0326E-5],"split_indices":[92,0,0],"split_type":[0,0,0],"sum_hessian":[4.26E2,9.6E1,3.3E2],"tree_param":{"num_deleted":"0","num_feature":"97","num_nodes":"3","size_leaf_vector":"1"}},{"base_weights":[-9.0447464E-4,-1.2629679E-4,8.263805E-5],"categories":[],"categories_nodes":[],"categories_segments":[],"categories_sizes":[],"default_left":[0,0,0],"id":99,"left_children":[1,-1,-1],"loss_changes":[4.558031E-2,0E0,0E0],"parents":[2147483647,0,0],"right_children":[2,-1,-1],"split_conditions":[1.1220056E-3,-1.2629679E-4,8.263805E-5],"split_indices":[11,0,0],"split_type":[0,0,0],"sum_hessian":[4.16E2,1.87E2,2.29E2],"tree_param":{"num_deleted":"0","num_feature":"97","num_nodes":"3","size_leaf_vector":"1"}},{"base_weights":[8.06995E-4,-3.1388296E-5,5.41985E-4],"categories":[],"categories_nodes":[],"categories_segments":[],"categories_sizes":[],"default_left":[0,0,0],"id":100,"left_children":[1,-1,-1],"loss_changes":[9.161167E-2,0E0,0E0],"parents":[2147483647,0,0],"right_children":[2,-1,-1],"split_conditions":[4.242731E-1,-3.1388296E-5,5.41985E-4],"split_indices":[9,0,0],"split_type":[0,0,0],"sum_hessian":[4.07E2,3.79E2,2.8E1],"tree_param":{"num_deleted":"0","num_feature":"97","num_nodes":"3","size_leaf_vector":"1"}},{"base_weights":[-0E0,-2.3967715E-4,6.030718E-5],"categories":[],"categories_nodes":[],"categories_segments":[],"categories_sizes":[],"default_left":[0,0,0],"id":101,"left_children":[1,-1,-1],"loss_changes":[6.317196E-2,0E0,0E0],"parents":[2147483647,0,0],"right_children":[2,-1,-1],"split_conditions":[-4.7497053E-2,-2.3967715E-4,6.030718E-5],"split_indices":[0,0,0],"split_type":[0,0,0],"sum_hessian":[4.31E2,8.6E1,3.45E2],"tree_param":{"num_deleted":"0","num_feature":"97","num_nodes":"3","size_leaf_vector":"1"}},{"base_weights":[2.1015476E-4,-3.0136269E-5,5.0225225E-4],"categories":[],"categories_nodes":[],"categories_segments":[],"categories_sizes":[],"default_left":[0,0,0],"id":102,"left_children":[1,-1,-1],"loss_changes":[7.161504E-2,0E0,0E0],"parents":[2147483647,0,0],"right_children":[2,-1,-1],"split_conditions":[4.242731E-1,-3.0136269E-5,5.0225225E-4],"split_indices":[9,0,0],"split_type":[0,0,0],"sum_hessian":[4.11E2,3.86E2,2.5E1],"tree_param":{"num_deleted":"0","num_feature":"97","num_nodes":"3","size_leaf_vector":"1"}},{"base_weights":[-0E0,-4.4050164E-5,3.693441E-4],"categories":[],"categories_nodes":[],"categories_segments":[],"categories_sizes":[],"default_left":[0,0,0],"id":103,"left_children":[1,-1,-1],"loss_changes":[7.006632E-2,0E0,0E0],"parents":[2147483647,0,0],"right_children":[2,-1,-1],"split_conditions":[2.9983246E-1,-4.4050164E-5,3.693441E-4],"split_indices":[9,0,0],"split_type":[0,0,0],"sum_hessian":[4.19E2,3.75E2,4.4E1],"tree_param":{"num_deleted":"0","num_feature":"97","num_nodes":"3","size_leaf_vector":"1"}},{"base_weights":[-8.834716E-5,3.551893E-4,-5.020379E-5],"categories":[],"categories_nodes":[],"categories_segments":[],"categories_sizes":[],"default_left":[0,0,0],"id":104,"left_children":[1,-1,-1],"loss_changes":[7.1241215E-2,0E0,0E0],"parents":[2147483647,0,0],"right_children":[2,-1,-1],"split_conditions":[-2.979446E-1,3.551893E-4,-5.020379E-5],"split_indices":[72,0,0],"split_type":[0,0,0],"sum_hessian":[4.19E2,4.7E1,3.72E2],"tree_param":{"num_deleted":"0","num_feature":"97","num_nodes":"3","size_leaf_vector":"1"}},{"base_weights":[-4.5607212E-5,-2.2024073E-4,5.8100813E-5],"categories":[],"categories_nodes":[],"categories_segments":[],"categories_sizes":[],"default_left":[0,0,0],"id":105,"left_children":[1,-1,-1],"loss_changes":[5.6317024E-2,0E0,0E0],"parents":[2147483647,0,0],"right_children":[2,-1,-1],"split_conditions":[-3.8476396E-2,-2.2024073E-4,5.8100813E-5],"split_indices":[92,0,0],"split_type":[0,0,0],"sum_hessian":[4.21E2,9.1E1,3.3E2],"tree_param":{"num_deleted":"0","num_feature":"97","num_nodes":"3","size_leaf_vector":"1"}},{"base_weights":[-6.318379E-4,-1.3386413E-4,1.0135697E-4],"categories":[],"categories_nodes":[],"categories_segments":[],"categories_sizes":[],"default_left":[0,0,0],"id":106,"left_children":[1,-1,-1],"loss_changes":[5.786527E-2,0E0,0E0],"parents":[2147483647,0,0],"right_children":[2,-1,-1],"split_conditions":[3.1319135E-4,-1.3386413E-4,1.0135697E-4],"split_indices":[11,0,0],"split_type":[0,0,0],"sum_hessian":[4.15E2,1.94E2,2.21E2],"tree_param":{"num_deleted":"0","num_feature":"97","num_nodes":"3","size_leaf_vector":"1"}},{"base_weights":[-0E0,-2.9011375E-5,5.084758E-4],"categories":[],"categories_nodes":[],"categories_segments":[],"categories_sizes":[],"default_left":[0,0,0],"id":107,"left_children":[1,-1,-1],"loss_changes":[6.5376E-2,0E0,0E0],"parents":[2147483647,0,0],"right_children":[2,-1,-1],"split_conditions":[4.833059E-1,-2.9011375E-5,5.084758E-4],"split_indices":[9,0,0],"split_type":[0,0,0],"sum_hessian":[4.15E2,3.93E2,2.2E1],"tree_param":{"num_deleted":"0","num_feature":"97","num_nodes":"3","size_leaf_vector":"1"}},{"base_weights":[-0E0,-1.9484958E-4,7.444347E-5],"categories":[],"categories_nodes":[],"categories_segments":[],"categories_sizes":[],"default_left":[0,0,0],"id":108,"left_children":[1,-1,-1],"loss_changes":[5.94249E-2,0E0,0E0],"parents":[2147483647,0,0],"right_children":[2,-1,-1],"split_conditions":[3.4508365E-3,-1.9484958E-4,7.444347E-5],"split_indices":[12,0,0],"split_type":[0,0,0],"sum_hessian":[4.13E2,1.1E2,3.03E2],"tree_param":{"num_deleted":"0","num_feature":"97","num_nodes":"3","size_leaf_vector":"1"}},{"base_weights":[-3.5704576E-5,-6.380622E-5,2.536312E-4],"categories":[],"categories_nodes":[],"categories_segments":[],"categories_sizes":[],"default_left":[0,0,0],"id":109,"left_children":[1,-1,-1],"loss_changes":[6.756025E-2,0E0,0E0],"parents":[2147483647,0,0],"right_children":[2,-1,-1],"split_conditions":[1.5761295E-1,-6.380622E-5,2.536312E-4],"split_indices":[92,0,0],"split_type":[0,0,0],"sum_hessian":[4.27E2,3.46E2,8.1E1],"tree_param":{"num_deleted":"0","num_feature":"97","num_nodes":"3","size_leaf_vector":"1"}},{"base_weights":[5.840608E-4,-3.9485276E-5,3.5149642E-4],"categories":[],"categories_nodes":[],"categories_segments":[],"categories_sizes":[],"default_left":[0,0,0],"id":110,"left_children":[1,-1,-1],"loss_changes":[7.264652E-2,0E0,0E0],"parents":[2147483647,0,0],"right_children":[2,-1,-1],"split_conditions":[2.119495E-1,-3.9485276E-5,3.5149642E-4],"split_indices":[92,0,0],"split_type":[0,0,0],"sum_hessian":[4.4E2,3.88E2,5.2E1],"tree_param":{"num_deleted":"0","num_feature":"97","num_nodes":"3","size_leaf_vector":"1"}},{"base_weights":[2.4243744E-4,-2.2083802E-4,7.24187E-5],"categories":[],"categories_nodes":[],"categories_segments":[],"categories_sizes":[],"default_left":[0,0,0],"id":111,"left_children":[1,-1,-1],"loss_changes":[6.556338E-2,0E0,0E0],"parents":[2147483647,0,0],"right_children":[2,-1,-1],"split_conditions":[-3.489998E-2,-2.2083802E-4,7.24187E-5],"split_indices":[92,0,0],"split_type":[0,0,0],"sum_hessian":[4.25E2,9.7E1,3.28E2],"tree_param":{"num_deleted":"0","num_feature":"97","num_nodes":"3","size_leaf_vector":"1"}},{"base_weights":[-0E0,-5.857876E-5,2.5765275E-4],"categories":[],"categories_nodes":[],"categories_segments":[],"categories_sizes":[],"default_left":[0,0,0],"id":112,"left_children":[1,-1,-1],"loss_changes":[6.578196E-2,0E0,0E0],"parents":[2147483647,0,0],"right_children":[2,-1,-1],"split_conditions":[1.6009428E-1,-5.857876E-5,2.5765275E-4],"split_indices":[0,0,0],"split_type":[0,0,0],"sum_hessian":[4.27E2,3.48E2,7.9E1],"tree_param":{"num_deleted":"0","num_feature":"97","num_nodes":"3","size_leaf_vector":"1"}},{"base_weights":[-3.182327E-4,-1.5970682E-4,8.05143E-5],"categories":[],"categories_nodes":[],"categories_segments":[],"categories_sizes":[],"default_left":[0,0,0],"id":113,"left_children":[1,-1,-1],"loss_changes":[5.7512563E-2,0E0,0E0],"parents":[2147483647,0,0],"right_children":[2,-1,-1],"split_conditions":[2.5615664E-3,-1.5970682E-4,8.05143E-5],"split_indices":[0,0,0],"split_type":[0,0,0],"sum_hessian":[4.29E2,1.53E2,2.76E2],"tree_param":{"num_deleted":"0","num_feature":"97","num_nodes":"3","size_leaf_vector":"1"}},{"base_weights":[-0E0,-2.8063438E-4,4.911706E-5],"categories":[],"categories_nodes":[],"categories_segments":[],"categories_sizes":[],"default_left":[0,0,0],"id":114,"left_children":[1,-1,-1],"loss_changes":[5.773058E-2,0E0,0E0],"parents":[2147483647,0,0],"right_children":[2,-1,-1],"split_conditions":[3.390762E-1,-2.8063438E-4,4.911706E-5],"split_indices":[14,0,0],"split_type":[0,0,0],"sum_hessian":[4.27E2,6E1,3.67E2],"tree_param":{"num_deleted":"0","num_feature":"97","num_nodes":"3","size_leaf_vector":"1"}},{"base_weights":[1.0615096E-3,-2.6179703E-5,5.1912013E-4],"categories":[],"categories_nodes":[],"categories_segments":[],"categories_sizes":[],"default_left":[0,0,0],"id":115,"left_children":[1,-1,-1],"loss_changes":[8.303623E-2,0E0,0E0],"parents":[2147483647,0,0],"right_children":[2,-1,-1],"split_conditions":[4.242731E-1,-2.6179703E-5,5.1912013E-4],"split_indices":[9,0,0],"split_type":[0,0,0],"sum_hessian":[4.14E2,3.86E2,2.8E1],"tree_param":{"num_deleted":"0","num_feature":"97","num_nodes":"3","size_leaf_vector":"1"}},{"base_weights":[-8.8865595E-4,-2.7578833E-4,3.4849858E-5],"categories":[],"categories_nodes":[],"categories_segments":[],"categories_sizes":[],"default_left":[0,0,0],"id":116,"left_children":[1,-1,-1],"loss_changes":[5.1979784E-2,0E0,0E0],"parents":[2147483647,0,0],"right_children":[2,-1,-1],"split_conditions":[3.390762E-1,-2.7578833E-4,3.4849858E-5],"split_indices":[14,0,0],"split_type":[0,0,0],"sum_hessian":[4.21E2,6.1E1,3.6E2],"tree_param":{"num_deleted":"0","num_feature":"97","num_nodes":"3","size_leaf_vector":"1"}},{"base_weights":[3.6164044E-4,-2.703045E-5,4.681283E-4],"categories":[],"categories_nodes":[],"categories_segments":[],"categories_sizes":[],"default_left":[0,0,0],"id":117,"left_children":[1,-1,-1],"loss_changes":[6.4169824E-2,0E0,0E0],"parents":[2147483647,0,0],"right_children":[2,-1,-1],"split_conditions":[4.242731E-1,-2.703045E-5,4.681283E-4],"split_indices":[9,0,0],"split_type":[0,0,0],"sum_hessian":[4.16E2,3.9E2,2.6E1],"tree_param":{"num_deleted":"0","num_feature":"97","num_nodes":"3","size_leaf_vector":"1"}},{"base_weights":[-0E0,-5.477451E-5,2.75385E-4],"categories":[],"categories_nodes":[],"categories_segments":[],"categories_sizes":[],"default_left":[0,0,0],"id":118,"left_children":[1,-1,-1],"loss_changes":[6.598182E-2,0E0,0E0],"parents":[2147483647,0,0],"right_children":[2,-1,-1],"split_conditions":[1.6009428E-1,-5.477451E-5,2.75385E-4],"split_indices":[0,0,0],"split_type":[0,0,0],"sum_hessian":[4.23E2,3.52E2,7.1E1],"tree_param":{"num_deleted":"0","num_feature":"97","num_nodes":"3","size_leaf_vector":"1"}},{"base_weights":[-0E0,-1.2604849E-4,1.09882414E-4],"categories":[],"categories_nodes":[],"categories_segments":[],"categories_sizes":[],"default_left":[0,0,0],"id":119,"left_children":[1,-1,-1],"loss_changes":[5.8994047E-2,0E0,0E0],"parents":[2147483647,0,0],"right_children":[2,-1,-1],"split_conditions":[-1.5566354E-3,-1.2604849E-4,1.09882414E-4],"split_indices":[11,0,0],"split_type":[0,0,0],"sum_hessian":[4.23E2,1.93E2,2.3E2],"tree_param":{"num_deleted":"0","num_feature":"97","num_nodes":"3","size_leaf_vector":"1"}},{"base_weights":[-1.4498996E-5,-5.3825992E-5,2.4941788E-4],"categories":[],"categories_nodes":[],"categories_segments":[],"categories_sizes":[],"default_left":[0,0,0],"id":120,"left_children":[1,-1,-1],"loss_changes":[5.57848E-2,0E0,0E0],"parents":[2147483647,0,0],"right_children":[2,-1,-1],"split_conditions":[2.7305904E-1,-5.3825992E-5,2.4941788E-4],"split_indices":[4,0,0],"split_type":[0,0,0],"sum_hessian":[4.27E2,3.56E2,7.1E1],"tree_param":{"num_deleted":"0","num_feature":"97","num_nodes":"3","size_leaf_vector":"1"}},{"base_weights":[-1.1383741E-3,-1.3402708E-4,8.844684E-5],"categories":[],"categories_nodes":[],"categories_segments":[],"categories_sizes":[],"default_left":[0,0,0],"id":121,"left_children":[1,-1,-1],"loss_changes":[5.2728005E-2,0E0,0E0],"parents":[2147483647,0,0],"right_children":[2,-1,-1],"split_conditions":[1.1220056E-3,-1.3402708E-4,8.844684E-5],"split_indices":[11,0,0],"split_type":[0,0,0],"sum_hessian":[4.23E2,1.94E2,2.29E2],"tree_param":{"num_deleted":"0","num_feature":"97","num_nodes":"3","size_leaf_vector":"1"}},{"base_weights":[-0E0,-3.4451317E-5,4.5679577E-4],"categories":[],"categories_nodes":[],"categories_segments":[],"categories_sizes":[],"default_left":[0,0,0],"id":122,"left_children":[1,-1,-1],"loss_changes":[6.5188445E-2,0E0,0E0],"parents":[2147483647,0,0],"right_children":[2,-1,-1],"split_conditions":[4.242731E-1,-3.4451317E-5,4.5679577E-4],"split_indices":[9,0,0],"split_type":[0,0,0],"sum_hessian":[4.19E2,3.92E2,2.7E1],"tree_param":{"num_deleted":"0","num_feature":"97","num_nodes":"3","size_leaf_vector":"1"}},{"base_weights":[-2.1195848E-4,-1.3630281E-4,9.7164324E-5],"categories":[],"categories_nodes":[],"categories_segments":[],"categories_sizes":[],"default_left":[0,0,0],"id":123,"left_children":[1,-1,-1],"loss_changes":[5.700932E-2,0E0,0E0],"parents":[2147483647,0,0],"right_children":[2,-1,-1],"split_conditions":[3.1319135E-4,-1.3630281E-4,9.7164324E-5],"split_indices":[11,0,0],"split_type":[0,0,0],"sum_hessian":[4.21E2,1.83E2,2.38E2],"tree_param":{"num_deleted":"0","num_feature":"97","num_nodes":"3","size_leaf_vector":"1"}},{"base_weights":[-3.0011407E-4,-7.503765E-5,2.0123667E-4],"categories":[],"categories_nodes":[],"categories_segments":[],"categories_sizes":[],"default_left":[0,0,0],"id":124,"left_children":[1,-1,-1],"loss_changes":[6.1715603E-2,0E0,0E0],"parents":[2147483647,0,0],"right_children":[2,-1,-1],"split_conditions":[9.577372E-2,-7.503765E-5,2.0123667E-4],"split_indices":[92,0,0],"split_type":[0,0,0],"sum_hessian":[4.24E2,3.18E2,1.06E2],"tree_param":{"num_deleted":"0","num_feature":"97","num_nodes":"3","size_leaf_vector":"1"}},{"base_weights":[7.090318E-4,-3.0854062E-5,3.7838565E-4],"categories":[],"categories_nodes":[],"categories_segments":[],"categories_sizes":[],"default_left":[0,0,0],"id":125,"left_children":[1,-1,-1],"loss_changes":[6.358524E-2,0E0,0E0],"parents":[2147483647,0,0],"right_children":[2,-1,-1],"split_conditions":[2.9983246E-1,-3.0854062E-5,3.7838565E-4],"split_indices":[9,0,0],"split_type":[0,0,0],"sum_hessian":[4.23E2,3.83E2,4E1],"tree_param":{"num_deleted":"0","num_feature":"97","num_nodes":"3","size_leaf_vector":"1"}},{"base_weights":[-0E0,-2.7022933E-4,4.7503203E-5],"categories":[],"categories_nodes":[],"categories_segments":[],"categories_sizes":[],"default_left":[0,0,0],"id":126,"left_children":[1,-1,-1],"loss_changes":[5.5837348E-2,0E0,0E0],"parents":[2147483647,0,0],"right_children":[2,-1,-1],"split_conditions":[3.390762E-1,-2.7022933E-4,4.7503203E-5],"split_indices":[14,0,0],"split_type":[0,0,0],"sum_hessian":[4.32E2,6.3E1,3.69E2],"tree_param":{"num_deleted":"0","num_feature":"97","num_nodes":"3","size_leaf_vector":"1"}},{"base_weights":[3.8823488E-4,-2.759655E-4,4.7882404E-5],"categories":[],"categories_nodes":[],"categories_segments":[],"categories_sizes":[],"default_left":[0,0,0],"id":127,"left_children":[1,-1,-1],"loss_changes":[4.9453124E-2,0E0,0E0],"parents":[2147483647,0,0],"right_children":[2,-1,-1],"split_conditions":[3.3267954E-1,-2.759655E-4,4.7882404E-5],"split_indices":[2,0,0],"split_type":[0,0,0],"sum_hessian":[4.16E2,5.2E1,3.64E2],"tree_param":{"num_deleted":"0","num_feature":"97","num_nodes":"3","size_leaf_vector":"1"}},{"base_weights":[-1.090592E-4,-3.8042435E-5,4.4351968E-4],"categories":[],"categories_nodes":[],"categories_segments":[],"categories_sizes":[],"default_left":[0,0,0],"id":128,"left_children":[1,-1,-1],"loss_changes":[6.676382E-2,0E0,0E0],"parents":[2147483647,0,0],"right_children":[2,-1,-1],"split_conditions":[4.242731E-1,-3.8042435E-5,4.4351968E-4],"split_indices":[9,0,0],"split_type":[0,0,0],"sum_hessian":[4.27E2,3.98E2,2.9E1],"tree_param":{"num_deleted":"0","num_feature":"97","num_nodes":"3","size_leaf_vector":"1"}},{"base_weights":[-1.6333307E-4,-2.8227E-4,4.586067E-5],"categories":[],"categories_nodes":[],"categories_segments":[],"categories_sizes":[],"default_left":[0,0,0],"id":129,"left_children":[1,-1,-1],"loss_changes":[6.033565E-2,0E0,0E0],"parents":[2147483647,0,0],"right_children":[2,-1,-1],"split_conditions":[-1.1983695E-1,-2.8227E-4,4.586067E-5],"split_indices":[0,0,0],"split_type":[0,0,0],"sum_hessian":[4.31E2,6.4E1,3.67E2],"tree_param":{"num_deleted":"0","num_feature":"97","num_nodes":"3","size_leaf_vector":"1"}},{"base_weights":[-3.1276536E-4,-3.4722092E-5,3.7974096E-4],"categories":[],"categories_nodes":[],"categories_segments":[],"categories_sizes":[],"default_left":[0,0,0],"id":130,"left_children":[1,-1,-1],"loss_changes":[4.798179E-2,0E0,0E0],"parents":[2147483647,0,0],"right_children":[2,-1,-1],"split_conditions":[5.514243E-1,-3.4722092E-5,3.7974096E-4],"split_indices":[4,0,0],"split_type":[0,0,0],"sum_hessian":[4.21E2,3.93E2,2.8E1],"tree_param":{"num_deleted":"0","num_feature":"97","num_nodes":"3","size_leaf_vector":"1"}},{"base_weights":[-6.193915E-4,-3.1258998E-4,2.6512405E-5],"categories":[],"categories_nodes":[],"categories_segments":[],"categories_sizes":[],"default_left":[0,0,0],"id":131,"left_children":[1,-1,-1],"loss_changes":[4.5515943E-2,0E0,0E0],"parents":[2147483647,0,0],"right_children":[2,-1,-1],"split_conditions":[-1.983928E-1,-3.1258998E-4,2.6512405E-5],"split_indices":[92,0,0],"split_type":[0,0,0],"sum_hessian":[4.22E2,4.2E1,3.8E2],"tree_param":{"num_deleted":"0","num_feature":"97","num_nodes":"3","size_leaf_vector":"1"}},{"base_weights":[-4.6426675E-4,-1.7296882E-4,6.489881E-5],"categories":[],"categories_nodes":[],"categories_segments":[],"categories_sizes":[],"default_left":[0,0,0],"id":132,"left_children":[1,-1,-1],"loss_changes":[5.1054224E-2,0E0,0E0],"parents":[2147483647,0,0],"right_children":[2,-1,-1],"split_conditions":[1.0883681E-2,-1.7296882E-4,6.489881E-5],"split_indices":[4,0,0],"split_type":[0,0,0],"sum_hessian":[4.23E2,1.27E2,2.96E2],"tree_param":{"num_deleted":"0","num_feature":"97","num_nodes":"3","size_leaf_vector":"1"}},{"base_weights":[-0E0,-3.0679268E-5,4.1396305E-4],"categories":[],"categories_nodes":[],"categories_segments":[],"categories_sizes":[],"default_left":[0,0,0],"id":133,"left_children":[1,-1,-1],"loss_changes":[5.3394955E-2,0E0,0E0],"parents":[2147483647,0,0],"right_children":[2,-1,-1],"split_conditions":[4.242731E-1,-3.0679268E-5,4.1396305E-4],"split_indices":[9,0,0],"split_type":[0,0,0],"sum_hessian":[4.18E2,3.91E2,2.7E1],"tree_param":{"num_deleted":"0","num_feature":"97","num_nodes":"3","size_leaf_vector":"1"}},{"base_weights":[1.5372195E-4,-2.8345235E-5,4.3021256E-4],"categories":[],"categories_nodes":[],"categories_segments":[],"categories_sizes":[],"default_left":[0,0,0],"id":134,"left_children":[1,-1,-1],"loss_changes":[5.870452E-2,0E0,0E0],"parents":[2147483647,0,0],"right_children":[2,-1,-1],"split_conditions":[4.242731E-1,-2.8345235E-5,4.3021256E-4],"split_indices":[9,0,0],"split_type":[0,0,0],"sum_hessian":[4.23E2,3.95E2,2.8E1],"tree_param":{"num_deleted":"0","num_feature":"97","num_nodes":"3","size_leaf_vector":"1"}},{"base_weights":[1.1601574E-3,-1.2324215E-4,9.8738055E-5],"categories":[],"categories_nodes":[],"categories_segments":[],"categories_sizes":[],"default_left":[0,0,0],"id":135,"left_children":[1,-1,-1],"loss_changes":[5.0170008E-2,0E0,0E0],"parents":[2147483647,0,0],"right_children":[2,-1,-1],"split_conditions":[-9.876582E-3,-1.2324215E-4,9.8738055E-5],"split_indices":[23,0,0],"split_type":[0,0,0],"sum_hessian":[4.25E2,1.62E2,2.63E2],"tree_param":{"num_deleted":"0","num_feature":"97","num_nodes":"3","size_leaf_vector":"1"}},{"base_weights":[-0E0,-1.04306884E-4,8.55013E-5],"categories":[],"categories_nodes":[],"categories_segments":[],"categories_sizes":[],"default_left":[0,0,0],"id":136,"left_children":[1,-1,-1],"loss_changes":[3.7052467E-2,0E0,0E0],"parents":[2147483647,0,0],"right_children":[2,-1,-1],"split_conditions":[1.1220056E-3,-1.04306884E-4,8.55013E-5],"split_indices":[11,0,0],"split_type":[0,0,0],"sum_hessian":[4.13E2,1.82E2,2.31E2],"tree_param":{"num_deleted":"0","num_feature":"97","num_nodes":"3","size_leaf_vector":"1"}},{"base_weights":[2.2688926E-4,-5.033148E-5,2.3180761E-4],"categories":[],"categories_nodes":[],"categories_segments":[],"categories_sizes":[],"default_left":[0,0,0],"id":137,"left_children":[1,-1,-1],"loss_changes":[5.4569233E-2,0E0,0E0],"parents":[2147483647,0,0],"right_children":[2,-1,-1],"split_conditions":[1.5203756E-1,-5.033148E-5,2.3180761E-4],"split_indices":[92,0,0],"split_type":[0,0,0],"sum_hessian":[4.33E2,3.5E2,8.3E1],"tree_param":{"num_deleted":"0","num_feature":"97","num_nodes":"3","size_leaf_vector":"1"}},{"base_weights":[3.2597352E-4,-2.522565E-4,4.520515E-5],"categories":[],"categories_nodes":[],"categories_segments":[],"categories_sizes":[],"default_left":[0,0,0],"id":138,"left_children":[1,-1,-1],"loss_changes":[4.4565335E-2,0E0,0E0],"parents":[2147483647,0,0],"right_children":[2,-1,-1],"split_conditions":[3.2930386E-1,-2.522565E-4,4.520515E-5],"split_indices":[2,0,0],"split_type":[0,0,0],"sum_hessian":[4.31E2,5.6E1,3.75E2],"tree_param":{"num_deleted":"0","num_feature":"97","num_nodes":"3","size_leaf_vector":"1"}},{"base_weights":[-0E0,-1.8984519E-4,6.0628478E-5],"categories":[],"categories_nodes":[],"categories_segments":[],"categories_sizes":[],"default_left":[0,0,0],"id":139,"left_children":[1,-1,-1],"loss_changes":[4.8384756E-2,0E0,0E0],"parents":[2147483647,0,0],"right_children":[2,-1,-1],"split_conditions":[-3.8476396E-2,-1.8984519E-4,6.0628478E-5],"split_indices":[92,0,0],"split_type":[0,0,0],"sum_hessian":[4.23E2,9.9E1,3.24E2],"tree_param":{"num_deleted":"0","num_feature":"97","num_nodes":"3","size_leaf_vector":"1"}},{"base_weights":[3.6475627E-4,-4.858802E-5,2.162369E-4],"categories":[],"categories_nodes":[],"categories_segments":[],"categories_sizes":[],"default_left":[0,0,0],"id":140,"left_children":[1,-1,-1],"loss_changes":[4.797124E-2,0E0,0E0],"parents":[2147483647,0,0],"right_children":[2,-1,-1],"split_conditions":[1.4693505E-1,-4.858802E-5,2.162369E-4],"split_indices":[9,0,0],"split_type":[0,0,0],"sum_hessian":[4.13E2,3.29E2,8.4E1],"tree_param":{"num_deleted":"0","num_feature":"97","num_nodes":"3","size_leaf_vector":"1"}},{"base_weights":[4.1346607E-4,-2.3650615E-5,4.1487062E-4],"categories":[],"categories_nodes":[],"categories_segments":[],"categories_sizes":[],"default_left":[0,0,0],"id":141,"left_children":[1,-1,-1],"loss_changes":[5.2040573E-2,0E0,0E0],"parents":[2147483647,0,0],"right_children":[2,-1,-1],"split_conditions":[4.242731E-1,-2.3650615E-5,4.1487062E-4],"split_indices":[9,0,0],"split_type":[0,0,0],"sum_hessian":[4.18E2,3.91E2,2.7E1],"tree_param":{"num_deleted":"0","num_feature":"97","num_nodes":"3","size_leaf_vector":"1"}},{"base_weights":[6.3365063E-4,-2.2224294E-5,4.1053782E-4],"categories":[],"categories_nodes":[],"categories_segments":[],"categories_sizes":[],"default_left":[0,0,0],"id":142,"left_children":[1,-1,-1],"loss_changes":[5.2320845E-2,0E0,0E0],"parents":[2147483647,0,0],"right_children":[2,-1,-1],"split_conditions":[4.242731E-1,-2.2224294E-5,4.1053782E-4],"split_indices":[9,0,0],"split_type":[0,0,0],"sum_hessian":[4.16E2,3.88E2,2.8E1],"tree_param":{"num_deleted":"0","num_feature":"97","num_nodes":"3","size_leaf_vector":"1"}},{"base_weights":[5.602195E-4,-2.422268E-5,4.7855114E-4],"categories":[],"categories_nodes":[],"categories_segments":[],"categories_sizes":[],"default_left":[0,0,0],"id":143,"left_children":[1,-1,-1],"loss_changes":[6.401883E-2,0E0,0E0],"parents":[2147483647,0,0],"right_children":[2,-1,-1],"split_conditions":[4.242731E-1,-2.422268E-5,4.7855114E-4],"split_indices":[9,0,0],"split_type":[0,0,0],"sum_hessian":[4.18E2,3.93E2,2.5E1],"tree_param":{"num_deleted":"0","num_feature":"97","num_nodes":"3","size_leaf_vector":"1"}},{"base_weights":[-0E0,-2.5580723E-5,4.671835E-4],"categories":[],"categories_nodes":[],"categories_segments":[],"categories_sizes":[],"default_left":[0,0,0],"id":144,"left_children":[1,-1,-1],"loss_changes":[5.5071976E-2,0E0,0E0],"parents":[2147483647,0,0],"right_children":[2,-1,-1],"split_conditions":[4.833059E-1,-2.5580723E-5,4.671835E-4],"split_indices":[9,0,0],"split_type":[0,0,0],"sum_hessian":[4.31E2,4.09E2,2.2E1],"tree_param":{"num_deleted":"0","num_feature":"97","num_nodes":"3","size_leaf_vector":"1"}},{"base_weights":[-7.904348E-4,-2.6495755E-4,3.3376702E-5],"categories":[],"categories_nodes":[],"categories_segments":[],"categories_sizes":[],"default_left":[0,0,0],"id":145,"left_children":[1,-1,-1],"loss_changes":[4.6530094E-2,0E0,0E0],"parents":[2147483647,0,0],"right_children":[2,-1,-1],"split_conditions":[-3.9414987E-2,-2.6495755E-4,3.3376702E-5],"split_indices":[12,0,0],"split_type":[0,0,0],"sum_hessian":[4.13E2,5.9E1,3.54E2],"tree_param":{"num_deleted":"0","num_feature":"97","num_nodes":"3","size_leaf_vector":"1"}},{"base_weights":[2.1745685E-4,-1.0720441E-4,9.117672E-5],"categories":[],"categories_nodes":[],"categories_segments":[],"categories_sizes":[],"default_left":[0,0,0],"id":146,"left_children":[1,-1,-1],"loss_changes":[4.1506168E-2,0E0,0E0],"parents":[2147483647,0,0],"right_children":[2,-1,-1],"split_conditions":[3.1319135E-4,-1.0720441E-4,9.117672E-5],"split_indices":[11,0,0],"split_type":[0,0,0],"sum_hessian":[4.24E2,1.85E2,2.39E2],"tree_param":{"num_deleted":"0","num_feature":"97","num_nodes":"3","size_leaf_vector":"1"}},{"base_weights":[2.0164327E-5,-3.0655712E-5,4.767209E-4],"categories":[],"categories_nodes":[],"categories_segments":[],"categories_sizes":[],"default_left":[0,0,0],"id":147,"left_children":[1,-1,-1],"loss_changes":[6.7392506E-2,0E0,0E0],"parents":[2147483647,0,0],"right_children":[2,-1,-1],"split_conditions":[4.242731E-1,-3.0655712E-5,4.767209E-4],"split_indices":[9,0,0],"split_type":[0,0,0],"sum_hessian":[4.24E2,3.98E2,2.6E1],"tree_param":{"num_deleted":"0","num_feature":"97","num_nodes":"3","size_leaf_vector":"1"}},{"base_weights":[-0E0,-2.0696258E-4,6.581259E-5],"categories":[],"categories_nodes":[],"categories_segments":[],"categories_sizes":[],"default_left":[0,0,0],"id":148,"left_children":[1,-1,-1],"loss_changes":[5.703537E-2,0E0,0E0],"parents":[2147483647,0,0],"right_children":[2,-1,-1],"split_conditions":[-3.8476396E-2,-2.0696258E-4,6.581259E-5],"split_indices":[92,0,0],"split_type":[0,0,0],"sum_hessian":[4.15E2,9.9E1,3.16E2],"tree_param":{"num_deleted":"0","num_feature":"97","num_nodes":"3","size_leaf_vector":"1"}},{"base_weights":[9.832014E-4,-3.0844323E-5,2.526639E-4],"categories":[],"categories_nodes":[],"categories_segments":[],"categories_sizes":[],"default_left":[0,0,0],"id":149,"left_children":[1,-1,-1],"loss_changes":[4.3168183E-2,0E0,0E0],"parents":[2147483647,0,0],"right_children":[2,-1,-1],"split_conditions":[2.2981583E-1,-3.0844323E-5,2.526639E-4],"split_indices":[23,0,0],"split_type":[0,0,0],"sum_hessian":[4.11E2,3.5E2,6.1E1],"tree_param":{"num_deleted":"0","num_feature":"97","num_nodes":"3","size_leaf_vector":"1"}},{"base_weights":[-2.3676013E-4,-1.19669116E-4,9.0021356E-5],"categories":[],"categories_nodes":[],"categories_segments":[],"categories_sizes":[],"default_left":[0,0,0],"id":150,"left_children":[1,-1,-1],"loss_changes":[4.6353992E-2,0E0,0E0],"parents":[2147483647,0,0],"right_children":[2,-1,-1],"split_conditions":[3.1319135E-4,-1.19669116E-4,9.0021356E-5],"split_indices":[11,0,0],"split_type":[0,0,0],"sum_hessian":[4.21E2,1.9E2,2.31E2],"tree_param":{"num_deleted":"0","num_feature":"97","num_nodes":"3","size_leaf_vector":"1"}},{"base_weights":[-2.1796713E-4,-2.657055E-4,3.6015557E-5],"categories":[],"categories_nodes":[],"categories_segments":[],"categories_sizes":[],"default_left":[0,0,0],"id":151,"left_children":[1,-1,-1],"loss_changes":[4.657487E-2,0E0,0E0],"parents":[2147483647,0,0],"right_children":[2,-1,-1],"split_conditions":[3.245514E-1,-2.657055E-4,3.6015557E-5],"split_indices":[2,0,0],"split_type":[0,0,0],"sum_hessian":[4.36E2,5.7E1,3.79E2],"tree_param":{"num_deleted":"0","num_feature":"97","num_nodes":"3","size_leaf_vector":"1"}},{"base_weights":[1.2175148E-4,2.580329E-4,-3.236084E-5],"categories":[],"categories_nodes":[],"categories_segments":[],"categories_sizes":[],"default_left":[0,0,0],"id":152,"left_children":[1,-1,-1],"loss_changes":[3.84697E-2,0E0,0E0],"parents":[2147483647,0,0],"right_children":[2,-1,-1],