{"learner":{"attributes":{"best_iteration":"2996","best_score":"0.05691459193032426","scikit_learn":"{\"_estimator_type\": \"regressor\"}"},"feature_names":[],"feature_types":[],"gradient_booster":{"model":{"cats":{"enc":[],"feature_segments":[],"sorted_idx":[]},"gbtree_model_param":{"num_parallel_tree":"1","num_trees":"3000"},"iteration_indptr":[0,1,2,3,4,5,6,7,8,9,10,11,12,13,14,15,16,17,18,19,20,21,22,23,24,25,26,27,28,29,30,31,32,33,34,35,36,37,38,39,40,41,42,43,44,45,46,47,48,49,50,51,52,53,54,55,56,57,58,59,60,61,62,63,64,65,66,67,68,69,70,71,72,73,74,75,76,77,78,79,80,81,82,83,84,85,86,87,88,89,90,91,92,93,94,95,96,97,98,99,100,101,102,103,104,105,106,107,108,109,110,111,112,113,114,115,116,117,118,119,120,121,122,123,124,125,126,127,128,129,130,131,132,133,134,135,136,137,138,139,140,141,142,143,144,145,146,147,148,149,150,151,152,153,154,155,156,157,158,159,160,161,162,163,164,165,166,167,168,169,170,171,172,173,174,175,176,177,178,179,180,181,182,183,184,185,186,187,188,189,190,191,192,193,194,195,196,197,198,199,200,201,202,203,204,205,206,207,208,209,210,211,212,213,214,215,216,217,218,219,220,221,222,223,224,225,226,227,228,229,230,231,232,233,234,235,236,237,238,239,240,241,242,243,244,245,246,247,248,249,250,251,252,253,254,255,256,257,258,259,260,261,262,263,264,265,266,267,268,269,270,271,272,273,274,275,276,277,278,279,280,281,282,283,284,285,286,287,288,289,290,291,292,293,294,295,296,297,298,299,300,301,302,303,304,305,306,307,308,309,310,311,312,313,314,315,316,317,318,319,320,321,322,323,324,325,326,327,328,329,330,331,332,333,334,335,336,337,338,339,340,341,342,343,344,345,346,347,348,349,350,351,352,353,354,355,356,357,358,359,360,361,362,363,364,365,366,367,368,369,370,371,372,373,374,375,376,377,378,379,380,381,382,383,384,385,386,387,388,389,390,391,392,393,394,395,396,397,398,399,400,401,402,403,404,405,406,407,408,409,410,411,412,413,414,415,416,417,418,419,420,421,422,423,424,425,426,427,428,429,430,431,432,433,434,435,436,437,438,439,440,441,442,443,444,445,446,447,448,449,450,451,452,453,454,455,456,457,458,459,460,461,462,463,464,465,466,467,468,469,470,471,472,473,474,475,476,477,478,479,480,481,482,483,484,485,486,487,488,489,490,491,492,493,494,495,496,497,498,499,500,501,502,503,504,505,506,507,508,509,510,511,512,513,514,515,516,517,518,519,520,521,522,523,524,525,526,527,528,529,530,531,532,533,534,535,536,537,538,539,540,541,542,543,544,545,546,547,548,549,550,551,552,553,554,555,556,557,558,559,560,561,562,563,564,565,566,567,568,569,570,571,572,573,574,575,576,577,578,579,580,581,582,583,584,585,586,587,588,589,590,591,592,593,594,595,596,597,598,599,600,601,602,603,604,605,606,607,608,609,610,611,612,613,614,615,616,617,618,619,620,621,622,623,624,625,626,627,628,629,630,631,632,633,634,635,636,637,638,639,640,641,642,643,644,645,646,647,648,649,650,651,652,653,654,655,656,657,658,659,660,661,662,663,664,665,666,667,668,669,670,671,672,673,674,675,676,677,678,679,680,681,682,683,684,685,686,687,688,689,690,691,692,693,694,695,696,697,698,699,700,701,702,703,704,705,706,707,708,709,710,711,712,713,714,715,716,717,718,719,720,721,722,723,724,725,726,727,728,729,730,731,732,733,734,735,736,737,738,739,740,741,742,743,744,745,746,747,748,749,750,751,752,753,754,755,756,757,758,759,760,761,762,763,764,765,766,767,768,769,770,771,772,773,774,775,776,777,778,779,780,781,782,783,784,785,786,787,788,789,790,791,792,793,794,795,796,797,798,799,800,801,802,803,804,805,806,807,808,809,810,811,812,813,814,815,816,817,818,819,820,821,822,823,824,825,826,827,828,829,830,831,832,833,834,835,836,837,838,839,840,841,842,843,844,845,846,847,848,849,850,851,852,853,854,855,856,857,858,859,860,861,862,863,864,865,866,867,868,869,870,871,872,873,874,875,876,877,878,879,880,881,882,883,884,885,886,887,888,889,890,891,892,893,894,895,896,897,898,899,900,901,902,903,904,905,906,907,908,909,910,911,912,913,914,915,916,917,918,919,920,921,922,923,924,925,926,927,928,929,930,931,932,933,934,935,936,937,938,939,940,941,942,943,944,945,946,947,948,949,950,951,952,953,954,955,956,957,958,959,960,961,962,963,964,965,966,967,968,969,970,971,972,973,974,975,976,977,978,979,980,981,982,983,984,985,986,987,988,989,990,991,992,993,994,995,996,997,998,999,1000,1001,1002,1003,1004,1005,1006,1007,1008,1009,1010,1011,1012,1013,1014,1015,1016,1017,1018,1019,1020,1021,1022,1023,1024,1025,1026,1027,1028,1029,1030,1031,1032,1033,1034,1035,1036,1037,1038,1039,1040,1041,1042,1043,1044,1045,1046,1047,1048,1049,1050,1051,1052,1053,1054,1055,1056,1057,1058,1059,1060,1061,1062,1063,1064,1065,1066,1067,1068,1069,1070,1071,1072,1073,1074,1075,1076,1077,1078,1079,1080,1081,1082,1083,1084,1085,1086,1087,1088,1089,1090,1091,1092,1093,1094,1095,1096,1097,1098,1099,1100,1101,1102,1103,1104,1105,1106,1107,1108,1109,1110,1111,1112,1113,1114,1115,1116,1117,1118,1119,1120,1121,1122,1123,1124,1125,1126,1127,1128,1129,1130,1131,1132,1133,1134,1135,1136,1137,1138,1139,1140,1141,1142,1143,1144,1145,1146,1147,1148,1149,1150,1151,1152,1153,1154,1155,1156,1157,1158,1159,1160,1161,1162,1163,1164,1165,1166,1167,1168,1169,1170,1171,1172,1173,1174,1175,1176,1177,1178,1179,1180,1181,1182,1183,1184,1185,1186,1187,1188,1189,1190,1191,1192,1193,1194,1195,1196,1197,1198,1199,1200,1201,1202,1203,1204,1205,1206,1207,1208,1209,1210,1211,1212,1213,1214,1215,1216,1217,1218,1219,1220,1221,1222,1223,1224,1225,1226,1227,1228,1229,1230,1231,1232,1233,1234,1235,1236,1237,1238,1239,1240,1241,1242,1243,1244,1245,1246,1247,1248,1249,1250,1251,1252,1253,1254,1255,1256,1257,1258,1259,1260,1261,1262,1263,1264,1265,1266,1267,1268,1269,1270,1271,1272,1273,1274,1275,1276,1277,1278,1279,1280,1281,1282,1283,1284,1285,1286,1287,1288,1289,1290,1291,1292,1293,1294,1295,1296,1297,1298,1299,1300,1301,1302,1303,1304,1305,1306,1307,1308,1309,1310,1311,1312,1313,1314,1315,1316,1317,1318,1319,1320,1321,1322,1323,1324,1325,1326,1327,1328,1329,1330,1331,1332,1333,1334,1335,1336,1337,1338,1339,1340,1341,1342,1343,1344,1345,1346,1347,1348,1349,1350,1351,1352,1353,1354,1355,1356,1357,1358,1359,1360,1361,1362,1363,1364,1365,1366,1367,1368,1369,1370,1371,1372,1373,1374,1375,1376,1377,1378,1379,1380,1381,1382,1383,1384,1385,1386,1387,1388,1389,1390,1391,1392,1393,1394,1395,1396,1397,1398,1399,1400,1401,1402,1403,1404,1405,1406,1407,1408,1409,1410,1411,1412,1413,1414,1415,1416,1417,1418,1419,1420,1421,1422,1423,1424,1425,1426,1427,1428,1429,1430,1431,1432,1433,1434,1435,1436,1437,1438,1439,1440,1441,1442,1443,1444,1445,1446,1447,1448,1449,1450,1451,1452,1453,1454,1455,1456,1457,1458,1459,1460,1461,1462,1463,1464,1465,1466,1467,1468,1469,1470,1471,1472,1473,1474,1475,1476,1477,1478,1479,1480,1481,1482,1483,1484,1485,1486,1487,1488,1489,1490,1491,1492,1493,1494,1495,1496,1497,1498,1499,1500,1501,1502,1503,1504,1505,1506,1507,1508,1509,1510,1511,1512,1513,1514,1515,1516,1517,1518,1519,1520,1521,1522,1523,1524,1525,1526,1527,1528,1529,1530,1531,1532,1533,1534,1535,1536,1537,1538,1539,1540,1541,1542,1543,1544,1545,1546,1547,1548,1549,1550,1551,1552,1553,1554,1555,1556,1557,1558,1559,1560,1561,1562,1563,1564,1565,1566,1567,1568,1569,1570,1571,1572,1573,1574,1575,1576,1577,1578,1579,1580,1581,1582,1583,1584,1585,1586,1587,1588,1589,1590,1591,1592,1593,1594,1595,1596,1597,1598,1599,1600,1601,1602,1603,1604,1605,1606,1607,1608,1609,1610,1611,1612,1613,1614,1615,1616,1617,1618,1619,1620,1621,1622,1623,1624,1625,1626,1627,1628,1629,1630,1631,1632,1633,1634,1635,1636,1637,1638,1639,1640,1641,1642,1643,1644,1645,1646,1647,1648,1649,1650,1651,1652,1653,1654,1655,1656,1657,1658,1659,1660,1661,1662,1663,1664,1665,1666,1667,1668,1669,1670,1671,1672,1673,1674,1675,1676,1677,1678,1679,1680,1681,1682,1683,1684,1685,1686,1687,1688,1689,1690,1691,1692,1693,1694,1695,1696,1697,1698,1699,1700,1701,1702,1703,1704,1705,1706,1707,1708,1709,1710,1711,1712,1713,1714,1715,1716,1717,1718,1719,1720,1721,1722,1723,1724,1725,1726,1727,1728,1729,1730,1731,1732,1733,1734,1735,1736,1737,1738,1739,1740,1741,1742,1743,1744,1745,1746,1747,1748,1749,1750,1751,1752,1753,1754,1755,1756,1757,1758,1759,1760,1761,1762,1763,1764,1765,1766,1767,1768,1769,1770,1771,1772,1773,1774,1775,1776,1777,1778,1779,1780,1781,1782,1783,1784,1785,1786,1787,1788,1789,1790,1791,1792,1793,1794,1795,1796,1797,1798,1799,1800,1801,1802,1803,1804,1805,1806,1807,1808,1809,1810,1811,1812,1813,1814,1815,1816,1817,1818,1819,1820,1821,1822,1823,1824,1825,1826,1827,1828,1829,1830,1831,1832,1833,1834,1835,1836,1837,1838,1839,1840,1841,1842,1843,1844,1845,1846,1847,1848,1849,1850,1851,1852,1853,1854,1855,1856,1857,1858,1859,1860,1861,1862,1863,1864,1865,1866,1867,1868,1869,1870,1871,1872,1873,1874,1875,1876,1877,1878,1879,1880,1881,1882,1883,1884,1885,1886,1887,1888,1889,1890,1891,1892,1893,1894,1895,1896,1897,1898,1899,1900,1901,1902,1903,1904,1905,1906,1907,1908,1909,1910,1911,1912,1913,1914,1915,1916,1917,1918,1919,1920,1921,1922,1923,1924,1925,1926,1927,1928,1929,1930,1931,1932,1933,1934,1935,1936,1937,1938,1939,1940,1941,1942,1943,1944,1945,1946,1947,1948,1949,1950,1951,1952,1953,1954,1955,1956,1957,1958,1959,1960,1961,1962,1963,1964,1965,1966,1967,1968,1969,1970,1971,1972,1973,1974,1975,1976,1977,1978,1979,1980,1981,1982,1983,1984,1985,1986,1987,1988,1989,1990,1991,1992,1993,1994,1995,1996,1997,1998,1999,2000,2001,2002,2003,2004,2005,2006,2007,2008,2009,2010,2011,2012,2013,2014,2015,2016,2017,2018,2019,2020,2021,2022,2023,2024,2025,2026,2027,2028,2029,2030,2031,2032,2033,2034,2035,2036,2037,2038,2039,2040,2041,2042,2043,2044,2045,2046,2047,2048,2049,2050,2051,2052,2053,2054,2055,2056,2057,2058,2059,2060,2061,2062,2063,2064,2065,2066,2067,2068,2069,2070,2071,2072,2073,2074,2075,2076,2077,2078,2079,2080,2081,2082,2083,2084,2085,2086,2087,2088,2089,2090,2091,2092,2093,2094,2095,2096,2097,2098,2099,2100,2101,2102,2103,2104,2105,2106,2107,2108,2109,2110,2111,2112,2113,2114,2115,2116,2117,2118,2119,2120,2121,2122,2123,2124,2125,2126,2127,2128,2129,2130,2131,2132,2133,2134,2135,2136,2137,2138,2139,2140,2141,2142,2143,2144,2145,2146,2147,2148,2149,2150,2151,2152,2153,2154,2155,2156,2157,2158,2159,2160,2161,2162,2163,2164,2165,2166,2167,2168,2169,2170,2171,2172,2173,2174,2175,2176,2177,2178,2179,2180,2181,2182,2183,2184,2185,2186,2187,2188,2189,2190,2191,2192,2193,2194,2195,2196,2197,2198,2199,2200,2201,2202,2203,2204,2205,2206,2207,2208,2209,2210,2211,2212,2213,2214,2215,2216,2217,2218,2219,2220,2221,2222,2223,2224,2225,2226,2227,2228,2229,2230,2231,2232,2233,2234,2235,2236,2237,2238,2239,2240,2241,2242,2243,2244,2245,2246,2247,2248,2249,2250,2251,2252,2253,2254,2255,2256,2257,2258,2259,2260,2261,2262,2263,2264,2265,2266,2267,2268,2269,2270,2271,2272,2273,2274,2275,2276,2277,2278,2279,2280,2281,2282,2283,2284,2285,2286,2287,2288,2289,2290,2291,2292,2293,2294,2295,2296,2297,2298,2299,2300,2301,2302,2303,2304,2305,2306,2307,2308,2309,2310,2311,2312,2313,2314,2315,2316,2317,2318,2319,2320,2321,2322,2323,2324,2325,2326,2327,2328,2329,2330,2331,2332,2333,2334,2335,2336,2337,2338,2339,2340,2341,2342,2343,2344,2345,2346,2347,2348,2349,2350,2351,2352,2353,2354,2355,2356,2357,2358,2359,2360,2361,2362,2363,2364,2365,2366,2367,2368,2369,2370,2371,2372,2373,2374,2375,2376,2377,2378,2379,2380,2381,2382,2383,2384,2385,2386,2387,2388,2389,2390,2391,2392,2393,2394,2395,2396,2397,2398,2399,2400,2401,2402,2403,2404,2405,2406,2407,2408,2409,2410,2411,2412,2413,2414,2415,2416,2417,2418,2419,2420,2421,2422,2423,2424,2425,2426,2427,2428,2429,2430,2431,2432,2433,2434,2435,2436,2437,2438,2439,2440,2441,2442,2443,2444,2445,2446,2447,2448,2449,2450,2451,2452,2453,2454,2455,2456,2457,2458,2459,2460,2461,2462,2463,2464,2465,2466,2467,2468,2469,2470,2471,2472,2473,2474,2475,2476,2477,2478,2479,2480,2481,2482,2483,2484,2485,2486,2487,2488,2489,2490,2491,2492,2493,2494,2495,2496,2497,2498,2499,2500,2501,2502,2503,2504,2505,2506,2507,2508,2509,2510,2511,2512,2513,2514,2515,2516,2517,2518,2519,2520,2521,2522,2523,2524,2525,2526,2527,2528,2529,2530,2531,2532,2533,2534,2535,2536,2537,2538,2539,2540,2541,2542,2543,2544,2545,2546,2547,2548,2549,2550,2551,2552,2553,2554,2555,2556,2557,2558,2559,2560,2561,2562,2563,2564,2565,2566,2567,2568,2569,2570,2571,2572,2573,2574,2575,2576,2577,2578,2579,2580,2581,2582,2583,2584,2585,2586,2587,2588,2589,2590,2591,2592,2593,2594,2595,2596,2597,2598,2599,2600,2601,2602,2603,2604,2605,2606,2607,2608,2609,2610,2611,2612,2613,2614,2615,2616,2617,2618,2619,2620,2621,2622,2623,2624,2625,2626,2627,2628,2629,2630,2631,2632,2633,2634,2635,2636,2637,2638,2639,2640,2641,2642,2643,2644,2645,2646,2647,2648,2649,2650,2651,2652,2653,2654,2655,2656,2657,2658,2659,2660,2661,2662,2663,2664,2665,2666,2667,2668,2669,2670,2671,2672,2673,2674,2675,2676,2677,2678,2679,2680,2681,2682,2683,2684,2685,2686,2687,2688,2689,2690,2691,2692,2693,2694,2695,2696,2697,2698,2699,2700,2701,2702,2703,2704,2705,2706,2707,2708,2709,2710,2711,2712,2713,2714,2715,2716,2717,2718,2719,2720,2721,2722,2723,2724,2725,2726,2727,2728,2729,2730,2731,2732,2733,2734,2735,2736,2737,2738,2739,2740,2741,2742,2743,2744,2745,2746,2747,2748,2749,2750,2751,2752,2753,2754,2755,2756,2757,2758,2759,2760,2761,2762,2763,2764,2765,2766,2767,2768,2769,2770,2771,2772,2773,2774,2775,2776,2777,2778,2779,2780,2781,2782,2783,2784,2785,2786,2787,2788,2789,2790,2791,2792,2793,2794,2795,2796,2797,2798,2799,2800,2801,2802,2803,2804,2805,2806,2807,2808,2809,2810,2811,2812,2813,2814,2815,2816,2817,2818,2819,2820,2821,2822,2823,2824,2825,2826,2827,2828,2829,2830,2831,2832,2833,2834,2835,2836,2837,2838,2839,2840,2841,2842,2843,2844,2845,2846,2847,2848,2849,2850,2851,2852,2853,2854,2855,2856,2857,2858,2859,2860,2861,2862,2863,2864,2865,2866,2867,2868,2869,2870,2871,2872,2873,2874,2875,2876,2877,2878,2879,2880,2881,2882,2883,2884,2885,2886,2887,2888,2889,2890,2891,2892,2893,2894,2895,2896,2897,2898,2899,2900,2901,2902,2903,2904,2905,2906,2907,2908,2909,2910,2911,2912,2913,2914,2915,2916,2917,2918,2919,2920,2921,2922,2923,2924,2925,2926,2927,2928,2929,2930,2931,2932,2933,2934,2935,2936,2937,2938,2939,2940,2941,2942,2943,2944,2945,2946,2947,2948,2949,2950,2951,2952,2953,2954,2955,2956,2957,2958,2959,2960,2961,2962,2963,2964,2965,2966,2967,2968,2969,2970,2971,2972,2973,2974,2975,2976,2977,2978,2979,2980,2981,2982,2983,2984,2985,2986,2987,2988,2989,2990,2991,2992,2993,2994,2995,2996,2997,2998,2999,3000],"tree_info":[0,0,0,0,0,0,0,0,0,0,0,0,0,0,0,0,0,0,0,0,0,0,0,0,0,0,0,0,0,0,0,0,0,0,0,0,0,0,0,0,0,0,0,0,0,0,0,0,0,0,0,0,0,0,0,0,0,0,0,0,0,0,0,0,0,0,0,0,0,0,0,0,0,0,0,0,0,0,0,0,0,0,0,0,0,0,0,0,0,0,0,0,0,0,0,0,0,0,0,0,0,0,0,0,0,0,0,0,0,0,0,0,0,0,0,0,0,0,0,0,0,0,0,0,0,0,0,0,0,0,0,0,0,0,0,0,0,0,0,0,0,0,0,0,0,0,0,0,0,0,0,0,0,0,0,0,0,0,0,0,0,0,0,0,0,0,0,0,0,0,0,0,0,0,0,0,0,0,0,0,0,0,0,0,0,0,0,0,0,0,0,0,0,0,0,0,0,0,0,0,0,0,0,0,0,0,0,0,0,0,0,0,0,0,0,0,0,0,0,0,0,0,0,0,0,0,0,0,0,0,0,0,0,0,0,0,0,0,0,0,0,0,0,0,0,0,0,0,0,0,0,0,0,0,0,0,0,0,0,0,0,0,0,0,0,0,0,0,0,0,0,0,0,0,0,0,0,0,0,0,0,0,0,0,0,0,0,0,0,0,0,0,0,0,0,0,0,0,0,0,0,0,0,0,0,0,0,0,0,0,0,0,0,0,0,0,0,0,0,0,0,0,0,0,0,0,0,0,0,0,0,0,0,0,0,0,0,0,0,0,0,0,0,0,0,0,0,0,0,0,0,0,0,0,0,0,0,0,0,0,0,0,0,0,0,0,0,0,0,0,0,0,0,0,0,0,0,0,0,0,0,0,0,0,0,0,0,0,0,0,0,0,0,0,0,0,0,0,0,0,0,0,0,0,0,0,0,0,0,0,0,0,0,0,0,0,0,0,0,0,0,0,0,0,0,0,0,0,0,0,0,0,0,0,0,0,0,0,0,0,0,0,0,0,0,0,0,0,0,0,0,0,0,0,0,0,0,0,0,0,0,0,0,0,0,0,0,0,0,0,0,0,0,0,0,0,0,0,0,0,0,0,0,0,0,0,0,0,0,0,0,0,0,0,0,0,0,0,0,0,0,0,0,0,0,0,0,0,0,0,0,0,0,0,0,0,0,0,0,0,0,0,0,0,0,0,0,0,0,0,0,0,0,0,0,0,0,0,0,0,0,0,0,0,0,0,0,0,0,0,0,0,0,0,0,0,0,0,0,0,0,0,0,0,0,0,0,0,0,0,0,0,0,0,0,0,0,0,0,0,0,0,0,0,0,0,0,0,0,0,0,0,0,0,0,0,0,0,0,0,0,0,0,0,0,0,0,0,0,0,0,0,0,0,0,0,0,0,0,0,0,0,0,0,0,0,0,0,0,0,0,0,0,0,0,0,0,0,0,0,0,0,0,0,0,0,0,0,0,0,0,0,0,0,0,0,0,0,0,0,0,0,0,0,0,0,0,0,0,0,0,0,0,0,0,0,0,0,0,0,0,0,0,0,0,0,0,0,0,0,0,0,0,0,0,0,0,0,0,0,0,0,0,0,0,0,0,0,0,0,0,0,0,0,0,0,0,0,0,0,0,0,0,0,0,0,0,0,0,0,0,0,0,0,0,0,0,0,0,0,0,0,0,0,0,0,0,0,0,0,0,0,0,0,0,0,0,0,0,0,0,0,0,0,0,0,0,0,0,0,0,0,0,0,0,0,0,0,0,0,0,0,0,0,0,0,0,0,0,0,0,0,0,0,0,0,0,0,0,0,0,0,0,0,0,0,0,0,0,0,0,0,0,0,0,0,0,0,0,0,0,0,0,0,0,0,0,0,0,0,0,0,0,0,0,0,0,0,0,0,0,0,0,0,0,0,0,0,0,0,0,0,0,0,0,0,0,0,0,0,0,0,0,0,0,0,0,0,0,0,0,0,0,0,0,0,0,0,0,0,0,0,0,0,0,0,0,0,0,0,0,0,0,0,0,0,0,0,0,0,0,0,0,0,0,0,0,0,0,0,0,0,0,0,0,0,0,0,0,0,0,0,0,0,0,0,0,0,0,0,0,0,0,0,0,0,0,0,0,0,0,0,0,0,0,0,0,0,0,0,0,0,0,0,0,0,0,0,0,0,0,0,0,0,0,0,0,0,0,0,0,0,0,0,0,0,0,0,0,0,0,0,0,0,0,0,0,0,0,0,0,0,0,0,0,0,0,0,0,0,0,0,0,0,0,0,0,0,0,0,0,0,0,0,0,0,0,0,0,0,0,0,0,0,0,0,0,0,0,0,0,0,0,0,0,0,0,0,0,0,0,0,0,0,0,0,0,0,0,0,0,0,0,0,0,0,0,0,0,0,0,0,0,0,0,0,0,0,0,0,0,0,0,0,0,0,0,0,0,0,0,0,0,0,0,0,0,0,0,0,0,0,0,0,0,0,0,0,0,0,0,0,0,0,0,0,0,0,0,0,0,0,0,0,0,0,0,0,0,0,0,0,0,0,0,0,0,0,0,0,0,0,0,0,0,0,0,0,0,0,0,0,0,0,0,0,0,0,0,0,0,0,0,0,0,0,0,0,0,0,0,0,0,0,0,0,0,0,0,0,0,0,0,0,0,0,0,0,0,0,0,0,0,0,0,0,0,0,0,0,0,0,0,0,0,0,0,0,0,0,0,0,0,0,0,0,0,0,0,0,0,0,0,0,0,0,0,0,0,0,0,0,0,0,0,0,0,0,0,0,0,0,0,0,0,0,0,0,0,0,0,0,0,0,0,0,0,0,0,0,0,0,0,0,0,0,0,0,0,0,0,0,0,0,0,0,0,0,0,0,0,0,0,0,0,0,0,0,0,0,0,0,0,0,0,0,0,0,0,0,0,0,0,0,0,0,0,0,0,0,0,0,0,0,0,0,0,0,0,0,0,0,0,0,0,0,0,0,0,0,0,0,0,0,0,0,0,0,0,0,0,0,0,0,0,0,0,0,0,0,0,0,0,0,0,0,0,0,0,0,0,0,0,0,0,0,0,0,0,0,0,0,0,0,0,0,0,0,0,0,0,0,0,0,0,0,0,0,0,0,0,0,0,0,0,0,0,0,0,0,0,0,0,0,0,0,0,0,0,0,0,0,0,0,0,0,0,0,0,0,0,0,0,0,0,0,0,0,0,0,0,0,0,0,0,0,0,0,0,0,0,0,0,0,0,0,0,0,0,0,0,0,0,0,0,0,0,0,0,0,0,0,0,0,0,0,0,0,0,0,0,0,0,0,0,0,0,0,0,0,0,0,0,0,0,0,0,0,0,0,0,0,0,0,0,0,0,0,0,0,0,0,0,0,0,0,0,0,0,0,0,0,0,0,0,0,0,0,0,0,0,0,0,0,0,0,0,0,0,0,0,0,0,0,0,0,0,0,0,0,0,0,0,0,0,0,0,0,0,0,0,0,0,0,0,0,0,0,0,0,0,0,0,0,0,0,0,0,0,0,0,0,0,0,0,0,0,0,0,0,0,0,0,0,0,0,0,0,0,0,0,0,0,0,0,0,0,0,0,0,0,0,0,0,0,0,0,0,0,0,0,0,0,0,0,0,0,0,0,0,0,0,0,0,0,0,0,0,0,0,0,0,0,0,0,0,0,0,0,0,0,0,0,0,0,0,0,0,0,0,0,0,0,0,0,0,0,0,0,0,0,0,0,0,0,0,0,0,0,0,0,0,0,0,0,0,0,0,0,0,0,0,0,0,0,0,0,0,0,0,0,0,0,0,0,0,0,0,0,0,0,0,0,0,0,0,0,0,0,0,0,0,0,0,0,0,0,0,0,0,0,0,0,0,0,0,0,0,0,0,0,0,0,0,0,0,0,0,0,0,0,0,0,0,0,0,0,0,0,0,0,0,0,0,0,0,0,0,0,0,0,0,0,0,0,0,0,0,0,0,0,0,0,0,0,0,0,0,0,0,0,0,0,0,0,0,0,0,0,0,0,0,0,0,0,0,0,0,0,0,0,0,0,0,0,0,0,0,0,0,0,0,0,0,0,0,0,0,0,0,0,0,0,0,0,0,0,0,0,0,0,0,0,0,0,0,0,0,0,0,0,0,0,0,0,0,0,0,0,0,0,0,0,0,0,0,0,0,0,0,0,0,0,0,0,0,0,0,0,0,0,0,0,0,0,0,0,0,0,0,0,0,0,0,0,0,0,0,0,0,0,0,0,0,0,0,0,0,0,0,0,0,0,0,0,0,0,0,0,0,0,0,0,0,0,0,0,0,0,0,0,0,0,0,0,0,0,0,0,0,0,0,0,0,0,0,0,0,0,0,0,0,0,0,0,0,0,0,0,0,0,0,0,0,0,0,0,0,0,0,0,0,0,0,0,0,0,0,0,0,0,0,0,0,0,0,0,0,0,0,0,0,0,0,0,0,0,0,0,0,0,0,0,0,0,0,0,0,0,0,0,0,0,0,0,0,0,0,0,0,0,0,0,0,0,0,0,0,0,0,0,0,0,0,0,0,0,0,0,0,0,0,0,0,0,0,0,0,0,0,0,0,0,0,0,0,0,0,0,0,0,0,0,0,0,0,0,0,0,0,0,0,0,0,0,0,0,0,0,0,0,0,0,0,0,0,0,0,0,0,0,0,0,0,0,0,0,0,0,0,0,0,0,0,0,0,0,0,0,0,0,0,0,0,0,0,0,0,0,0,0,0,0,0,0,0,0,0,0,0,0,0,0,0,0,0,0,0,0,0,0,0,0,0,0,0,0,0,0,0,0,0,0,0,0,0,0,0,0,0,0,0,0,0,0,0,0,0,0,0,0,0,0,0,0,0,0,0,0,0,0,0,0,0,0,0,0,0,0,0,0,0,0,0,0,0,0,0,0,0,0,0,0,0,0,0,0,0,0,0,0,0,0,0,0,0,0,0,0,0,0,0,0,0,0,0,0,0,0,0,0,0,0,0,0,0,0,0,0,0,0,0,0,0,0,0,0,0,0,0,0,0,0,0,0,0,0,0,0,0,0,0,0,0,0,0,0,0,0,0,0,0,0,0,0,0,0,0,0,0,0,0,0,0,0,0,0,0,0,0,0,0,0,0,0,0,0,0,0,0,0,0,0,0,0,0,0,0,0,0,0,0,0,0,0,0,0,0,0,0,0,0,0,0,0,0,0,0,0,0,0,0,0,0,0,0,0,0,0,0,0,0,0,0,0,0,0,0,0,0,0,0,0,0,0,0,0,0,0,0,0,0,0,0,0,0,0,0,0,0,0,0,0,0,0,0,0,0,0,0,0,0,0,0,0,0,0,0,0,0,0,0,0,0,0,0,0,0,0,0,0,0,0,0,0,0,0,0,0,0,0,0,0,0,0,0,0,0,0,0,0,0,0,0,0,0,0,0,0,0,0,0,0,0,0,0,0,0,0,0,0,0,0,0,0,0,0,0,0,0,0,0,0,0,0,0,0,0,0,0,0,0,0,0,0,0,0,0,0,0,0,0,0,0,0,0,0,0,0,0,0,0,0,0,0,0,0,0,0,0,0,0,0,0,0,0,0,0,0,0,0,0,0,0,0,0,0,0,0,0,0,0,0,0,0,0,0,0,0,0,0,0,0,0,0,0,0,0,0,0,0,0,0,0,0,0,0,0,0,0,0,0,0,0,0,0,0,0,0,0,0,0,0,0,0,0,0,0,0,0,0,0,0,0,0,0,0,0,0,0,0,0,0,0,0,0,0,0,0,0,0,0,0,0,0,0,0,0,0,0,0,0,0,0,0,0,0,0,0,0,0,0,0,0,0,0,0,0,0,0,0,0,0,0,0,0,0,0,0,0,0,0,0,0,0,0,0,0,0,0,0,0,0,0,0,0,0,0,0,0,0,0,0,0,0,0,0,0,0,0,0,0,0,0,0,0,0,0,0,0,0,0,0,0,0,0,0,0,0,0,0,0,0,0,0,0,0,0,0,0,0,0,0,0,0,0,0,0,0,0,0,0,0,0,0,0,0,0,0,0,0,0,0,0,0,0,0,0,0,0,0,0,0,0,0,0,0,0,0,0,0,0,0,0,0,0,0,0,0,0,0,0,0,0,0,0,0,0,0,0,0,0,0,0,0,0,0,0,0,0,0,0,0,0,0,0,0,0,0,0,0,0,0,0,0,0,0,0,0,0,0,0,0,0,0,0,0,0,0,0,0,0,0,0,0,0,0,0,0,0,0,0,0,0,0,0,0,0,0,0,0,0,0,0,0,0,0,0,0,0,0,0,0,0,0,0,0,0,0,0,0,0,0,0,0,0,0,0,0,0,0,0,0,0,0,0,0,0,0,0,0,0,0,0,0,0,0,0,0,0,0,0,0,0,0,0,0,0,0,0,0,0,0,0,0,0,0,0,0,0,0,0,0,0,0,0,0,0,0,0,0,0,0,0,0,0,0,0,0,0,0,0,0,0,0,0,0,0,0,0,0,0,0,0,0,0,0,0,0,0,0,0,0,0,0,0,0,0,0,0,0,0,0,0,0,0,0,0,0,0,0,0,0,0,0,0,0,0,0,0,0,0,0,0,0,0,0,0,0,0,0,0,0,0,0,0,0,0,0,0,0,0,0,0,0,0,0,0,0,0,0,0,0,0,0,0,0,0,0,0,0,0,0,0,0,0,0,0,0,0,0,0,0,0,0,0,0,0,0,0,0,0,0,0,0,0,0,0,0,0,0,0,0,0,0,0,0,0,0,0],"trees":[{"base_weights":[-0E0,-1.3603659E-4,2.2653824E-4],"categories":[],"categories_nodes":[],"categories_segments":[],"categories_sizes":[],"default_left":[0,0,0],"id":0,"left_children":[1,-1,-1],"loss_changes":[1.2692058E-1,0E0,0E0],"parents":[2147483647,0,0],"right_children":[2,-1,-1],"split_conditions":[5.2923113E-2,-1.3603659E-4,2.2653824E-4],"split_indices":[92,0,0],"split_type":[0,0,0],"sum_hessian":[4.01E2,2.51E2,1.5E2],"tree_param":{"num_deleted":"0","num_feature":"97","num_nodes":"3","size_leaf_vector":"1"}},{"base_weights":[1.3895881E-3,-7.36752E-5,4.1324293E-4],"categories":[],"categories_nodes":[],"categories_segments":[],"categories_sizes":[],"default_left":[0,0,0],"id":1,"left_children":[1,-1,-1],"loss_changes":[1.6817765E-1,0E0,0E0],"parents":[2147483647,0,0],"right_children":[2,-1,-1],"split_conditions":[1.5203756E-1,-7.36752E-5,4.1324293E-4],"split_indices":[92,0,0],"split_type":[0,0,0],"sum_hessian":[4.23E2,3.4E2,8.3E1],"tree_param":{"num_deleted":"0","num_feature":"97","num_nodes":"3","size_leaf_vector":"1"}},{"base_weights":[-0E0,-1.3868338E-4,2.2379818E-4],"categories":[],"categories_nodes":[],"categories_segments":[],"categories_sizes":[],"default_left":[0,0,0],"id":2,"left_children":[1,-1,-1],"loss_changes":[1.2863648E-1,0E0,0E0],"parents":[2147483647,0,0],"right_children":[2,-1,-1],"split_conditions":[5.5546463E-2,-1.3868338E-4,2.2379818E-4],"split_indices":[0,0,0],"split_type":[0,0,0],"sum_hessian":[4.15E2,2.68E2,1.47E2],"tree_param":{"num_deleted":"0","num_feature":"97","num_nodes":"3","size_leaf_vector":"1"}},{"base_weights":[-0E0,-8.311348E-5,3.9567307E-4],"categories":[],"categories_nodes":[],"categories_segments":[],"categories_sizes":[],"default_left":[0,0,0],"id":3,"left_children":[1,-1,-1],"loss_changes":[1.4820305E-1,0E0,0E0],"parents":[2147483647,0,0],"right_children":[2,-1,-1],"split_conditions":[1.4693505E-1,-8.311348E-5,3.9567307E-4],"split_indices":[9,0,0],"split_type":[0,0,0],"sum_hessian":[4.24E2,3.5E2,7.4E1],"tree_param":{"num_deleted":"0","num_feature":"97","num_nodes":"3","size_leaf_vector":"1"}},{"base_weights":[-0E0,-8.7807355E-5,3.6937484E-4],"categories":[],"categories_nodes":[],"categories_segments":[],"categories_sizes":[],"default_left":[0,0,0],"id":4,"left_children":[1,-1,-1],"loss_changes":[1.2771812E-1,0E0,0E0],"parents":[2147483647,0,0],"right_children":[2,-1,-1],"split_conditions":[1.5203756E-1,-8.7807355E-5,3.6937484E-4],"split_indices":[92,0,0],"split_type":[0,0,0],"sum_hessian":[4.11E2,3.42E2,6.9E1],"tree_param":{"num_deleted":"0","num_feature":"97","num_nodes":"3","size_leaf_vector":"1"}},{"base_weights":[-0E0,-8.100316E-5,3.3511873E-4],"categories":[],"categories_nodes":[],"categories_segments":[],"categories_sizes":[],"default_left":[0,0,0],"id":5,"left_children":[1,-1,-1],"loss_changes":[1.1921913E-1,0E0,0E0],"parents":[2147483647,0,0],"right_children":[2,-1,-1],"split_conditions":[1.4967729E-1,-8.100316E-5,3.3511873E-4],"split_indices":[9,0,0],"split_type":[0,0,0],"sum_hessian":[4.21E2,3.4E2,8.1E1],"tree_param":{"num_deleted":"0","num_feature":"97","num_nodes":"3","size_leaf_vector":"1"}},{"base_weights":[-0E0,-9.0815025E-5,3.9013135E-4],"categories":[],"categories_nodes":[],"categories_segments":[],"categories_sizes":[],"default_left":[0,0,0],"id":6,"left_children":[1,-1,-1],"loss_changes":[1.4277023E-1,0E0,0E0],"parents":[2147483647,0,0],"right_children":[2,-1,-1],"split_conditions":[1.4967729E-1,-9.0815025E-5,3.9013135E-4],"split_indices":[9,0,0],"split_type":[0,0,0],"sum_hessian":[4.12E2,3.42E2,7E1],"tree_param":{"num_deleted":"0","num_feature":"97","num_nodes":"3","size_leaf_vector":"1"}},{"base_weights":[-0E0,-8.681038E-5,3.7802375E-4],"categories":[],"categories_nodes":[],"categories_segments":[],"categories_sizes":[],"default_left":[0,0,0],"id":7,"left_children":[1,-1,-1],"loss_changes":[1.4641379E-1,0E0,0E0],"parents":[2147483647,0,0],"right_children":[2,-1,-1],"split_conditions":[1.4693505E-1,-8.681038E-5,3.7802375E-4],"split_indices":[9,0,0],"split_type":[0,0,0],"sum_hessian":[4.24E2,3.45E2,7.9E1],"tree_param":{"num_deleted":"0","num_feature":"97","num_nodes":"3","size_leaf_vector":"1"}},{"base_weights":[-0E0,-8.0660466E-5,3.4744738E-4],"categories":[],"categories_nodes":[],"categories_segments":[],"categories_sizes":[],"default_left":[0,0,0],"id":8,"left_children":[1,-1,-1],"loss_changes":[1.1928208E-1,0E0,0E0],"parents":[2147483647,0,0],"right_children":[2,-1,-1],"split_conditions":[1.4693505E-1,-8.0660466E-5,3.4744738E-4],"split_indices":[9,0,0],"split_type":[0,0,0],"sum_hessian":[4.19E2,3.44E2,7.5E1],"tree_param":{"num_deleted":"0","num_feature":"97","num_nodes":"3","size_leaf_vector":"1"}},{"base_weights":[-0E0,-1.02967E-4,2.7367406E-4],"categories":[],"categories_nodes":[],"categories_segments":[],"categories_sizes":[],"default_left":[0,0,0],"id":9,"left_children":[1,-1,-1],"loss_changes":[1.2807903E-1,0E0,0E0],"parents":[2147483647,0,0],"right_children":[2,-1,-1],"split_conditions":[8.592559E-2,-1.02967E-4,2.7367406E-4],"split_indices":[92,0,0],"split_type":[0,0,0],"sum_hessian":[4.4E2,3.2E2,1.2E2],"tree_param":{"num_deleted":"0","num_feature":"97","num_nodes":"3","size_leaf_vector":"1"}},{"base_weights":[-0E0,-9.611919E-5,2.6105312E-4],"categories":[],"categories_nodes":[],"categories_segments":[],"categories_sizes":[],"default_left":[0,0,0],"id":10,"left_children":[1,-1,-1],"loss_changes":[1.0734643E-1,0E0,0E0],"parents":[2147483647,0,0],"right_children":[2,-1,-1],"split_conditions":[9.577372E-2,-9.611919E-5,2.6105312E-4],"split_indices":[92,0,0],"split_type":[0,0,0],"sum_hessian":[4.25E2,3.16E2,1.09E2],"tree_param":{"num_deleted":"0","num_feature":"97","num_nodes":"3","size_leaf_vector":"1"}},{"base_weights":[-0E0,-8.999946E-5,3.8107156E-4],"categories":[],"categories_nodes":[],"categories_segments":[],"categories_sizes":[],"default_left":[0,0,0],"id":11,"left_children":[1,-1,-1],"loss_changes":[1.4742641E-1,0E0,0E0],"parents":[2147483647,0,0],"right_children":[2,-1,-1],"split_conditions":[1.4693505E-1,-8.999946E-5,3.8107156E-4],"split_indices":[9,0,0],"split_type":[0,0,0],"sum_hessian":[4.22E2,3.45E2,7.7E1],"tree_param":{"num_deleted":"0","num_feature":"97","num_nodes":"3","size_leaf_vector":"1"}},{"base_weights":[-0E0,-1.183452E-4,2.7691663E-4],"categories":[],"categories_nodes":[],"categories_segments":[],"categories_sizes":[],"default_left":[0,0,0],"id":12,"left_children":[1,-1,-1],"loss_changes":[1.4240472E-1,0E0,0E0],"parents":[2147483647,0,0],"right_children":[2,-1,-1],"split_conditions":[8.395799E-2,-1.183452E-4,2.7691663E-4],"split_indices":[0,0,0],"split_type":[0,0,0],"sum_hessian":[4.25E2,3E2,1.25E2],"tree_param":{"num_deleted":"0","num_feature":"97","num_nodes":"3","size_leaf_vector":"1"}},{"base_weights":[-0E0,-7.692142E-5,3.4150342E-4],"categories":[],"categories_nodes":[],"categories_segments":[],"categories_sizes":[],"default_left":[0,0,0],"id":13,"left_children":[1,-1,-1],"loss_changes":[1.2397255E-1,0E0,0E0],"parents":[2147483647,0,0],"right_children":[2,-1,-1],"split_conditions":[1.5203756E-1,-7.692142E-5,3.4150342E-4],"split_indices":[92,0,0],"split_type":[0,0,0],"sum_hessian":[4.2E2,3.36E2,8.4E1],"tree_param":{"num_deleted":"0","num_feature":"97","num_nodes":"3","size_leaf_vector":"1"}},{"base_weights":[-0E0,-8.61648E-5,3.215386E-4],"categories":[],"categories_nodes":[],"categories_segments":[],"categories_sizes":[],"default_left":[0,0,0],"id":14,"left_children":[1,-1,-1],"loss_changes":[1.1164254E-1,0E0,0E0],"parents":[2147483647,0,0],"right_children":[2,-1,-1],"split_conditions":[1.4693505E-1,-8.61648E-5,3.215386E-4],"split_indices":[9,0,0],"split_type":[0,0,0],"sum_hessian":[4.08E2,3.29E2,7.9E1],"tree_param":{"num_deleted":"0","num_feature":"97","num_nodes":"3","size_leaf_vector":"1"}},{"base_weights":[-0E0,-7.556963E-5,3.4439794E-4],"categories":[],"categories_nodes":[],"categories_segments":[],"categories_sizes":[],"default_left":[0,0,0],"id":15,"left_children":[1,-1,-1],"loss_changes":[1.209072E-1,0E0,0E0],"parents":[2147483647,0,0],"right_children":[2,-1,-1],"split_conditions":[1.4693505E-1,-7.556963E-5,3.4439794E-4],"split_indices":[9,0,0],"split_type":[0,0,0],"sum_hessian":[4.07E2,3.26E2,8.1E1],"tree_param":{"num_deleted":"0","num_feature":"97","num_nodes":"3","size_leaf_vector":"1"}},{"base_weights":[-0E0,-7.921926E-5,3.2802278E-4],"categories":[],"categories_nodes":[],"categories_segments":[],"categories_sizes":[],"default_left":[0,0,0],"id":16,"left_children":[1,-1,-1],"loss_changes":[1.1791627E-1,0E0,0E0],"parents":[2147483647,0,0],"right_children":[2,-1,-1],"split_conditions":[1.4967729E-1,-7.921926E-5,3.2802278E-4],"split_indices":[9,0,0],"split_type":[0,0,0],"sum_hessian":[4.32E2,3.48E2,8.4E1],"tree_param":{"num_deleted":"0","num_feature":"97","num_nodes":"3","size_leaf_vector":"1"}},{"base_weights":[-0E0,-8.617917E-5,3.2187617E-4],"categories":[],"categories_nodes":[],"categories_segments":[],"categories_sizes":[],"default_left":[0,0,0],"id":17,"left_children":[1,-1,-1],"loss_changes":[1.1390907E-1,0E0,0E0],"parents":[2147483647,0,0],"right_children":[2,-1,-1],"split_conditions":[1.4693505E-1,-8.617917E-5,3.2187617E-4],"split_indices":[9,0,0],"split_type":[0,0,0],"sum_hessian":[4.23E2,3.43E2,8E1],"tree_param":{"num_deleted":"0","num_feature":"97","num_nodes":"3","size_leaf_vector":"1"}},{"base_weights":[-0E0,-7.6364886E-5,3.41146E-4],"categories":[],"categories_nodes":[],"categories_segments":[],"categories_sizes":[],"default_left":[0,0,0],"id":18,"left_children":[1,-1,-1],"loss_changes":[1.1374832E-1,0E0,0E0],"parents":[2147483647,0,0],"right_children":[2,-1,-1],"split_conditions":[1.4693505E-1,-7.6364886E-5,3.41146E-4],"split_indices":[9,0,0],"split_type":[0,0,0],"sum_hessian":[4.24E2,3.49E2,7.5E1],"tree_param":{"num_deleted":"0","num_feature":"97","num_nodes":"3","size_leaf_vector":"1"}},{"base_weights":[-0E0,-8.3219296E-5,3.166751E-4],"categories":[],"categories_nodes":[],"categories_segments":[],"categories_sizes":[],"default_left":[0,0,0],"id":19,"left_children":[1,-1,-1],"loss_changes":[1.0304724E-1,0E0,0E0],"parents":[2147483647,0,0],"right_children":[2,-1,-1],"split_conditions":[1.5203756E-1,-8.3219296E-5,3.166751E-4],"split_indices":[92,0,0],"split_type":[0,0,0],"sum_hessian":[4.13E2,3.39E2,7.4E1],"tree_param":{"num_deleted":"0","num_feature":"97","num_nodes":"3","size_leaf_vector":"1"}},{"base_weights":[9.584925E-4,-7.123885E-5,3.8482342E-4],"categories":[],"categories_nodes":[],"categories_segments":[],"categories_sizes":[],"default_left":[0,0,0],"id":20,"left_children":[1,-1,-1],"loss_changes":[1.4412507E-1,0E0,0E0],"parents":[2147483647,0,0],"right_children":[2,-1,-1],"split_conditions":[1.4693505E-1,-7.123885E-5,3.8482342E-4],"split_indices":[9,0,0],"split_type":[0,0,0],"sum_hessian":[4.14E2,3.33E2,8.1E1],"tree_param":{"num_deleted":"0","num_feature":"97","num_nodes":"3","size_leaf_vector":"1"}},{"base_weights":[-2.1490887E-4,-1.04436E-4,2.5049297E-4],"categories":[],"categories_nodes":[],"categories_segments":[],"categories_sizes":[],"default_left":[0,0,0],"id":21,"left_children":[1,-1,-1],"loss_changes":[1.0305832E-1,0E0,0E0],"parents":[2147483647,0,0],"right_children":[2,-1,-1],"split_conditions":[9.061751E-2,-1.04436E-4,2.5049297E-4],"split_indices":[0,0,0],"split_type":[0,0,0],"sum_hessian":[4.17E2,3.13E2,1.04E2],"tree_param":{"num_deleted":"0","num_feature":"97","num_nodes":"3","size_leaf_vector":"1"}},{"base_weights":[-0E0,-4.5115892E-5,4.803532E-4],"categories":[],"categories_nodes":[],"categories_segments":[],"categories_sizes":[],"default_left":[0,0,0],"id":22,"left_children":[1,-1,-1],"loss_changes":[1.11506246E-1,0E0,0E0],"parents":[2147483647,0,0],"right_children":[2,-1,-1],"split_conditions":[2.9983246E-1,-4.5115892E-5,4.803532E-4],"split_indices":[9,0,0],"split_type":[0,0,0],"sum_hessian":[4.12E2,3.72E2,4E1],"tree_param":{"num_deleted":"0","num_feature":"97","num_nodes":"3","size_leaf_vector":"1"}},{"base_weights":[-4.711368E-4,-1.07730746E-4,2.3136238E-4],"categories":[],"categories_nodes":[],"categories_segments":[],"categories_sizes":[],"default_left":[0,0,0],"id":23,"left_children":[1,-1,-1],"loss_changes":[1.0085741E-1,0E0,0E0],"parents":[2147483647,0,0],"right_children":[2,-1,-1],"split_conditions":[8.592559E-2,-1.07730746E-4,2.3136238E-4],"split_indices":[92,0,0],"split_type":[0,0,0],"sum_hessian":[4.3E2,3.16E2,1.14E2],"tree_param":{"num_deleted":"0","num_feature":"97","num_nodes":"3","size_leaf_vector":"1"}},{"base_weights":[-0E0,-6.728055E-5,3.4123435E-4],"categories":[],"categories_nodes":[],"categories_segments":[],"categories_sizes":[],"default_left":[0,0,0],"id":24,"left_children":[1,-1,-1],"loss_changes":[1.0653144E-1,0E0,0E0],"parents":[2147483647,0,0],"right_children":[2,-1,-1],"split_conditions":[1.4693505E-1,-6.728055E-5,3.4123435E-4],"split_indices":[9,0,0],"split_type":[0,0,0],"sum_hessian":[4.15E2,3.42E2,7.3E1],"tree_param":{"num_deleted":"0","num_feature":"97","num_nodes":"3","size_leaf_vector":"1"}},{"base_weights":[-0E0,-1.0944743E-4,1.7116196E-4],"categories":[],"categories_nodes":[],"categories_segments":[],"categories_sizes":[],"default_left":[0,0,0],"id":25,"left_children":[1,-1,-1],"loss_changes":[7.620782E-2,0E0,0E0],"parents":[2147483647,0,0],"right_children":[2,-1,-1],"split_conditions":[5.0592236E-2,-1.0944743E-4,1.7116196E-4],"split_indices":[0,0,0],"split_type":[0,0,0],"sum_hessian":[4.05E2,2.57E2,1.48E2],"tree_param":{"num_deleted":"0","num_feature":"97","num_nodes":"3","size_leaf_vector":"1"}},{"base_weights":[-0E0,-9.539103E-5,2.4290798E-4],"categories":[],"categories_nodes":[],"categories_segments":[],"categories_sizes":[],"default_left":[0,0,0],"id":26,"left_children":[1,-1,-1],"loss_changes":[9.293386E-2,0E0,0E0],"parents":[2147483647,0,0],"right_children":[2,-1,-1],"split_conditions":[9.577372E-2,-9.539103E-5,2.4290798E-4],"split_indices":[92,0,0],"split_type":[0,0,0],"sum_hessian":[4.19E2,3.16E2,1.03E2],"tree_param":{"num_deleted":"0","num_feature":"97","num_nodes":"3","size_leaf_vector":"1"}},{"base_weights":[-0E0,-1.0315607E-4,2.359499E-4],"categories":[],"categories_nodes":[],"categories_segments":[],"categories_sizes":[],"default_left":[0,0,0],"id":27,"left_children":[1,-1,-1],"loss_changes":[1.03855036E-1,0E0,0E0],"parents":[2147483647,0,0],"right_children":[2,-1,-1],"split_conditions":[8.592559E-2,-1.0315607E-4,2.359499E-4],"split_indices":[92,0,0],"split_type":[0,0,0],"sum_hessian":[4.37E2,3.17E2,1.2E2],"tree_param":{"num_deleted":"0","num_feature":"97","num_nodes":"3","size_leaf_vector":"1"}},{"base_weights":[-0E0,-6.866603E-5,3.278435E-4],"categories":[],"categories_nodes":[],"categories_segments":[],"categories_sizes":[],"default_left":[0,0,0],"id":28,"left_children":[1,-1,-1],"loss_changes":[9.65478E-2,0E0,0E0],"parents":[2147483647,0,0],"right_children":[2,-1,-1],"split_conditions":[1.4693505E-1,-6.866603E-5,3.278435E-4],"split_indices":[9,0,0],"split_type":[0,0,0],"sum_hessian":[4.03E2,3.33E2,7E1],"tree_param":{"num_deleted":"0","num_feature":"97","num_nodes":"3","size_leaf_vector":"1"}},{"base_weights":[-0E0,-6.83354E-5,3.1490732E-4],"categories":[],"categories_nodes":[],"categories_segments":[],"categories_sizes":[],"default_left":[0,0,0],"id":29,"left_children":[1,-1,-1],"loss_changes":[1.04555644E-1,0E0,0E0],"parents":[2147483647,0,0],"right_children":[2,-1,-1],"split_conditions":[1.5203756E-1,-6.83354E-5,3.1490732E-4],"split_indices":[92,0,0],"split_type":[0,0,0],"sum_hessian":[4.28E2,3.44E2,8.4E1],"tree_param":{"num_deleted":"0","num_feature":"97","num_nodes":"3","size_leaf_vector":"1"}},{"base_weights":[-0E0,-4.8291015E-5,4.6700038E-4],"categories":[],"categories_nodes":[],"categories_segments":[],"categories_sizes":[],"default_left":[0,0,0],"id":30,"left_children":[1,-1,-1],"loss_changes":[1.1401098E-1,0E0,0E0],"parents":[2147483647,0,0],"right_children":[2,-1,-1],"split_conditions":[2.9983246E-1,-4.8291015E-5,4.6700038E-4],"split_indices":[9,0,0],"split_type":[0,0,0],"sum_hessian":[4.38E2,3.95E2,4.3E1],"tree_param":{"num_deleted":"0","num_feature":"97","num_nodes":"3","size_leaf_vector":"1"}},{"base_weights":[-0E0,-1.2942503E-4,1.3086475E-4],"categories":[],"categories_nodes":[],"categories_segments":[],"categories_sizes":[],"default_left":[0,0,0],"id":31,"left_children":[1,-1,-1],"loss_changes":[7.46844E-2,0E0,0E0],"parents":[2147483647,0,0],"right_children":[2,-1,-1],"split_conditions":[1.5183831E-2,-1.2942503E-4,1.3086475E-4],"split_indices":[23,0,0],"split_type":[0,0,0],"sum_hessian":[4.31E2,2.19E2,2.12E2],"tree_param":{"num_deleted":"0","num_feature":"97","num_nodes":"3","size_leaf_vector":"1"}},{"base_weights":[-0E0,-5.0914117E-5,4.904265E-4],"categories":[],"categories_nodes":[],"categories_segments":[],"categories_sizes":[],"default_left":[0,0,0],"id":32,"left_children":[1,-1,-1],"loss_changes":[1.228163E-1,0E0,0E0],"parents":[2147483647,0,0],"right_children":[2,-1,-1],"split_conditions":[2.9983246E-1,-5.0914117E-5,4.904265E-4],"split_indices":[9,0,0],"split_type":[0,0,0],"sum_hessian":[4.14E2,3.72E2,4.2E1],"tree_param":{"num_deleted":"0","num_feature":"97","num_nodes":"3","size_leaf_vector":"1"}},{"base_weights":[2.4168956E-4,-5.9772236E-5,3.0327003E-4],"categories":[],"categories_nodes":[],"categories_segments":[],"categories_sizes":[],"default_left":[0,0,0],"id":33,"left_children":[1,-1,-1],"loss_changes":[8.9978516E-2,0E0,0E0],"parents":[2147483647,0,0],"right_children":[2,-1,-1],"split_conditions":[1.5203756E-1,-5.9772236E-5,3.0327003E-4],"split_indices":[92,0,0],"split_type":[0,0,0],"sum_hessian":[4.06E2,3.26E2,8E1],"tree_param":{"num_deleted":"0","num_feature":"97","num_nodes":"3","size_leaf_vector":"1"}},{"base_weights":[-0E0,-7.629825E-5,3.1771968E-4],"categories":[],"categories_nodes":[],"categories_segments":[],"categories_sizes":[],"default_left":[0,0,0],"id":34,"left_children":[1,-1,-1],"loss_changes":[1.1085709E-1,0E0,0E0],"parents":[2147483647,0,0],"right_children":[2,-1,-1],"split_conditions":[1.4693505E-1,-7.629825E-5,3.1771968E-4],"split_indices":[9,0,0],"split_type":[0,0,0],"sum_hessian":[4.4E2,3.56E2,8.4E1],"tree_param":{"num_deleted":"0","num_feature":"97","num_nodes":"3","size_leaf_vector":"1"}},{"base_weights":[-0E0,-6.73278E-5,3.0576528E-4],"categories":[],"categories_nodes":[],"categories_segments":[],"categories_sizes":[],"default_left":[0,0,0],"id":35,"left_children":[1,-1,-1],"loss_changes":[9.939118E-2,0E0,0E0],"parents":[2147483647,0,0],"right_children":[2,-1,-1],"split_conditions":[1.5203756E-1,-6.73278E-5,3.0576528E-4],"split_indices":[92,0,0],"split_type":[0,0,0],"sum_hessian":[4.36E2,3.52E2,8.4E1],"tree_param":{"num_deleted":"0","num_feature":"97","num_nodes":"3","size_leaf_vector":"1"}},{"base_weights":[-3.5900765E-4,-1.0594603E-4,1.5998752E-4],"categories":[],"categories_nodes":[],"categories_segments":[],"categories_sizes":[],"default_left":[0,0,0],"id":36,"left_children":[1,-1,-1],"loss_changes":[6.8968914E-2,0E0,0E0],"parents":[2147483647,0,0],"right_children":[2,-1,-1],"split_conditions":[5.1387843E-2,-1.0594603E-4,1.5998752E-4],"split_indices":[92,0,0],"split_type":[0,0,0],"sum_hessian":[4.18E2,2.77E2,1.41E2],"tree_param":{"num_deleted":"0","num_feature":"97","num_nodes":"3","size_leaf_vector":"1"}},{"base_weights":[-0E0,-4.728471E-5,4.1880406E-4],"categories":[],"categories_nodes":[],"categories_segments":[],"categories_sizes":[],"default_left":[0,0,0],"id":37,"left_children":[1,-1,-1],"loss_changes":[9.068678E-2,0E0,0E0],"parents":[2147483647,0,0],"right_children":[2,-1,-1],"split_conditions":[2.9983246E-1,-4.728471E-5,4.1880406E-4],"split_indices":[9,0,0],"split_type":[0,0,0],"sum_hessian":[4.06E2,3.64E2,4.2E1],"tree_param":{"num_deleted":"0","num_feature":"97","num_nodes":"3","size_leaf_vector":"1"}},{"base_weights":[-0E0,-8.546208E-5,2.3250523E-4],"categories":[],"categories_nodes":[],"categories_segments":[],"categories_sizes":[],"default_left":[0,0,0],"id":38,"left_children":[1,-1,-1],"loss_changes":[8.837417E-2,0E0,0E0],"parents":[2147483647,0,0],"right_children":[2,-1,-1],"split_conditions":[9.061751E-2,-8.546208E-5,2.3250523E-4],"split_indices":[0,0,0],"split_type":[0,0,0],"sum_hessian":[4.19E2,3.02E2,1.17E2],"tree_param":{"num_deleted":"0","num_feature":"97","num_nodes":"3","size_leaf_vector":"1"}},{"base_weights":[-0E0,-5.078655E-5,4.459706E-4],"categories":[],"categories_nodes":[],"categories_segments":[],"categories_sizes":[],"default_left":[0,0,0],"id":39,"left_children":[1,-1,-1],"loss_changes":[1.1138978E-1,0E0,0E0],"parents":[2147483647,0,0],"right_children":[2,-1,-1],"split_conditions":[2.9983246E-1,-5.078655E-5,4.459706E-4],"split_indices":[9,0,0],"split_type":[0,0,0],"sum_hessian":[4.27E2,3.81E2,4.6E1],"tree_param":{"num_deleted":"0","num_feature":"97","num_nodes":"3","size_leaf_vector":"1"}},{"base_weights":[-0E0,-6.7571375E-5,3.1923575E-4],"categories":[],"categories_nodes":[],"categories_segments":[],"categories_sizes":[],"default_left":[0,0,0],"id":40,"left_children":[1,-1,-1],"loss_changes":[9.834628E-2,0E0,0E0],"parents":[2147483647,0,0],"right_children":[2,-1,-1],"split_conditions":[1.5203756E-1,-6.7571375E-5,3.1923575E-4],"split_indices":[92,0,0],"split_type":[0,0,0],"sum_hessian":[4.17E2,3.41E2,7.6E1],"tree_param":{"num_deleted":"0","num_feature":"97","num_nodes":"3","size_leaf_vector":"1"}},{"base_weights":[-0E0,-1.02135935E-4,1.6921807E-4],"categories":[],"categories_nodes":[],"categories_segments":[],"categories_sizes":[],"default_left":[0,0,0],"id":41,"left_children":[1,-1,-1],"loss_changes":[7.192369E-2,0E0,0E0],"parents":[2147483647,0,0],"right_children":[2,-1,-1],"split_conditions":[5.2923113E-2,-1.02135935E-4,1.6921807E-4],"split_indices":[92,0,0],"split_type":[0,0,0],"sum_hessian":[4.09E2,2.59E2,1.5E2],"tree_param":{"num_deleted":"0","num_feature":"97","num_nodes":"3","size_leaf_vector":"1"}},{"base_weights":[-0E0,-6.147622E-5,2.859515E-4],"categories":[],"categories_nodes":[],"categories_segments":[],"categories_sizes":[],"default_left":[0,0,0],"id":42,"left_children":[1,-1,-1],"loss_changes":[7.459163E-2,0E0,0E0],"parents":[2147483647,0,0],"right_children":[2,-1,-1],"split_conditions":[1.5203756E-1,-6.147622E-5,2.859515E-4],"split_indices":[92,0,0],"split_type":[0,0,0],"sum_hessian":[4.16E2,3.46E2,7E1],"tree_param":{"num_deleted":"0","num_feature":"97","num_nodes":"3","size_leaf_vector":"1"}},{"base_weights":[-0E0,-4.1411484E-5,3.8987212E-4],"categories":[],"categories_nodes":[],"categories_segments":[],"categories_sizes":[],"default_left":[0,0,0],"id":43,"left_children":[1,-1,-1],"loss_changes":[7.324243E-2,0E0,0E0],"parents":[2147483647,0,0],"right_children":[2,-1,-1],"split_conditions":[2.9983246E-1,-4.1411484E-5,3.8987212E-4],"split_indices":[9,0,0],"split_type":[0,0,0],"sum_hessian":[4.05E2,3.66E2,3.9E1],"tree_param":{"num_deleted":"0","num_feature":"97","num_nodes":"3","size_leaf_vector":"1"}},{"base_weights":[1.068924E-6,-3.798103E-5,4.1681642E-4],"categories":[],"categories_nodes":[],"categories_segments":[],"categories_sizes":[],"default_left":[0,0,0],"id":44,"left_children":[1,-1,-1],"loss_changes":[8.909135E-2,0E0,0E0],"parents":[2147483647,0,0],"right_children":[2,-1,-1],"split_conditions":[3.2481822E-1,-3.798103E-5,4.1681642E-4],"split_indices":[9,0,0],"split_type":[0,0,0],"sum_hessian":[4.33E2,3.9E2,4.3E1],"tree_param":{"num_deleted":"0","num_feature":"97","num_nodes":"3","size_leaf_vector":"1"}},{"base_weights":[-0E0,-1.5964644E-4,1.2642363E-4],"categories":[],"categories_nodes":[],"categories_segments":[],"categories_sizes":[],"default_left":[0,0,0],"id":45,"left_children":[1,-1,-1],"loss_changes":[8.913866E-2,0E0,0E0],"parents":[2147483647,0,0],"right_children":[2,-1,-1],"split_conditions":[1.1220056E-3,-1.5964644E-4,1.2642363E-4],"split_indices":[11,0,0],"split_type":[0,0,0],"sum_hessian":[4.27E2,1.98E2,2.29E2],"tree_param":{"num_deleted":"0","num_feature":"97","num_nodes":"3","size_leaf_vector":"1"}},{"base_weights":[-3.272887E-4,-1.5159597E-4,1.0385662E-4],"categories":[],"categories_nodes":[],"categories_segments":[],"categories_sizes":[],"default_left":[0,0,0],"id":46,"left_children":[1,-1,-1],"loss_changes":[7.0387945E-2,0E0,0E0],"parents":[2147483647,0,0],"right_children":[2,-1,-1],"split_conditions":[1.2454974E-3,-1.5159597E-4,1.0385662E-4],"split_indices":[11,0,0],"split_type":[0,0,0],"sum_hessian":[4.18E2,1.94E2,2.24E2],"tree_param":{"num_deleted":"0","num_feature":"97","num_nodes":"3","size_leaf_vector":"1"}},{"base_weights":[-0E0,-6.893509E-5,2.8171198E-4],"categories":[],"categories_nodes":[],"categories_segments":[],"categories_sizes":[],"default_left":[0,0,0],"id":47,"left_children":[1,-1,-1],"loss_changes":[8.273993E-2,0E0,0E0],"parents":[2147483647,0,0],"right_children":[2,-1,-1],"split_conditions":[1.4693505E-1,-6.893509E-5,2.8171198E-4],"split_indices":[9,0,0],"split_type":[0,0,0],"sum_hessian":[4.28E2,3.5E2,7.8E1],"tree_param":{"num_deleted":"0","num_feature":"97","num_nodes":"3","size_leaf_vector":"1"}},{"base_weights":[-1.701458E-4,-2.2556433E-4,5.4901033E-5],"categories":[],"categories_nodes":[],"categories_segments":[],"categories_sizes":[],"default_left":[0,0,0],"id":48,"left_children":[1,-1,-1],"loss_changes":[6.452548E-2,0E0,0E0],"parents":[2147483647,0,0],"right_children":[2,-1,-1],"split_conditions":[-3.8476396E-2,-2.2556433E-4,5.4901033E-5],"split_indices":[92,0,0],"split_type":[0,0,0],"sum_hessian":[4.32E2,1.02E2,3.3E2],"tree_param":{"num_deleted":"0","num_feature":"97","num_nodes":"3","size_leaf_vector":"1"}},{"base_weights":[-0E0,-6.892986E-5,2.6835775E-4],"categories":[],"categories_nodes":[],"categories_segments":[],"categories_sizes":[],"default_left":[0,0,0],"id":49,"left_children":[1,-1,-1],"loss_changes":[7.842076E-2,0E0,0E0],"parents":[2147483647,0,0],"right_children":[2,-1,-1],"split_conditions":[1.4693505E-1,-6.892986E-5,2.6835775E-4],"split_indices":[9,0,0],"split_type":[0,0,0],"sum_hessian":[4.23E2,3.42E2,8.1E1],"tree_param":{"num_deleted":"0","num_feature":"97","num_nodes":"3","size_leaf_vector":"1"}},{"base_weights":[-0E0,-4.0636063E-5,4.682005E-4],"categories":[],"categories_nodes":[],"categories_segments":[],"categories_sizes":[],"default_left":[0,0,0],"id":50,"left_children":[1,-1,-1],"loss_changes":[9.194911E-2,0E0,0E0],"parents":[2147483647,0,0],"right_children":[2,-1,-1],"split_conditions":[3.914297E-1,-4.0636063E-5,4.682005E-4],"split_indices":[9,0,0],"split_type":[0,0,0],"sum_hessian":[4.2E2,3.86E2,3.4E1],"tree_param":{"num_deleted":"0","num_feature":"97","num_nodes":"3","size_leaf_vector":"1"}},{"base_weights":[-0E0,-4.6104415E-5,4.0177454E-4],"categories":[],"categories_nodes":[],"categories_segments":[],"categories_sizes":[],"default_left":[0,0,0],"id":51,"left_children":[1,-1,-1],"loss_changes":[8.70257E-2,0E0,0E0],"parents":[2147483647,0,0],"right_children":[2,-1,-1],"split_conditions":[2.931307E-1,-4.6104415E-5,4.0177454E-4],"split_indices":[9,0,0],"split_type":[0,0,0],"sum_hessian":[4.12E2,3.68E2,4.4E1],"tree_param":{"num_deleted":"0","num_feature":"97","num_nodes":"3","size_leaf_vector":"1"}},{"base_weights":[-0E0,-1.354204E-4,1.0028571E-4],"categories":[],"categories_nodes":[],"categories_segments":[],"categories_sizes":[],"default_left":[0,0,0],"id":52,"left_children":[1,-1,-1],"loss_changes":[5.783322E-2,0E0,0E0],"parents":[2147483647,0,0],"right_children":[2,-1,-1],"split_conditions":[3.1319135E-4,-1.354204E-4,1.0028571E-4],"split_indices":[11,0,0],"split_type":[0,0,0],"sum_hessian":[4.16E2,1.76E2,2.4E2],"tree_param":{"num_deleted":"0","num_feature":"97","num_nodes":"3","size_leaf_vector":"1"}},{"base_weights":[-0E0,-7.30628E-5,2.791184E-4],"categories":[],"categories_nodes":[],"categories_segments":[],"categories_sizes":[],"default_left":[0,0,0],"id":53,"left_children":[1,-1,-1],"loss_changes":[8.834119E-2,0E0,0E0],"parents":[2147483647,0,0],"right_children":[2,-1,-1],"split_conditions":[1.4693505E-1,-7.30628E-5,2.791184E-4],"split_indices":[9,0,0],"split_type":[0,0,0],"sum_hessian":[4.35E2,3.51E2,8.4E1],"tree_param":{"num_deleted":"0","num_feature":"97","num_nodes":"3","size_leaf_vector":"1"}},{"base_weights":[-0E0,-1.3965949E-4,1.140656E-4],"categories":[],"categories_nodes":[],"categories_segments":[],"categories_sizes":[],"default_left":[0,0,0],"id":54,"left_children":[1,-1,-1],"loss_changes":[6.73099E-2,0E0,0E0],"parents":[2147483647,0,0],"right_children":[2,-1,-1],"split_conditions":[1.1220056E-3,-1.3965949E-4,1.140656E-4],"split_indices":[11,0,0],"split_type":[0,0,0],"sum_hessian":[4.14E2,1.82E2,2.32E2],"tree_param":{"num_deleted":"0","num_feature":"97","num_nodes":"3","size_leaf_vector":"1"}},{"base_weights":[-0E0,-1.3308667E-4,1.03215156E-4],"categories":[],"categories_nodes":[],"categories_segments":[],"categories_sizes":[],"default_left":[0,0,0],"id":55,"left_children":[1,-1,-1],"loss_changes":[6.05994E-2,0E0,0E0],"parents":[2147483647,0,0],"right_children":[2,-1,-1],"split_conditions":[1.2454974E-3,-1.3308667E-4,1.03215156E-4],"split_indices":[11,0,0],"split_type":[0,0,0],"sum_hessian":[4.23E2,2E2,2.23E2],"tree_param":{"num_deleted":"0","num_feature":"97","num_nodes":"3","size_leaf_vector":"1"}},{"base_weights":[-0E0,-5.050842E-5,3.8599176E-4],"categories":[],"categories_nodes":[],"categories_segments":[],"categories_sizes":[],"default_left":[0,0,0],"id":56,"left_children":[1,-1,-1],"loss_changes":[8.241849E-2,0E0,0E0],"parents":[2147483647,0,0],"right_children":[2,-1,-1],"split_conditions":[2.9983246E-1,-5.050842E-5,3.8599176E-4],"split_indices":[9,0,0],"split_type":[0,0,0],"sum_hessian":[4.08E2,3.64E2,4.4E1],"tree_param":{"num_deleted":"0","num_feature":"97","num_nodes":"3","size_leaf_vector":"1"}},{"base_weights":[-0E0,-6.214203E-5,2.5849967E-4],"categories":[],"categories_nodes":[],"categories_segments":[],"categories_sizes":[],"default_left":[0,0,0],"id":57,"left_children":[1,-1,-1],"loss_changes":[7.044207E-2,0E0,0E0],"parents":[2147483647,0,0],"right_children":[2,-1,-1],"split_conditions":[1.4693505E-1,-6.214203E-5,2.5849967E-4],"split_indices":[9,0,0],"split_type":[0,0,0],"sum_hessian":[4.12E2,3.31E2,8.1E1],"tree_param":{"num_deleted":"0","num_feature":"97","num_nodes":"3","size_leaf_vector":"1"}},{"base_weights":[-0E0,-1.2653392E-4,1.2257857E-4],"categories":[],"categories_nodes":[],"categories_segments":[],"categories_sizes":[],"default_left":[0,0,0],"id":58,"left_children":[1,-1,-1],"loss_changes":[6.613697E-2,0E0,0E0],"parents":[2147483647,0,0],"right_children":[2,-1,-1],"split_conditions":[2.623697E-2,-1.2653392E-4,1.2257857E-4],"split_indices":[92,0,0],"split_type":[0,0,0],"sum_hessian":[4.16E2,2.11E2,2.05E2],"tree_param":{"num_deleted":"0","num_feature":"97","num_nodes":"3","size_leaf_vector":"1"}},{"base_weights":[-1.0009107E-4,-9.778411E-5,1.7829532E-4],"categories":[],"categories_nodes":[],"categories_segments":[],"categories_sizes":[],"default_left":[0,0,0],"id":59,"left_children":[1,-1,-1],"loss_changes":[7.0769355E-2,0E0,0E0],"parents":[2147483647,0,0],"right_children":[2,-1,-1],"split_conditions":[7.1497455E-2,-9.778411E-5,1.7829532E-4],"split_indices":[92,0,0],"split_type":[0,0,0],"sum_hessian":[4.21E2,2.93E2,1.28E2],"tree_param":{"num_deleted":"0","num_feature":"97","num_nodes":"3","size_leaf_vector":"1"}},{"base_weights":[-0E0,-5.1503805E-5,3.179666E-4],"categories":[],"categories_nodes":[],"categories_segments":[],"categories_sizes":[],"default_left":[0,0,0],"id":60,"left_children":[1,-1,-1],"loss_changes":[6.438373E-2,0E0,0E0],"parents":[2147483647,0,0],"right_children":[2,-1,-1],"split_conditions":[2.313771E-1,-5.1503805E-5,3.179666E-4],"split_indices":[9,0,0],"split_type":[0,0,0],"sum_hessian":[4.13E2,3.64E2,4.9E1],"tree_param":{"num_deleted":"0","num_feature":"97","num_nodes":"3","size_leaf_vector":"1"}},{"base_weights":[-0E0,-7.157918E-5,1.955145E-4],"categories":[],"categories_nodes":[],"categories_segments":[],"categories_sizes":[],"default_left":[0,0,0],"id":61,"left_children":[1,-1,-1],"loss_changes":[6.420147E-2,0E0,0E0],"parents":[2147483647,0,0],"right_children":[2,-1,-1],"split_conditions":[8.592559E-2,-7.157918E-5,1.955145E-4],"split_indices":[92,0,0],"split_type":[0,0,0],"sum_hessian":[4.29E2,3.08E2,1.21E2],"tree_param":{"num_deleted":"0","num_feature":"97","num_nodes":"3","size_leaf_vector":"1"}},{"base_weights":[-0E0,-5.107754E-5,2.5099755E-4],"categories":[],"categories_nodes":[],"categories_segments":[],"categories_sizes":[],"default_left":[0,0,0],"id":62,"left_children":[1,-1,-1],"loss_changes":[6.312838E-2,0E0,0E0],"parents":[2147483647,0,0],"right_children":[2,-1,-1],"split_conditions":[1.4461003E-1,-5.107754E-5,2.5099755E-4],"split_indices":[0,0,0],"split_type":[0,0,0],"sum_hessian":[4.19E2,3.38E2,8.1E1],"tree_param":{"num_deleted":"0","num_feature":"97","num_nodes":"3","size_leaf_vector":"1"}},{"base_weights":[-0E0,-9.4802024E-5,1.7355013E-4],"categories":[],"categories_nodes":[],"categories_segments":[],"categories_sizes":[],"default_left":[0,0,0],"id":63,"left_children":[1,-1,-1],"loss_changes":[7.2156295E-2,0E0,0E0],"parents":[2147483647,0,0],"right_children":[2,-1,-1],"split_conditions":[4.739329E-2,-9.4802024E-5,1.7355013E-4],"split_indices":[0,0,0],"split_type":[0,0,0],"sum_hessian":[4.19E2,2.65E2,1.54E2],"tree_param":{"num_deleted":"0","num_feature":"97","num_nodes":"3","size_leaf_vector":"1"}},{"base_weights":[-0E0,-3.607324E-5,4.047822E-4],"categories":[],"categories_nodes":[],"categories_segments":[],"categories_sizes":[],"default_left":[0,0,0],"id":64,"left_children":[1,-1,-1],"loss_changes":[6.5829106E-2,0E0,0E0],"parents":[2147483647,0,0],"right_children":[2,-1,-1],"split_conditions":[3.914297E-1,-3.607324E-5,4.047822E-4],"split_indices":[9,0,0],"split_type":[0,0,0],"sum_hessian":[4.27E2,3.95E2,3.2E1],"tree_param":{"num_deleted":"0","num_feature":"97","num_nodes":"3","size_leaf_vector":"1"}},{"base_weights":[-0E0,-6.3391315E-5,2.4603697E-4],"categories":[],"categories_nodes":[],"categories_segments":[],"categories_sizes":[],"default_left":[0,0,0],"id":65,"left_children":[1,-1,-1],"loss_changes":[6.306226E-2,0E0,0E0],"parents":[2147483647,0,0],"right_children":[2,-1,-1],"split_conditions":[1.4693505E-1,-6.3391315E-5,2.4603697E-4],"split_indices":[9,0,0],"split_type":[0,0,0],"sum_hessian":[3.92E2,3.14E2,7.8E1],"tree_param":{"num_deleted":"0","num_feature":"97","num_nodes":"3","size_leaf_vector":"1"}},{"base_weights":[-0E0,-1.14338574E-4,1.2358445E-4],"categories":[],"categories_nodes":[],"categories_segments":[],"categories_sizes":[],"default_left":[0,0,0],"id":66,"left_children":[1,-1,-1],"loss_changes":[6.332001E-2,0E0,0E0],"parents":[2147483647,0,0],"right_children":[2,-1,-1],"split_conditions":[2.9074201E-2,-1.14338574E-4,1.2358445E-4],"split_indices":[0,0,0],"split_type":[0,0,0],"sum_hessian":[4.38E2,2.27E2,2.11E2],"tree_param":{"num_deleted":"0","num_feature":"97","num_nodes":"3","size_leaf_vector":"1"}},{"base_weights":[-0E0,-1.45061E-4,1.2107368E-4],"categories":[],"categories_nodes":[],"categories_segments":[],"categories_sizes":[],"default_left":[0,0,0],"id":67,"left_children":[1,-1,-1],"loss_changes":[7.462091E-2,0E0,0E0],"parents":[2147483647,0,0],"right_children":[2,-1,-1],"split_conditions":[3.1319135E-4,-1.45061E-4,1.2107368E-4],"split_indices":[11,0,0],"split_type":[0,0,0],"sum_hessian":[4.15E2,1.88E2,2.27E2],"tree_param":{"num_deleted":"0","num_feature":"97","num_nodes":"3","size_leaf_vector":"1"}},{"base_weights":[-0E0,-4.4302953E-5,3.8075773E-4],"categories":[],"categories_nodes":[],"categories_segments":[],"categories_sizes":[],"default_left":[0,0,0],"id":68,"left_children":[1,-1,-1],"loss_changes":[7.8595065E-2,0E0,0E0],"parents":[2147483647,0,0],"right_children":[2,-1,-1],"split_conditions":[2.9983246E-1,-4.4302953E-5,3.8075773E-4],"split_indices":[9,0,0],"split_type":[0,0,0],"sum_hessian":[4.24E2,3.8E2,4.4E1],"tree_param":{"num_deleted":"0","num_feature":"97","num_nodes":"3","size_leaf_vector":"1"}},{"base_weights":[-0E0,-4.5167533E-5,3.0240254E-4],"categories":[],"categories_nodes":[],"categories_segments":[],"categories_sizes":[],"default_left":[0,0,0],"id":69,"left_children":[1,-1,-1],"loss_changes":[6.270239E-2,0E0,0E0],"parents":[2147483647,0,0],"right_children":[2,-1,-1],"split_conditions":[2.334594E-1,-4.5167533E-5,3.0240254E-4],"split_indices":[9,0,0],"split_type":[0,0,0],"sum_hessian":[4.34E2,3.79E2,5.5E1],"tree_param":{"num_deleted":"0","num_feature":"97","num_nodes":"3","size_leaf_vector":"1"}},{"base_weights":[-0E0,-2.1218363E-4,5.9510767E-5],"categories":[],"categories_nodes":[],"categories_segments":[],"categories_sizes":[],"default_left":[0,0,0],"id":70,"left_children":[1,-1,-1],"loss_changes":[5.7290643E-2,0E0,0E0],"parents":[2147483647,0,0],"right_children":[2,-1,-1],"split_conditions":[-3.8476396E-2,-2.1218363E-4,5.9510767E-5],"split_indices":[92,0,0],"split_type":[0,0,0],"sum_hessian":[4.13E2,9.7E1,3.16E2],"tree_param":{"num_deleted":"0","num_feature":"97","num_nodes":"3","size_leaf_vector":"1"}},{"base_weights":[-0E0,-1.3519589E-4,1.1191211E-4],"categories":[],"categories_nodes":[],"categories_segments":[],"categories_sizes":[],"default_left":[0,0,0],"id":71,"left_children":[1,-1,-1],"loss_changes":[6.5663144E-2,0E0,0E0],"parents":[2147483647,0,0],"right_children":[2,-1,-1],"split_conditions":[3.1319135E-4,-1.3519589E-4,1.1191211E-4],"split_indices":[11,0,0],"split_type":[0,0,0],"sum_hessian":[4.27E2,1.85E2,2.42E2],"tree_param":{"num_deleted":"0","num_feature":"97","num_nodes":"3","size_leaf_vector":"1"}},{"base_weights":[-0E0,-4.1937194E-5,3.8246237E-4],"categories":[],"categories_nodes":[],"categories_segments":[],"categories_sizes":[],"default_left":[0,0,0],"id":72,"left_children":[1,-1,-1],"loss_changes":[7.989225E-2,0E0,0E0],"parents":[2147483647,0,0],"right_children":[2,-1,-1],"split_conditions":[2.9983246E-1,-4.1937194E-5,3.8246237E-4],"split_indices":[9,0,0],"split_type":[0,0,0],"sum_hessian":[4.24E2,3.79E2,4.5E1],"tree_param":{"num_deleted":"0","num_feature":"97","num_nodes":"3","size_leaf_vector":"1"}},{"base_weights":[-0E0,-5.3409938E-5,2.4703523E-4],"categories":[],"categories_nodes":[],"categories_segments":[],"categories_sizes":[],"default_left":[0,0,0],"id":73,"left_children":[1,-1,-1],"loss_changes":[6.253515E-2,0E0,0E0],"parents":[2147483647,0,0],"right_children":[2,-1,-1],"split_conditions":[1.5203756E-1,-5.3409938E-5,2.4703523E-4],"split_indices":[92,0,0],"split_type":[0,0,0],"sum_hessian":[4.08E2,3.26E2,8.2E1],"tree_param":{"num_deleted":"0","num_feature":"97","num_nodes":"3","size_leaf_vector":"1"}},{"base_weights":[-0E0,-3.75172E-5,3.4318306E-4],"categories":[],"categories_nodes":[],"categories_segments":[],"categories_sizes":[],"default_left":[0,0,0],"id":74,"left_children":[1,-1,-1],"loss_changes":[6.437671E-2,0E0,0E0],"parents":[2147483647,0,0],"right_children":[2,-1,-1],"split_conditions":[2.9983246E-1,-3.75172E-5,3.4318306E-4],"split_indices":[9,0,0],"split_type":[0,0,0],"sum_hessian":[4.3E2,3.85E2,4.5E1],"tree_param":{"num_deleted":"0","num_feature":"97","num_nodes":"3","size_leaf_vector":"1"}},{"base_weights":[-0E0,-5.390257E-5,2.13383E-4],"categories":[],"categories_nodes":[],"categories_segments":[],"categories_sizes":[],"default_left":[0,0,0],"id":75,"left_children":[1,-1,-1],"loss_changes":[4.9317434E-2,0E0,0E0],"parents":[2147483647,0,0],"right_children":[2,-1,-1],"split_conditions":[2.078324E-1,-5.390257E-5,2.13383E-4],"split_indices":[4,0,0],"split_type":[0,0,0],"sum_hessian":[4.11E2,3.29E2,8.2E1],"tree_param":{"num_deleted":"0","num_feature":"97","num_nodes":"3","size_leaf_vector":"1"}},{"base_weights":[-0E0,-4.575238E-5,3.6663155E-4],"categories":[],"categories_nodes":[],"categories_segments":[],"categories_sizes":[],"default_left":[0,0,0],"id":76,"left_children":[1,-1,-1],"loss_changes":[7.161271E-2,0E0,0E0],"parents":[2147483647,0,0],"right_children":[2,-1,-1],"split_conditions":[2.9983246E-1,-4.575238E-5,3.6663155E-4],"split_indices":[9,0,0],"split_type":[0,0,0],"sum_hessian":[4.4E2,3.98E2,4.2E1],"tree_param":{"num_deleted":"0","num_feature":"97","num_nodes":"3","size_leaf_vector":"1"}},{"base_weights":[-0E0,-7.639825E-5,2.121551E-4],"categories":[],"categories_nodes":[],"categories_segments":[],"categories_sizes":[],"default_left":[0,0,0],"id":77,"left_children":[1,-1,-1],"loss_changes":[7.3314354E-2,0E0,0E0],"parents":[2147483647,0,0],"right_children":[2,-1,-1],"split_conditions":[9.061751E-2,-7.639825E-5,2.121551E-4],"split_indices":[0,0,0],"split_type":[0,0,0],"sum_hessian":[4.34E2,3.18E2,1.16E2],"tree_param":{"num_deleted":"0","num_feature":"97","num_nodes":"3","size_leaf_vector":"1"}},{"base_weights":[-0E0,-4.0155046E-5,3.33093E-4],"categories":[],"categories_nodes":[],"categories_segments":[],"categories_sizes":[],"default_left":[0,0,0],"id":78,"left_children":[1,-1,-1],"loss_changes":[5.9464302E-2,0E0,0E0],"parents":[2147483647,0,0],"right_children":[2,-1,-1],"split_conditions":[2.9983246E-1,-4.0155046E-5,3.33093E-4],"split_indices":[9,0,0],"split_type":[0,0,0],"sum_hessian":[4.23E2,3.8E2,4.3E1],"tree_param":{"num_deleted":"0","num_feature":"97","num_nodes":"3","size_leaf_vector":"1"}},{"base_weights":[-0E0,-5.530788E-5,2.2068061E-4],"categories":[],"categories_nodes":[],"categories_segments":[],"categories_sizes":[],"default_left":[0,0,0],"id":79,"left_children":[1,-1,-1],"loss_changes":[5.7578225E-2,0E0,0E0],"parents":[2147483647,0,0],"right_children":[2,-1,-1],"split_conditions":[2.078324E-1,-5.530788E-5,2.2068061E-4],"split_indices":[4,0,0],"split_type":[0,0,0],"sum_hessian":[4.25E2,3.33E2,9.2E1],"tree_param":{"num_deleted":"0","num_feature":"97","num_nodes":"3","size_leaf_vector":"1"}},{"base_weights":[-0E0,-2.0912936E-4,5.6847588E-5],"categories":[],"categories_nodes":[],"categories_segments":[],"categories_sizes":[],"default_left":[0,0,0],"id":80,"left_children":[1,-1,-1],"loss_changes":[5.324907E-2,0E0,0E0],"parents":[2147483647,0,0],"right_children":[2,-1,-1],"split_conditions":[-3.8476396E-2,-2.0912936E-4,5.6847588E-5],"split_indices":[92,0,0],"split_type":[0,0,0],"sum_hessian":[4.22E2,9.2E1,3.3E2],"tree_param":{"num_deleted":"0","num_feature":"97","num_nodes":"3","size_leaf_vector":"1"}},{"base_weights":[-0E0,-5.741389E-5,2.2878771E-4],"categories":[],"categories_nodes":[],"categories_segments":[],"categories_sizes":[],"default_left":[0,0,0],"id":81,"left_children":[1,-1,-1],"loss_changes":[5.4455195E-2,0E0,0E0],"parents":[2147483647,0,0],"right_children":[2,-1,-1],"split_conditions":[1.4693505E-1,-5.741389E-5,2.2878771E-4],"split_indices":[9,0,0],"split_type":[0,0,0],"sum_hessian":[4.07E2,3.29E2,7.8E1],"tree_param":{"num_deleted":"0","num_feature":"97","num_nodes":"3","size_leaf_vector":"1"}},{"base_weights":[-0E0,-3.78001E-5,3.4695253E-4],"categories":[],"categories_nodes":[],"categories_segments":[],"categories_sizes":[],"default_left":[0,0,0],"id":82,"left_children":[1,-1,-1],"loss_changes":[6.331015E-2,0E0,0E0],"parents":[2147483647,0,0],"right_children":[2,-1,-1],"split_conditions":[2.9983246E-1,-3.78001E-5,3.4695253E-4],"split_indices":[9,0,0],"split_type":[0,0,0],"sum_hessian":[4.25E2,3.82E2,4.3E1],"tree_param":{"num_deleted":"0","num_feature":"97","num_nodes":"3","size_leaf_vector":"1"}},{"base_weights":[-0E0,-1.4292843E-4,7.5567135E-5],"categories":[],"categories_nodes":[],"categories_segments":[],"categories_sizes":[],"default_left":[0,0,0],"id":83,"left_children":[1,-1,-1],"loss_changes":[4.7326E-2,0E0,0E0],"parents":[2147483647,0,0],"right_children":[2,-1,-1],"split_conditions":[1.949758E-2,-1.4292843E-4,7.5567135E-5],"split_indices":[4,0,0],"split_type":[0,0,0],"sum_hessian":[4.27E2,1.47E2,2.8E2],"tree_param":{"num_deleted":"0","num_feature":"97","num_nodes":"3","size_leaf_vector":"1"}},{"base_weights":[-0E0,-1.1872497E-4,1.0270186E-4],"categories":[],"categories_nodes":[],"categories_segments":[],"categories_sizes":[],"default_left":[0,0,0],"id":84,"left_children":[1,-1,-1],"loss_changes":[5.0829403E-2,0E0,0E0],"parents":[2147483647,0,0],"right_children":[2,-1,-1],"split_conditions":[-1.5566354E-3,-1.1872497E-4,1.0270186E-4],"split_indices":[11,0,0],"split_type":[0,0,0],"sum_hessian":[4.09E2,1.82E2,2.27E2],"tree_param":{"num_deleted":"0","num_feature":"97","num_nodes":"3","size_leaf_vector":"1"}},{"base_weights":[-0E0,-1.1926484E-4,9.604013E-5],"categories":[],"categories_nodes":[],"categories_segments":[],"categories_sizes":[],"default_left":[0,0,0],"id":85,"left_children":[1,-1,-1],"loss_changes":[4.8040308E-2,0E0,0E0],"parents":[2147483647,0,0],"right_children":[2,-1,-1],"split_conditions":[3.1319135E-4,-1.1926484E-4,9.604013E-5],"split_indices":[11,0,0],"split_type":[0,0,0],"sum_hessian":[4.1E2,1.81E2,2.29E2],"tree_param":{"num_deleted":"0","num_feature":"97","num_nodes":"3","size_leaf_vector":"1"}},{"base_weights":[-0E0,-1.340377E-4,1.0199427E-4],"categories":[],"categories_nodes":[],"categories_segments":[],"categories_sizes":[],"default_left":[0,0,0],"id":86,"left_children":[1,-1,-1],"loss_changes":[5.6549467E-2,0E0,0E0],"parents":[2147483647,0,0],"right_children":[2,-1,-1],"split_conditions":[1.1034763E-2,-1.340377E-4,1.0199427E-4],"split_indices":[0,0,0],"split_type":[0,0,0],"sum_hessian":[4.1E2,1.65E2,2.45E2],"tree_param":{"num_deleted":"0","num_feature":"97","num_nodes":"3","size_leaf_vector":"1"}},{"base_weights":[-0E0,-3.7452595E-5,3.395962E-4],"categories":[],"categories_nodes":[],"categories_segments":[],"categories_sizes":[],"default_left":[0,0,0],"id":87,"left_children":[1,-1,-1],"loss_changes":[6.9996744E-2,0E0,0E0],"parents":[2147483647,0,0],"right_children":[2,-1,-1],"split_conditions":[2.9983246E-1,-3.7452595E-5,3.395962E-4],"split_indices":[9,0,0],"split_type":[0,0,0],"sum_hessian":[4.32E2,3.81E2,5.1E1],"tree_param":{"num_deleted":"0","num_feature":"97","num_nodes":"3","size_leaf_vector":"1"}},{"base_weights":[-0E0,-3.357989E-5,3.9954248E-4],"categories":[],"categories_nodes":[],"categories_segments":[],"categories_sizes":[],"default_left":[0,0,0],"id":88,"left_children":[1,-1,-1],"loss_changes":[6.212534E-2,0E0,0E0],"parents":[2147483647,0,0],"right_children":[2,-1,-1],"split_conditions":[4.242731E-1,-3.357989E-5,3.9954248E-4],"split_indices":[9,0,0],"split_type":[0,0,0],"sum_hessian":[4.39E2,4.08E2,3.1E1],"tree_param":{"num_deleted":"0","num_feature":"97","num_nodes":"3","size_leaf_vector":"1"}},{"base_weights":[-0E0,-2.0937512E-4,6.17484E-5],"categories":[],"categories_nodes":[],"categories_segments":[],"categories_sizes":[],"default_left":[0,0,0],"id":89,"left_children":[1,-1,-1],"loss_changes":[5.729716E-2,0E0,0E0],"parents":[2147483647,0,0],"right_children":[2,-1,-1],"split_conditions":[-3.8476396E-2,-2.0937512E-4,6.17484E-5],"split_indices":[92,0,0],"split_type":[0,0,0],"sum_hessian":[4.22E2,9.7E1,3.25E2],"tree_param":{"num_deleted":"0","num_feature":"97","num_nodes":"3","size_leaf_vector":"1"}},{"base_weights":[-0E0,-1.3241281E-4,9.939059E-5],"categories":[],"categories_nodes":[],"categories_segments":[],"categories_sizes":[],"default_left":[0,0,0],"id":90,"left_children":[1,-1,-1],"loss_changes":[5.4512415E-2,0E0,0E0],"parents":[2147483647,0,0],"right_children":[2,-1,-1],"split_conditions":[1.7912881E-2,-1.3241281E-4,9.939059E-5],"split_indices":[12,0,0],"split_type":[0,0,0],"sum_hessian":[4.07E2,1.69E2,2.38E2],"tree_param":{"num_deleted":"0","num_feature":"97","num_nodes":"3","size_leaf_vector":"1"}},{"base_weights":[-4.777595E-4,-2.1674148E-4,4.5284993E-5],"categories":[],"categories_nodes":[],"categories_segments":[],"categories_sizes":[],"default_left":[0,0,0],"id":91,"left_children":[1,-1,-1],"loss_changes":[5.3525597E-2,0E0,0E0],"parents":[2147483647,0,0],"right_children":[2,-1,-1],"split_conditions":[-3.8476396E-2,-2.1674148E-4,4.5284993E-5],"split_indices":[92,0,0],"split_type":[0,0,0],"sum_hessian":[4.14E2,9.5E1,3.19E2],"tree_param":{"num_deleted":"0","num_feature":"97","num_nodes":"3","size_leaf_vector":"1"}},{"base_weights":[2.554567E-4,-3.0104098E-5,3.4005265E-4],"categories":[],"categories_nodes":[],"categories_segments":[],"categories_sizes":[],"default_left":[0,0,0],"id":92,"left_children":[1,-1,-1],"loss_changes":[6.483779E-2,0E0,0E0],"parents":[2147483647,0,0],"right_children":[2,-1,-1],"split_conditions":[2.9983246E-1,-3.0104098E-5,3.4005265E-4],"split_indices":[9,0,0],"split_type":[0,0,0],"sum_hessian":[4.38E2,3.9E2,4.8E1],"tree_param":{"num_deleted":"0","num_feature":"97","num_nodes":"3","size_leaf_vector":"1"}},{"base_weights":[-0E0,-1.2945855E-4,9.672677E-5],"categories":[],"categories_nodes":[],"categories_segments":[],"categories_sizes":[],"default_left":[0,0,0],"id":93,"left_children":[1,-1,-1],"loss_changes":[5.5003017E-2,0E0,0E0],"parents":[2147483647,0,0],"right_children":[2,-1,-1],"split_conditions":[1.2454974E-3,-1.2945855E-4,9.672677E-5],"split_indices":[11,0,0],"split_type":[0,0,0],"sum_hessian":[4.22E2,1.92E2,2.3E2],"tree_param":{"num_deleted":"0","num_feature":"97","num_nodes":"3","size_leaf_vector":"1"}},{"base_weights":[-0E0,-3.8076283E-5,3.292305E-4],"categories":[],"categories_nodes":[],"categories_segments":[],"categories_sizes":[],"default_left":[0,0,0],"id":94,"left_children":[1,-1,-1],"loss_changes":[5.98071E-2,0E0,0E0],"parents":[2147483647,0,0],"right_children":[2,-1,-1],"split_conditions":[2.9983246E-1,-3.8076283E-5,3.292305E-4],"split_indices":[9,0,0],"split_type":[0,0,0],"sum_hessian":[4.27E2,3.82E2,4.5E1],"tree_param":{"num_deleted":"0","num_feature":"97","num_nodes":"3","size_leaf_vector":"1"}},{"base_weights":[-0E0,-1.1807549E-4,9.768829E-5],"categories":[],"categories_nodes":[],"categories_segments":[],"categories_sizes":[],"default_left":[0,0,0],"id":95,"left_children":[1,-1,-1],"loss_changes":[5.098516E-2,0E0,0E0],"parents":[2147483647,0,0],"right_children":[2,-1,-1],"split_conditions":[-1.5566354E-3,-1.1807549E-4,9.768829E-5],"split_indices":[11,0,0],"split_type":[0,0,0],"sum_hessian":[4.33E2,1.93E2,2.4E2],"tree_param":{"num_deleted":"0","num_feature":"97","num_nodes":"3","size_leaf_vector":"1"}},{"base_weights":[-0E0,-3.628618E-5,2.2205386E-4],"categories":[],"categories_nodes":[],"categories_segments":[],"categories_sizes":[],"default_left":[0,0,0],"id":96,"left_children":[1,-1,-1],"loss_changes":[4.3173917E-2,0E0,0E0],"parents":[2147483647,0,0],"right_children":[2,-1,-1],"split_conditions":[1.6009428E-1,-3.628618E-5,2.2205386E-4],"split_indices":[0,0,0],"split_type":[0,0,0],"sum_hessian":[4.26E2,3.53E2,7.3E1],"tree_param":{"num_deleted":"0","num_feature":"97","num_nodes":"3","size_leaf_vector":"1"}},{"base_weights":[-0E0,-2.1575246E-4,6.170905E-5],"categories":[],"categories_nodes":[],"categories_segments":[],"categories_sizes":[],"default_left":[0,0,0],"id":97,"left_children":[1,-1,-1],"loss_changes":[6.4511046E-2,0E0,0E0],"parents":[2147483647,0,0],"right_children":[2,-1,-1],"split_conditions":[-3.4465954E-2,-2.1575246E-4,6.170905E-5],"split_indices":[0,0,0],"split_type":[0,0,0],"sum_hessian":[4.27E2,1.07E2,3.2E2],"tree_param":{"num_deleted":"0","num_feature":"97","num_nodes":"3","size_leaf_vector":"1"}},{"base_weights":[-0E0,-5.325545E-5,2.457906E-4],"categories":[],"categories_nodes":[],"categories_segments":[],"categories_sizes":[],"default_left":[0,0,0],"id":98,"left_children":[1,-1,-1],"loss_changes":[5.29332E-2,0E0,0E0],"parents":[2147483647,0,0],"right_children":[2,-1,-1],"split_conditions":[2.7305904E-1,-5.325545E-5,2.457906E-4],"split_indices":[4,0,0],"split_type":[0,0,0],"sum_hessian":[4.15E2,3.49E2,6.6E1],"tree_param":{"num_deleted":"0","num_feature":"97","num_nodes":"3","size_leaf_vector":"1"}},{"base_weights":[-0E0,-4.8845497E-5,2.153931E-4],"categories":[],"categories_nodes":[],"categories_segments":[],"categories_sizes":[],"default_left":[0,0,0],"id":99,"left_children":[1,-1,-1],"loss_changes":[4.7690213E-2,0E0,0E0],"parents":[2147483647,0,0],"right_children":[2,-1,-1],"split_conditions":[1.4693505E-1,-4.8845497E-5,2.153931E-4],"split_indices":[9,0,0],"split_type":[0,0,0],"sum_hessian":[4.21E2,3.41E2,8E1],"tree_param":{"num_deleted":"0","num_feature":"97","num_nodes":"3","size_leaf_vector":"1"}},{"base_weights":[-0E0,-3.3134824E-5,3.2947812E-4],"categories":[],"categories_nodes":[],"categories_segments":[],"categories_sizes":[],"default_left":[0,0,0],"id":100,"left_children":[1,-1,-1],"loss_changes":[5.9590455E-2,0E0,0E0],"parents":[2147483647,0,0],"right_children":[2,-1,-1],"split_conditions":[2.9983246E-1,-3.3134824E-5,3.2947812E-4],"split_indices":[9,0,0],"split_type":[0,0,0],"sum_hessian":[4.26E2,3.8E2,4.6E1],"tree_param":{"num_deleted":"0","num_feature":"97","num_nodes":"3","size_leaf_vector":"1"}},{"base_weights":[-0E0,-1.0177461E-4,8.7431465E-5],"categories":[],"categories_nodes":[],"categories_segments":[],"categories_sizes":[],"default_left":[0,0,0],"id":101,"left_children":[1,-1,-1],"loss_changes":[3.8238697E-2,0E0,0E0],"parents":[2147483647,0,0],"right_children":[2,-1,-1],"split_conditions":[7.135613E-4,-1.0177461E-4,8.7431465E-5],"split_indices":[11,0,0],"split_type":[0,0,0],"sum_hessian":[4.21E2,1.9E2,2.31E2],"tree_param":{"num_deleted":"0","num_feature":"97","num_nodes":"3","size_leaf_vector":"1"}},{"base_weights":[-0E0,-4.4029835E-5,2.1121107E-4],"categories":[],"categories_nodes":[],"categories_segments":[],"categories_sizes":[],"default_left":[0,0,0],"id":102,"left_children":[1,-1,-1],"loss_changes":[4.394729E-2,0E0,0E0],"parents":[2147483647,0,0],"right_children":[2,-1,-1],"split_conditions":[1.4693505E-1,-4.4029835E-5,2.1121107E-4],"split_indices":[9,0,0],"split_type":[0,0,0],"sum_hessian":[4.3E2,3.52E2,7.8E1],"tree_param":{"num_deleted":"0","num_feature":"97","num_nodes":"3","size_leaf_vector":"1"}},{"base_weights":[-0E0,-2.2584609E-5,4.1769835E-4],"categories":[],"categories_nodes":[],"categories_segments":[],"categories_sizes":[],"default_left":[0,0,0],"id":103,"left_children":[1,-1,-1],"loss_changes":[5.09128E-2,0E0,0E0],"parents":[2147483647,0,0],"right_children":[2,-1,-1],"split_conditions":[4.242731E-1,-2.2584609E-5,4.1769835E-4],"split_indices":[9,0,0],"split_type":[0,0,0],"sum_hessian":[4.22E2,3.99E2,2.3E1],"tree_param":{"num_deleted":"0","num_feature":"97","num_nodes":"3","size_leaf_vector":"1"}},{"base_weights":[-0E0,-3.0280818E-5,4.2281463E-4],"categories":[],"categories_nodes":[],"categories_segments":[],"categories_sizes":[],"default_left":[0,0,0],"id":104,"left_children":[1,-1,-1],"loss_changes":[5.7400238E-2,0E0,0E0],"parents":[2147483647,0,0],"right_children":[2,-1,-1],"split_conditions":[4.242731E-1,-3.0280818E-5,4.2281463E-4],"split_indices":[9,0,0],"split_type":[0,0,0],"sum_hessian":[4.31E2,4.06E2,2.5E1],"tree_param":{"num_deleted":"0","num_feature":"97","num_nodes":"3","size_leaf_vector":"1"}},{"base_weights":[-0E0,-1.7199435E-4,6.53317E-5],"categories":[],"categories_nodes":[],"categories_segments":[],"categories_sizes":[],"default_left":[0,0,0],"id":105,"left_children":[1,-1,-1],"loss_changes":[4.5817424E-2,0E0,0E0],"parents":[2147483647,0,0],"right_children":[2,-1,-1],"split_conditions":[-2.9604984E-2,-1.7199435E-4,6.53317E-5],"split_indices":[0,0,0],"split_type":[0,0,0],"sum_hessian":[4.17E2,1.04E2,3.13E2],"tree_param":{"num_deleted":"0","num_feature":"97","num_nodes":"3","size_leaf_vector":"1"}},{"base_weights":[-0E0,-3.5130382E-5,3.152165E-4],"categories":[],"categories_nodes":[],"categories_segments":[],"categories_sizes":[],"default_left":[0,0,0],"id":106,"left_children":[1,-1,-1],"loss_changes":[5.2444942E-2,0E0,0E0],"parents":[2147483647,0,0],"right_children":[2,-1,-1],"split_conditions":[2.9983246E-1,-3.5130382E-5,3.152165E-4],"split_indices":[9,0,0],"split_type":[0,0,0],"sum_hessian":[4.23E2,3.8E2,4.3E1],"tree_param":{"num_deleted":"0","num_feature":"97","num_nodes":"3","size_leaf_vector":"1"}},{"base_weights":[-0E0,-1.10932844E-4,7.442743E-5],"categories":[],"categories_nodes":[],"categories_segments":[],"categories_sizes":[],"default_left":[0,0,0],"id":107,"left_children":[1,-1,-1],"loss_changes":[3.7673004E-2,0E0,0E0],"parents":[2147483647,0,0],"right_children":[2,-1,-1],"split_conditions":[1.1220056E-3,-1.10932844E-4,7.442743E-5],"split_indices":[11,0,0],"split_type":[0,0,0],"sum_hessian":[4.27E2,1.94E2,2.33E2],"tree_param":{"num_deleted":"0","num_feature":"97","num_nodes":"3","size_leaf_vector":"1"}},{"base_weights":[-0E0,-5.020773E-5,2.1877709E-4],"categories":[],"categories_nodes":[],"categories_segments":[],"categories_sizes":[],"default_left":[0,0,0],"id":108,"left_children":[1,-1,-1],"loss_changes":[5.1194746E-2,0E0,0E0],"parents":[2147483647,0,0],"right_children":[2,-1,-1],"split_conditions":[2.5076425E-1,-5.020773E-5,2.1877709E-4],"split_indices":[4,0,0],"split_type":[0,0,0],"sum_hessian":[4.38E2,3.55E2,8.3E1],"tree_param":{"num_deleted":"0","num_feature":"97","num_nodes":"3","size_leaf_vector":"1"}},{"base_weights":[-0E0,-2.6219454E-5,3.8362603E-4],"categories":[],"categories_nodes":[],"categories_segments":[],"categories_sizes":[],"default_left":[0,0,0],"id":109,"left_children":[1,-1,-1],"loss_changes":[5.1425584E-2,0E0,0E0],"parents":[2147483647,0,0],"right_children":[2,-1,-1],"split_conditions":[4.242731E-1,-2.6219454E-5,3.8362603E-4],"split_indices":[9,0,0],"split_type":[0,0,0],"sum_hessian":[4.39E2,4.11E2,2.8E1],"tree_param":{"num_deleted":"0","num_feature":"97","num_nodes":"3","size_leaf_vector":"1"}},{"base_weights":[-0E0,-1.8879851E-4,5.4317494E-5],"categories":[],"categories_nodes":[],"categories_segments":[],"categories_sizes":[],"default_left":[0,0,0],"id":110,"left_children":[1,-1,-1],"loss_changes":[4.9120277E-2,0E0,0E0],"parents":[2147483647,0,0],"right_children":[2,-1,-1],"split_conditions":[-3.8476396E-2,-1.8879851E-4,5.4317494E-5],"split_indices":[92,0,0],"split_type":[0,0,0],"sum_hessian":[4.47E2,1.04E2,3.43E2],"tree_param":{"num_deleted":"0","num_feature":"97","num_nodes":"3","size_leaf_vector":"1"}},{"base_weights":[-0E0,-1.8489236E-4,4.7756716E-5],"categories":[],"categories_nodes":[],"categories_segments":[],"categories_sizes":[],"default_left":[0,0,0],"id":111,"left_children":[1,-1,-1],"loss_changes":[4.3967627E-2,0E0,0E0],"parents":[2147483647,0,0],"right_children":[2,-1,-1],"split_conditions":[-3.4465954E-2,-1.8489236E-4,4.7756716E-5],"split_indices":[0,0,0],"split_type":[0,0,0],"sum_hessian":[4.21E2,1.02E2,3.19E2],"tree_param":{"num_deleted":"0","num_feature":"97","num_nodes":"3","size_leaf_vector":"1"}},{"base_weights":[-0E0,-1.8157883E-4,5.7323876E-5],"categories":[],"categories_nodes":[],"categories_segments":[],"categories_sizes":[],"default_left":[0,0,0],"id":112,"left_children":[1,-1,-1],"loss_changes":[4.490468E-2,0E0,0E0],"parents":[2147483647,0,0],"right_children":[2,-1,-1],"split_conditions":[-3.8476396E-2,-1.8157883E-4,5.7323876E-5],"split_indices":[92,0,0],"split_type":[0,0,0],"sum_hessian":[4.08E2,1E2,3.08E2],"tree_param":{"num_deleted":"0","num_feature":"97","num_nodes":"3","size_leaf_vector":"1"}},{"base_weights":[-0E0,-1.0929651E-4,6.893663E-5],"categories":[],"categories_nodes":[],"categories_segments":[],"categories_sizes":[],"default_left":[0,0,0],"id":113,"left_children":[1,-1,-1],"loss_changes":[3.314274E-2,0E0,0E0],"parents":[2147483647,0,0],"right_children":[2,-1,-1],"split_conditions":[8.757722E-3,-1.0929651E-4,6.893663E-5],"split_indices":[0,0,0],"split_type":[0,0,0],"sum_hessian":[4.21E2,1.71E2,2.5E2],"tree_param":{"num_deleted":"0","num_feature":"97","num_nodes":"3","size_leaf_vector":"1"}},{"base_weights":[-0E0,-3.93812E-5,2.1037413E-4],"categories":[],"categories_nodes":[],"categories_segments":[],"categories_sizes":[],"default_left":[0,0,0],"id":114,"left_children":[1,-1,-1],"loss_changes":[4.0709827E-2,0E0,0E0],"parents":[2147483647,0,0],"right_children":[2,-1,-1],"split_conditions":[1.5203756E-1,-3.93812E-5,2.1037413E-4],"split_indices":[92,0,0],"split_type":[0,0,0],"sum_hessian":[4.12E2,3.37E2,7.5E1],"tree_param":{"num_deleted":"0","num_feature":"97","num_nodes":"3","size_leaf_vector":"1"}},{"base_weights":[-0E0,-1.8934933E-4,4.9392427E-5],"categories":[],"categories_nodes":[],"categories_segments":[],"categories_sizes":[],"default_left":[0,0,0],"id":115,"left_children":[1,-1,-1],"loss_changes":[4.5525778E-2,0E0,0E0],"parents":[2147483647,0,0],"right_children":[2,-1,-1],"split_conditions":[-3.8476396E-2,-1.8934933E-4,4.9392427E-5],"split_indices":[92,0,0],"split_type":[0,0,0],"sum_hessian":[4.18E2,1E2,3.18E2],"tree_param":{"num_deleted":"0","num_feature":"97","num_nodes":"3","size_leaf_vector":"1"}},{"base_weights":[-0E0,-1.8041188E-4,4.774461E-5],"categories":[],"categories_nodes":[],"categories_segments":[],"categories_sizes":[],"default_left":[0,0,0],"id":116,"left_children":[1,-1,-1],"loss_changes":[4.1167736E-2,0E0,0E0],"parents":[2147483647,0,0],"right_children":[2,-1,-1],"split_conditions":[-3.2027148E-2,-1.8041188E-4,4.774461E-5],"split_indices":[0,0,0],"split_type":[0,0,0],"sum_hessian":[4.15E2,9.9E1,3.16E2],"tree_param":{"num_deleted":"0","num_feature":"97","num_nodes":"3","size_leaf_vector":"1"}},{"base_weights":[-0E0,-2.8321572E-5,3.555056E-4],"categories":[],"categories_nodes":[],"categories_segments":[],"categories_sizes":[],"default_left":[0,0,0],"id":117,"left_children":[1,-1,-1],"loss_changes":[4.496337E-2,0E0,0E0],"parents":[2147483647,0,0],"right_children":[2,-1,-1],"split_conditions":[4.242731E-1,-2.8321572E-5,3.555056E-4],"split_indices":[9,0,0],"split_type":[0,0,0],"sum_hessian":[4.29E2,4.01E2,2.8E1],"tree_param":{"num_deleted":"0","num_feature":"97","num_nodes":"3","size_leaf_vector":"1"}},{"base_weights":[-0E0,-2.0347432E-5,3.9854614E-4],"categories":[],"categories_nodes":[],"categories_segments":[],"categories_sizes":[],"default_left":[0,0,0],"id":118,"left_children":[1,-1,-1],"loss_changes":[5.4077096E-2,0E0,0E0],"parents":[2147483647,0,0],"right_children":[2,-1,-1],"split_conditions":[4.242731E-1,-2.0347432E-5,3.9854614E-4],"split_indices":[9,0,0],"split_type":[0,0,0],"sum_hessian":[4.24E2,3.96E2,2.8E1],"tree_param":{"num_deleted":"0","num_feature":"97","num_nodes":"3","size_leaf_vector":"1"}},{"base_weights":[-0E0,-1.5595356E-4,6.16197E-5],"categories":[],"categories_nodes":[],"categories_segments":[],"categories_sizes":[],"default_left":[0,0,0],"id":119,"left_children":[1,-1,-1],"loss_changes":[3.6935735E-2,0E0,0E0],"parents":[2147483647,0,0],"right_children":[2,-1,-1],"split_conditions":[-3.8476396E-2,-1.5595356E-4,6.16197E-5],"split_indices":[92,0,0],"split_type":[0,0,0],"sum_hessian":[4.06E2,9.8E1,3.08E2],"tree_param":{"num_deleted":"0","num_feature":"97","num_nodes":"3","size_leaf_vector":"1"}},{"base_weights":[-0E0,-4.1074392E-5,2.4106061E-4],"categories":[],"categories_nodes":[],"categories_segments":[],"categories_sizes":[],"default_left":[0,0,0],"id":120,"left_children":[1,-1,-1],"loss_changes":[4.923447E-2,0E0,0E0],"parents":[2147483647,0,0],"right_children":[2,-1,-1],"split_conditions":[2.5911525E-1,-4.1074392E-5,2.4106061E-4],"split_indices":[4,0,0],"split_type":[0,0,0],"sum_hessian":[4E2,3.3E2,7E1],"tree_param":{"num_deleted":"0","num_feature":"97","num_nodes":"3","size_leaf_vector":"1"}},{"base_weights":[-0E0,-5.5843608E-5,1.7574934E-4],"categories":[],"categories_nodes":[],"categories_segments":[],"categories_sizes":[],"default_left":[0,0,0],"id":121,"left_children":[1,-1,-1],"loss_changes":[4.8560806E-2,0E0,0E0],"parents":[2147483647,0,0],"right_children":[2,-1,-1],"split_conditions":[9.577372E-2,-5.5843608E-5,1.7574934E-4],"split_indices":[92,0,0],"split_type":[0,0,0],"sum_hessian":[4.43E2,3.24E2,1.19E2],"tree_param":{"num_deleted":"0","num_feature":"97","num_nodes":"3","size_leaf_vector":"1"}},{"base_weights":[-0E0,-1.2960214E-4,6.5401946E-5],"categories":[],"categories_nodes":[],"categories_segments":[],"categories_sizes":[],"default_left":[0,0,0],"id":122,"left_children":[1,-1,-1],"loss_changes":[3.759645E-2,0E0,0E0],"parents":[2147483647,0,0],"right_children":[2,-1,-1],"split_conditions":[-3.9806217E-3,-1.2960214E-4,6.5401946E-5],"split_indices":[92,0,0],"split_type":[0,0,0],"sum_hessian":[4.27E2,1.46E2,2.81E2],"tree_param":{"num_deleted":"0","num_feature":"97","num_nodes":"3","size_leaf_vector":"1"}},{"base_weights":[-0E0,-2.938398E-5,2.997729E-4],"categories":[],"categories_nodes":[],"categories_segments":[],"categories_sizes":[],"default_left":[0,0,0],"id":123,"left_children":[1,-1,-1],"loss_changes":[4.723654E-2,0E0,0E0],"parents":[2147483647,0,0],"right_children":[2,-1,-1],"split_conditions":[2.9983246E-1,-2.938398E-5,2.997729E-4],"split_indices":[9,0,0],"split_type":[0,0,0],"sum_hessian":[4.1E2,3.66E2,4.4E1],"tree_param":{"num_deleted":"0","num_feature":"97","num_nodes":"3","size_leaf_vector":"1"}},{"base_weights":[-0E0,-3.0613253E-5,3.976931E-4],"categories":[],"categories_nodes":[],"categories_segments":[],"categories_sizes":[],"default_left":[0,0,0],"id":124,"left_children":[1,-1,-1],"loss_changes":[5.116851E-2,0E0,0E0],"parents":[2147483647,0,0],"right_children":[2,-1,-1],"split_conditions":[4.242731E-1,-3.0613253E-5,3.976931E-4],"split_indices":[9,0,0],"split_type":[0,0,0],"sum_hessian":[4.17E2,3.92E2,2.5E1],"tree_param":{"num_deleted":"0","num_feature":"97","num_nodes":"3","size_leaf_vector":"1"}},{"base_weights":[-0E0,-1.0060454E-4,8.745844E-5],"categories":[],"categories_nodes":[],"categories_segments":[],"categories_sizes":[],"default_left":[0,0,0],"id":125,"left_children":[1,-1,-1],"loss_changes":[3.7304413E-2,0E0,0E0],"parents":[2147483647,0,0],"right_children":[2,-1,-1],"split_conditions":[3.1319135E-4,-1.0060454E-4,8.745844E-5],"split_indices":[11,0,0],"split_type":[0,0,0],"sum_hessian":[4.15E2,1.89E2,2.26E2],"tree_param":{"num_deleted":"0","num_feature":"97","num_nodes":"3","size_leaf_vector":"1"}},{"base_weights":[-0E0,-1.8280646E-4,5.4788634E-5],"categories":[],"categories_nodes":[],"categories_segments":[],"categories_sizes":[],"default_left":[0,0,0],"id":126,"left_children":[1,-1,-1],"loss_changes":[4.2873852E-2,0E0,0E0],"parents":[2147483647,0,0],"right_children":[2,-1,-1],"split_conditions":[-3.8476396E-2,-1.8280646E-4,5.4788634E-5],"split_indices":[92,0,0],"split_type":[0,0,0],"sum_hessian":[4.05E2,9.5E1,3.1E2],"tree_param":{"num_deleted":"0","num_feature":"97","num_nodes":"3","size_leaf_vector":"1"}},{"base_weights":[-5.1600207E-4,-1.788087E-4,3.7162936E-5],"categories":[],"categories_nodes":[],"categories_segments":[],"categories_sizes":[],"default_left":[0,0,0],"id":127,"left_children":[1,-1,-1],"loss_changes":[4.041301E-2,0E0,0E0],"parents":[2147483647,0,0],"right_children":[2,-1,-1],"split_conditions":[-3.489998E-2,-1.788087E-4,3.7162936E-5],"split_indices":[92,0,0],"split_type":[0,0,0],"sum_hessian":[4.44E2,1.07E2,3.37E2],"tree_param":{"num_deleted":"0","num_feature":"97","num_nodes":"3","size_leaf_vector":"1"}},{"base_weights":[-0E0,-6.799899E-5,1.379468E-4],"categories":[],"categories_nodes":[],"categories_segments":[],"categories_sizes":[],"default_left":[0,0,0],"id":128,"left_children":[1,-1,-1],"loss_changes":[4.2746387E-2,0E0,0E0],"parents":[2147483647,0,0],"right_children":[2,-1,-1],"split_conditions":[5.323866E-2,-6.799899E-5,1.379468E-4],"split_indices":[92,0,0],"split_type":[0,0,0],"sum_hessian":[4.16E2,2.61E2,1.55E2],"tree_param":{"num_deleted":"0","num_feature":"97","num_nodes":"3","size_leaf_vector":"1"}},{"base_weights":[-0E0,-1.6696006E-4,6.1579594E-5],"categories":[],"categories_nodes":[],"categories_segments":[],"categories_sizes":[],"default_left":[0,0,0],"id":129,"left_children":[1,-1,-1],"loss_changes":[4.1136533E-2,0E0,0E0],"parents":[2147483647,0,0],"right_children":[2,-1,-1],"split_conditions":[-3.8476396E-2,-1.6696006E-4,6.1579594E-5],"split_indices":[92,0,0],"split_type":[0,0,0],"sum_hessian":[4.27E2,9.7E1,3.3E2],"tree_param":{"num_deleted":"0","num_feature":"97","num_nodes":"3","size_leaf_vector":"1"}},{"base_weights":[-0E0,-2.5829468E-5,3.6956675E-4],"categories":[],"categories_nodes":[],"categories_segments":[],"categories_sizes":[],"default_left":[0,0,0],"id":130,"left_children":[1,-1,-1],"loss_changes":[5.034474E-2,0E0,0E0],"parents":[2147483647,0,0],"right_children":[2,-1,-1],"split_conditions":[4.242731E-1,-2.5829468E-5,3.6956675E-4],"split_indices":[9,0,0],"split_type":[0,0,0],"sum_hessian":[4.06E2,3.76E2,3E1],"tree_param":{"num_deleted":"0","num_feature":"97","num_nodes":"3","size_leaf_vector":"1"}},{"base_weights":[-0E0,-3.1184813E-5,2.972329E-4],"categories":[],"categories_nodes":[],"categories_segments":[],"categories_sizes":[],"default_left":[0,0,0],"id":131,"left_children":[1,-1,-1],"loss_changes":[4.3480977E-2,0E0,0E0],"parents":[2147483647,0,0],"right_children":[2,-1,-1],"split_conditions":[2.9983246E-1,-3.1184813E-5,2.972329E-4],"split_indices":[9,0,0],"split_type":[0,0,0],"sum_hessian":[4.18E2,3.78E2,4E1],"tree_param":{"num_deleted":"0","num_feature":"97","num_nodes":"3","size_leaf_vector":"1"}},{"base_weights":[9.126614E-5,-1.4547977E-4,6.140524E-5],"categories":[],"categories_nodes":[],"categories_segments":[],"categories_sizes":[],"default_left":[0,0,0],"id":132,"left_children":[1,-1,-1],"loss_changes":[3.3702362E-2,0E0,0E0],"parents":[2147483647,0,0],"right_children":[2,-1,-1],"split_conditions":[-3.8476396E-2,-1.4547977E-4,6.140524E-5],"split_indices":[92,0,0],"split_type":[0,0,0],"sum_hessian":[4.18E2,9.6E1,3.22E2],"tree_param":{"num_deleted":"0","num_feature":"97","num_nodes":"3","size_leaf_vector":"1"}},{"base_weights":[-0E0,-3.1325508E-5,3.4239888E-4],"categories":[],"categories_nodes":[],"categories_segments":[],"categories_sizes":[],"default_left":[0,0,0],"id":133,"left_children":[1,-1,-1],"loss_changes":[4.1431177E-2,0E0,0E0],"parents":[2147483647,0,0],"right_children":[2,-1,-1],"split_conditions":[4.242731E-1,-3.1325508E-5,3.4239888E-4],"split_indices":[9,0,0],"split_type":[0,0,0],"sum_hessian":[4.21E2,3.94E2,2.7E1],"tree_param":{"num_deleted":"0","num_feature":"97","num_nodes":"3","size_leaf_vector":"1"}},{"base_weights":[-6.1077364E-5,-1.051892E-4,6.767304E-5],"categories":[],"categories_nodes":[],"categories_segments":[],"categories_sizes":[],"default_left":[0,0,0],"id":134,"left_children":[1,-1,-1],"loss_changes":[3.2081172E-2,0E0,0E0],"parents":[2147483647,0,0],"right_children":[2,-1,-1],"split_conditions":[3.1319135E-4,-1.051892E-4,6.767304E-5],"split_indices":[11,0,0],"split_type":[0,0,0],"sum_hessian":[4.13E2,1.91E2,2.22E2],"tree_param":{"num_deleted":"0","num_feature":"97","num_nodes":"3","size_leaf_vector":"1"}},{"base_weights":[-0E0,-1.037331E-4,8.313745E-5],"categories":[],"categories_nodes":[],"categories_segments":[],"categories_sizes":[],"default_left":[0,0,0],"id":135,"left_children":[1,-1,-1],"loss_changes":[3.7732504E-2,0E0,0E0],"parents":[2147483647,0,0],"right_children":[2,-1,-1],"split_conditions":[1.1220056E-3,-1.037331E-4,8.313745E-5],"split_indices":[11,0,0],"split_type":[0,0,0],"sum_hessian":[4.29E2,1.87E2,2.42E2],"tree_param":{"num_deleted":"0","num_feature":"97","num_nodes":"3","size_leaf_vector":"1"}},{"base_weights":[-1.6233035E-4,-1.2544708E-4,4.5422996E-5],"categories":[],"categories_nodes":[],"categories_segments":[],"categories_sizes":[],"default_left":[0,0,0],"id":136,"left_children":[1,-1,-1],"loss_changes":[2.7646169E-2,0E0,0E0],"parents":[2147483647,0,0],"right_children":[2,-1,-1],"split_conditions":[-3.9806217E-3,-1.2544708E-4,4.5422996E-5],"split_indices":[92,0,0],"split_type":[0,0,0],"sum_hessian":[3.96E2,1.36E2,2.6E2],"tree_param":{"num_deleted":"0","num_feature":"97","num_nodes":"3","size_leaf_vector":"1"}},{"base_weights":[-0E0,-2.2132459E-5,3.5127348E-4],"categories":[],"categories_nodes":[],"categories_segments":[],"categories_sizes":[],"default_left":[0,0,0],"id":137,"left_children":[1,-1,-1],"loss_changes":[4.1405976E-2,0E0,0E0],"parents":[2147483647,0,0],"right_children":[2,-1,-1],"split_conditions":[4.242731E-1,-2.2132459E-5,3.5127348E-4],"split_indices":[9,0,0],"split_type":[0,0,0],"sum_hessian":[4.14E2,3.87E2,2.7E1],"tree_param":{"num_deleted":"0","num_feature":"97","num_nodes":"3","size_leaf_vector":"1"}},{"base_weights":[-0E0,-3.8895007E-5,2.2290554E-4],"categories":[],"categories_nodes":[],"categories_segments":[],"categories_sizes":[],"default_left":[0,0,0],"id":138,"left_children":[1,-1,-1],"loss_changes":[4.2048037E-2,0E0,0E0],"parents":[2147483647,0,0],"right_children":[2,-1,-1],"split_conditions":[1.65075E-1,-3.8895007E-5,2.2290554E-4],"split_indices":[92,0,0],"split_type":[0,0,0],"sum_hessian":[4.13E2,3.44E2,6.9E1],"tree_param":{"num_deleted":"0","num_feature":"97","num_nodes":"3","size_leaf_vector":"1"}},{"base_weights":[-0E0,-3.5900855E-5,2.168304E-4],"categories":[],"categories_nodes":[],"categories_segments":[],"categories_sizes":[],"default_left":[0,0,0],"id":139,"left_children":[1,-1,-1],"loss_changes":[3.932824E-2,0E0,0E0],"parents":[2147483647,0,0],"right_children":[2,-1,-1],"split_conditions":[1.6009428E-1,-3.5900855E-5,2.168304E-4],"split_indices":[0,0,0],"split_type":[0,0,0],"sum_hessian":[4.16E2,3.47E2,6.9E1],"tree_param":{"num_deleted":"0","num_feature":"97","num_nodes":"3","size_leaf_vector":"1"}},{"base_weights":[-0E0,-3.1915246E-5,3.2678267E-4],"categories":[],"categories_nodes":[],"categories_segments":[],"categories_sizes":[],"default_left":[0,0,0],"id":140,"left_children":[1,-1,-1],"loss_changes":[4.041245E-2,0E0,0E0],"parents":[2147483647,0,0],"right_children":[2,-1,-1],"split_conditions":[4.242731E-1,-3.1915246E-5,3.2678267E-4],"split_indices":[9,0,0],"split_type":[0,0,0],"sum_hessian":[4.27E2,3.98E2,2.9E1],"tree_param":{"num_deleted":"0","num_feature":"97","num_nodes":"3","size_leaf_vector":"1"}},{"base_weights":[-0E0,-3.84975E-5,1.9829655E-4],"categories":[],"categories_nodes":[],"categories_segments":[],"categories_sizes":[],"default_left":[0,0,0],"id":141,"left_children":[1,-1,-1],"loss_changes":[3.7312284E-2,0E0,0E0],"parents":[2147483647,0,0],"right_children":[2,-1,-1],"split_conditions":[1.4693505E-1,-3.84975E-5,1.9829655E-4],"split_indices":[9,0,0],"split_type":[0,0,0],"sum_hessian":[4.14E2,3.37E2,7.7E1],"tree_param":{"num_deleted":"0","num_feature":"97","num_nodes":"3","size_leaf_vector":"1"}},{"base_weights":[-0E0,-3.2400247E-5,2.9185682E-4],"categories":[],"categories_nodes":[],"categories_segments":[],"categories_sizes":[],"default_left":[0,0,0],"id":142,"left_children":[1,-1,-1],"loss_changes":[4.746265E-2,0E0,0E0],"parents":[2147483647,0,0],"right_children":[2,-1,-1],"split_conditions":[2.9983246E-1,-3.2400247E-5,2.9185682E-4],"split_indices":[9,0,0],"split_type":[0,0,0],"sum_hessian":[4.24E2,3.78E2,4.6E1],"tree_param":{"num_deleted":"0","num_feature":"97","num_nodes":"3","size_leaf_vector":"1"}},{"base_weights":[-0E0,-1.0356305E-4,8.6299195E-5],"categories":[],"categories_nodes":[],"categories_segments":[],"categories_sizes":[],"default_left":[0,0,0],"id":143,"left_children":[1,-1,-1],"loss_changes":[3.8412977E-2,0E0,0E0],"parents":[2147483647,0,0],"right_children":[2,-1,-1],"split_conditions":[1.1034763E-2,-1.0356305E-4,8.6299195E-5],"split_indices":[0,0,0],"split_type":[0,0,0],"sum_hessian":[4.27E2,1.74E2,2.53E2],"tree_param":{"num_deleted":"0","num_feature":"97","num_nodes":"3","size_leaf_vector":"1"}},{"base_weights":[-0E0,-1.5645391E-4,5.220616E-5],"categories":[],"categories_nodes":[],"categories_segments":[],"categories_sizes":[],"default_left":[0,0,0],"id":144,"left_children":[1,-1,-1],"loss_changes":[3.5973698E-2,0E0,0E0],"parents":[2147483647,0,0],"right_children":[2,-1,-1],"split_conditions":[-3.8476396E-2,-1.5645391E-4,5.220616E-5],"split_indices":[92,0,0],"split_type":[0,0,0],"sum_hessian":[4.24E2,1.06E2,3.18E2],"tree_param":{"num_deleted":"0","num_feature":"97","num_nodes":"3","size_leaf_vector":"1"}},{"base_weights":[-0E0,-1.1540026E-4,5.791216E-5],"categories":[],"categories_nodes":[],"categories_segments":[],"categories_sizes":[],"default_left":[0,0,0],"id":145,"left_children":[1,-1,-1],"loss_changes":[3.006494E-2,0E0,0E0],"parents":[2147483647,0,0],"right_children":[2,-1,-1],"split_conditions":[-2.3381128E-3,-1.1540026E-4,5.791216E-5],"split_indices":[92,0,0],"split_type":[0,0,0],"sum_hessian":[4.23E2,1.51E2,2.72E2],"tree_param":{"num_deleted":"0","num_feature":"97","num_nodes":"3","size_leaf_vector":"1"}},{"base_weights":[-0E0,-1.6501827E-4,4.4539855E-5],"categories":[],"categories_nodes":[],"categories_segments":[],"categories_sizes":[],"default_left":[0,0,0],"id":146,"left_children":[1,-1,-1],"loss_changes":[3.494616E-2,0E0,0E0],"parents":[2147483647,0,0],"right_children":[2,-1,-1],"split_conditions":[-3.8476396E-2,-1.6501827E-4,4.4539855E-5],"split_indices":[92,0,0],"split_type":[0,0,0],"sum_hessian":[4.28E2,9.9E1,3.29E2],"tree_param":{"num_deleted":"0","num_feature":"97","num_nodes":"3","size_leaf_vector":"1"}},{"base_weights":[4.327764E-4,-3.2395936E-5,1.8058738E-4],"categories":[],"categories_nodes":[],"categories_segments":[],"categories_sizes":[],"default_left":[0,0,0],"id":147,"left_children":[1,-1,-1],"loss_changes":[3.5017747E-2,0E0,0E0],"parents":[2147483647,0,0],"right_children":[2,-1,-1],"split_conditions":[2.078324E-1,-3.2395936E-5,1.8058738E-4],"split_indices":[4,0,0],"split_type":[0,0,0],"sum_hessian":[4.17E2,3.25E2,9.2E1],"tree_param":{"num_deleted":"0","num_feature":"97","num_nodes":"3","size_leaf_vector":"1"}},{"base_weights":[-0E0,-1.565912E-4,5.2577954E-5],"categories":[],"categories_nodes":[],"categories_segments":[],"categories_sizes":[],"default_left":[0,0,0],"id":148,"left_children":[1,-1,-1],"loss_changes":[3.6423683E-2,0E0,0E0],"parents":[2147483647,0,0],"right_children":[2,-1,-1],"split_conditions":[-3.8476396E-2,-1.565912E-4,5.2577954E-5],"split_indices":[92,0,0],"split_type":[0,0,0],"sum_hessian":[4.34E2,1.06E2,3.28E2],"tree_param":{"num_deleted":"0","num_feature":"97","num_nodes":"3","size_leaf_vector":"1"}},{"base_weights":[-0E0,-1.2330372E-4,7.479421E-5],"categories":[],"categories_nodes":[],"categories_segments":[],"categories_sizes":[],"default_left":[0,0,0],"id":149,"left_children":[1,-1,-1],"loss_changes":[3.9622553E-2,0E0,0E0],"parents":[2147483647,0,0],"right_children":[2,-1,-1],"split_conditions":[3.0545125E-5,-1.2330372E-4,7.479421E-5],"split_indices":[92,0,0],"split_type":[0,0,0],"sum_hessian":[4.2E2,1.57E2,2.63E2],"tree_param":{"num_deleted":"0","num_feature":"97","num_nodes":"3","size_leaf_vector":"1"}},{"base_weights":[-0E0,-1.5686372E-4,4.3320633E-5],"categories":[],"categories_nodes":[],"categories_segments":[],"categories_sizes":[],"default_left":[0,0,0],"id":150,"left_children":[1,-1,-1],"loss_changes":[3.3505946E-2,0E0,0E0],"parents":[2147483647,0,0],"right_children":[2,-1,-1],"split_conditions":[-3.489998E-2,-1.5686372E-4,4.3320633E-5],"split_indices":[92,0,0],"split_type":[0,0,0],"sum_hessian":[4.31E2,1.06E2,3.25E2],"tree_param":{"num_deleted":"0","num_feature":"97","num_nodes":"3","size_leaf_vector":"1"}},{"base_weights":[-0E0,-3.6725793E-5,1.9664005E-4],"categories":[],"categories_nodes":[],"categories_segments":[],"categories_sizes":[],"default_left":[0,0,0],"id":151,"left_children":[1,-1,-1],"loss_changes":[3.7763298E-2,0E0,0E0],"parents":[2147483647,0,0],"right_children":[2,-1,-1],"split_conditions":[1.5203756E-1,-3.6725793E-5,1.9664005E-4],"split_indices":[92,0,0],"split_type":[0,0,0],"sum_hessian":[4.38E2,3.58E2,8E1],"tree_param":{"num_deleted":"0","num_feature":"97","num_nodes":"3","size_leaf_vector":"1"}},{"base_weights":[-0E0,-8.0514445E-5,8.96388E-5],"categories":[],"categories_nodes":[],"categories_segments":[],"categories_sizes":[],"default_left":[0,0,0],"id":152,"left_children":[1,-1,-1],"loss_changes":[3.135086E-2,0E0,0E0],"parents":[2147483647,0,0],"right_children":[2,-1,-1],"split_conditions":[2.0143947E-2,-8.0514445E-5,8.96388E-5],"split_indices":[23,0,0],"split_type":[0,0,0],"sum_hessian":[4.25E2,2.27E2,1.98E2],"tree_param":{"num_deleted":"0","num_feature":"97","num_nodes":"3","size_leaf_vector":"1"}},{"base_weights":[-0E0,-9.872766E-5,7.708431E-5],"categories":[],"categories_nodes":[],"categories_segments":[],"categories_sizes":[],"default_left":[0,0,0],"id":153,"left_children":[1,-1,-1],"loss_changes":[3.2452527E-2,0E0,0E0],"parents":[2147483647,0,0],"right_children":[2,-1,-1],"split_conditions":[1.1220056E-3,-9.872766E-5,7.708431E-5],"split_indices":[11,0,0],"split_type":[0,0,0],"sum_hessian":[4.1E2,1.92E2,2.18E2],"tree_param":{"num_deleted":"0","num_feature":"97","num_nodes":"3","size_leaf_vector":"1"}},{"base_weights":[-0E0,-2.3255117E-5,2.0115272E-4],