{"learner":{"attributes":{"best_iteration":"2998","best_score":"0.05520178673255102","scikit_learn":"{\"_estimator_type\": \"regressor\"}"},"feature_names":[],"feature_types":[],"gradient_booster":{"model":{"cats":{"enc":[],"feature_segments":[],"sorted_idx":[]},"gbtree_model_param":{"num_parallel_tree":"1","num_trees":"3000"},"iteration_indptr":[0,1,2,3,4,5,6,7,8,9,10,11,12,13,14,15,16,17,18,19,20,21,22,23,24,25,26,27,28,29,30,31,32,33,34,35,36,37,38,39,40,41,42,43,44,45,46,47,48,49,50,51,52,53,54,55,56,57,58,59,60,61,62,63,64,65,66,67,68,69,70,71,72,73,74,75,76,77,78,79,80,81,82,83,84,85,86,87,88,89,90,91,92,93,94,95,96,97,98,99,100,101,102,103,104,105,106,107,108,109,110,111,112,113,114,115,116,117,118,119,120,121,122,123,124,125,126,127,128,129,130,131,132,133,134,135,136,137,138,139,140,141,142,143,144,145,146,147,148,149,150,151,152,153,154,155,156,157,158,159,160,161,162,163,164,165,166,167,168,169,170,171,172,173,174,175,176,177,178,179,180,181,182,183,184,185,186,187,188,189,190,191,192,193,194,195,196,197,198,199,200,201,202,203,204,205,206,207,208,209,210,211,212,213,214,215,216,217,218,219,220,221,222,223,224,225,226,227,228,229,230,231,232,233,234,235,236,237,238,239,240,241,242,243,244,245,246,247,248,249,250,251,252,253,254,255,256,257,258,259,260,261,262,263,264,265,266,267,268,269,270,271,272,273,274,275,276,277,278,279,280,281,282,283,284,285,286,287,288,289,290,291,292,293,294,295,296,297,298,299,300,301,302,303,304,305,306,307,308,309,310,311,312,313,314,315,316,317,318,319,320,321,322,323,324,325,326,327,328,329,330,331,332,333,334,335,336,337,338,339,340,341,342,343,344,345,346,347,348,349,350,351,352,353,354,355,356,357,358,359,360,361,362,363,364,365,366,367,368,369,370,371,372,373,374,375,376,377,378,379,380,381,382,383,384,385,386,387,388,389,390,391,392,393,394,395,396,397,398,399,400,401,402,403,404,405,406,407,408,409,410,411,412,413,414,415,416,417,418,419,420,421,422,423,424,425,426,427,428,429,430,431,432,433,434,435,436,437,438,439,440,441,442,443,444,445,446,447,448,449,450,451,452,453,454,455,456,457,458,459,460,461,462,463,464,465,466,467,468,469,470,471,472,473,474,475,476,477,478,479,480,481,482,483,484,485,486,487,488,489,490,491,492,493,494,495,496,497,498,499,500,501,502,503,504,505,506,507,508,509,510,511,512,513,514,515,516,517,518,519,520,521,522,523,524,525,526,527,528,529,530,531,532,533,534,535,536,537,538,539,540,541,542,543,544,545,546,547,548,549,550,551,552,553,554,555,556,557,558,559,560,561,562,563,564,565,566,567,568,569,570,571,572,573,574,575,576,577,578,579,580,581,582,583,584,585,586,587,588,589,590,591,592,593,594,595,596,597,598,599,600,601,602,603,604,605,606,607,608,609,610,611,612,613,614,615,616,617,618,619,620,621,622,623,624,625,626,627,628,629,630,631,632,633,634,635,636,637,638,639,640,641,642,643,644,645,646,647,648,649,650,651,652,653,654,655,656,657,658,659,660,661,662,663,664,665,666,667,668,669,670,671,672,673,674,675,676,677,678,679,680,681,682,683,684,685,686,687,688,689,690,691,692,693,694,695,696,697,698,699,700,701,702,703,704,705,706,707,708,709,710,711,712,713,714,715,716,717,718,719,720,721,722,723,724,725,726,727,728,729,730,731,732,733,734,735,736,737,738,739,740,741,742,743,744,745,746,747,748,749,750,751,752,753,754,755,756,757,758,759,760,761,762,763,764,765,766,767,768,769,770,771,772,773,774,775,776,777,778,779,780,781,782,783,784,785,786,787,788,789,790,791,792,793,794,795,796,797,798,799,800,801,802,803,804,805,806,807,808,809,810,811,812,813,814,815,816,817,818,819,820,821,822,823,824,825,826,827,828,829,830,831,832,833,834,835,836,837,838,839,840,841,842,843,844,845,846,847,848,849,850,851,852,853,854,855,856,857,858,859,860,861,862,863,864,865,866,867,868,869,870,871,872,873,874,875,876,877,878,879,880,881,882,883,884,885,886,887,888,889,890,891,892,893,894,895,896,897,898,899,900,901,902,903,904,905,906,907,908,909,910,911,912,913,914,915,916,917,918,919,920,921,922,923,924,925,926,927,928,929,930,931,932,933,934,935,936,937,938,939,940,941,942,943,944,945,946,947,948,949,950,951,952,953,954,955,956,957,958,959,960,961,962,963,964,965,966,967,968,969,970,971,972,973,974,975,976,977,978,979,980,981,982,983,984,985,986,987,988,989,990,991,992,993,994,995,996,997,998,999,1000,1001,1002,1003,1004,1005,1006,1007,1008,1009,1010,1011,1012,1013,1014,1015,1016,1017,1018,1019,1020,1021,1022,1023,1024,1025,1026,1027,1028,1029,1030,1031,1032,1033,1034,1035,1036,1037,1038,1039,1040,1041,1042,1043,1044,1045,1046,1047,1048,1049,1050,1051,1052,1053,1054,1055,1056,1057,1058,1059,1060,1061,1062,1063,1064,1065,1066,1067,1068,1069,1070,1071,1072,1073,1074,1075,1076,1077,1078,1079,1080,1081,1082,1083,1084,1085,1086,1087,1088,1089,1090,1091,1092,1093,1094,1095,1096,1097,1098,1099,1100,1101,1102,1103,1104,1105,1106,1107,1108,1109,1110,1111,1112,1113,1114,1115,1116,1117,1118,1119,1120,1121,1122,1123,1124,1125,1126,1127,1128,1129,1130,1131,1132,1133,1134,1135,1136,1137,1138,1139,1140,1141,1142,1143,1144,1145,1146,1147,1148,1149,1150,1151,1152,1153,1154,1155,1156,1157,1158,1159,1160,1161,1162,1163,1164,1165,1166,1167,1168,1169,1170,1171,1172,1173,1174,1175,1176,1177,1178,1179,1180,1181,1182,1183,1184,1185,1186,1187,1188,1189,1190,1191,1192,1193,1194,1195,1196,1197,1198,1199,1200,1201,1202,1203,1204,1205,1206,1207,1208,1209,1210,1211,1212,1213,1214,1215,1216,1217,1218,1219,1220,1221,1222,1223,1224,1225,1226,1227,1228,1229,1230,1231,1232,1233,1234,1235,1236,1237,1238,1239,1240,1241,1242,1243,1244,1245,1246,1247,1248,1249,1250,1251,1252,1253,1254,1255,1256,1257,1258,1259,1260,1261,1262,1263,1264,1265,1266,1267,1268,1269,1270,1271,1272,1273,1274,1275,1276,1277,1278,1279,1280,1281,1282,1283,1284,1285,1286,1287,1288,1289,1290,1291,1292,1293,1294,1295,1296,1297,1298,1299,1300,1301,1302,1303,1304,1305,1306,1307,1308,1309,1310,1311,1312,1313,1314,1315,1316,1317,1318,1319,1320,1321,1322,1323,1324,1325,1326,1327,1328,1329,1330,1331,1332,1333,1334,1335,1336,1337,1338,1339,1340,1341,1342,1343,1344,1345,1346,1347,1348,1349,1350,1351,1352,1353,1354,1355,1356,1357,1358,1359,1360,1361,1362,1363,1364,1365,1366,1367,1368,1369,1370,1371,1372,1373,1374,1375,1376,1377,1378,1379,1380,1381,1382,1383,1384,1385,1386,1387,1388,1389,1390,1391,1392,1393,1394,1395,1396,1397,1398,1399,1400,1401,1402,1403,1404,1405,1406,1407,1408,1409,1410,1411,1412,1413,1414,1415,1416,1417,1418,1419,1420,1421,1422,1423,1424,1425,1426,1427,1428,1429,1430,1431,1432,1433,1434,1435,1436,1437,1438,1439,1440,1441,1442,1443,1444,1445,1446,1447,1448,1449,1450,1451,1452,1453,1454,1455,1456,1457,1458,1459,1460,1461,1462,1463,1464,1465,1466,1467,1468,1469,1470,1471,1472,1473,1474,1475,1476,1477,1478,1479,1480,1481,1482,1483,1484,1485,1486,1487,1488,1489,1490,1491,1492,1493,1494,1495,1496,1497,1498,1499,1500,1501,1502,1503,1504,1505,1506,1507,1508,1509,1510,1511,1512,1513,1514,1515,1516,1517,1518,1519,1520,1521,1522,1523,1524,1525,1526,1527,1528,1529,1530,1531,1532,1533,1534,1535,1536,1537,1538,1539,1540,1541,1542,1543,1544,1545,1546,1547,1548,1549,1550,1551,1552,1553,1554,1555,1556,1557,1558,1559,1560,1561,1562,1563,1564,1565,1566,1567,1568,1569,1570,1571,1572,1573,1574,1575,1576,1577,1578,1579,1580,1581,1582,1583,1584,1585,1586,1587,1588,1589,1590,1591,1592,1593,1594,1595,1596,1597,1598,1599,1600,1601,1602,1603,1604,1605,1606,1607,1608,1609,1610,1611,1612,1613,1614,1615,1616,1617,1618,1619,1620,1621,1622,1623,1624,1625,1626,1627,1628,1629,1630,1631,1632,1633,1634,1635,1636,1637,1638,1639,1640,1641,1642,1643,1644,1645,1646,1647,1648,1649,1650,1651,1652,1653,1654,1655,1656,1657,1658,1659,1660,1661,1662,1663,1664,1665,1666,1667,1668,1669,1670,1671,1672,1673,1674,1675,1676,1677,1678,1679,1680,1681,1682,1683,1684,1685,1686,1687,1688,1689,1690,1691,1692,1693,1694,1695,1696,1697,1698,1699,1700,1701,1702,1703,1704,1705,1706,1707,1708,1709,1710,1711,1712,1713,1714,1715,1716,1717,1718,1719,1720,1721,1722,1723,1724,1725,1726,1727,1728,1729,1730,1731,1732,1733,1734,1735,1736,1737,1738,1739,1740,1741,1742,1743,1744,1745,1746,1747,1748,1749,1750,1751,1752,1753,1754,1755,1756,1757,1758,1759,1760,1761,1762,1763,1764,1765,1766,1767,1768,1769,1770,1771,1772,1773,1774,1775,1776,1777,1778,1779,1780,1781,1782,1783,1784,1785,1786,1787,1788,1789,1790,1791,1792,1793,1794,1795,1796,1797,1798,1799,1800,1801,1802,1803,1804,1805,1806,1807,1808,1809,1810,1811,1812,1813,1814,1815,1816,1817,1818,1819,1820,1821,1822,1823,1824,1825,1826,1827,1828,1829,1830,1831,1832,1833,1834,1835,1836,1837,1838,1839,1840,1841,1842,1843,1844,1845,1846,1847,1848,1849,1850,1851,1852,1853,1854,1855,1856,1857,1858,1859,1860,1861,1862,1863,1864,1865,1866,1867,1868,1869,1870,1871,1872,1873,1874,1875,1876,1877,1878,1879,1880,1881,1882,1883,1884,1885,1886,1887,1888,1889,1890,1891,1892,1893,1894,1895,1896,1897,1898,1899,1900,1901,1902,1903,1904,1905,1906,1907,1908,1909,1910,1911,1912,1913,1914,1915,1916,1917,1918,1919,1920,1921,1922,1923,1924,1925,1926,1927,1928,1929,1930,1931,1932,1933,1934,1935,1936,1937,1938,1939,1940,1941,1942,1943,1944,1945,1946,1947,1948,1949,1950,1951,1952,1953,1954,1955,1956,1957,1958,1959,1960,1961,1962,1963,1964,1965,1966,1967,1968,1969,1970,1971,1972,1973,1974,1975,1976,1977,1978,1979,1980,1981,1982,1983,1984,1985,1986,1987,1988,1989,1990,1991,1992,1993,1994,1995,1996,1997,1998,1999,2000,2001,2002,2003,2004,2005,2006,2007,2008,2009,2010,2011,2012,2013,2014,2015,2016,2017,2018,2019,2020,2021,2022,2023,2024,2025,2026,2027,2028,2029,2030,2031,2032,2033,2034,2035,2036,2037,2038,2039,2040,2041,2042,2043,2044,2045,2046,2047,2048,2049,2050,2051,2052,2053,2054,2055,2056,2057,2058,2059,2060,2061,2062,2063,2064,2065,2066,2067,2068,2069,2070,2071,2072,2073,2074,2075,2076,2077,2078,2079,2080,2081,2082,2083,2084,2085,2086,2087,2088,2089,2090,2091,2092,2093,2094,2095,2096,2097,2098,2099,2100,2101,2102,2103,2104,2105,2106,2107,2108,2109,2110,2111,2112,2113,2114,2115,2116,2117,2118,2119,2120,2121,2122,2123,2124,2125,2126,2127,2128,2129,2130,2131,2132,2133,2134,2135,2136,2137,2138,2139,2140,2141,2142,2143,2144,2145,2146,2147,2148,2149,2150,2151,2152,2153,2154,2155,2156,2157,2158,2159,2160,2161,2162,2163,2164,2165,2166,2167,2168,2169,2170,2171,2172,2173,2174,2175,2176,2177,2178,2179,2180,2181,2182,2183,2184,2185,2186,2187,2188,2189,2190,2191,2192,2193,2194,2195,2196,2197,2198,2199,2200,2201,2202,2203,2204,2205,2206,2207,2208,2209,2210,2211,2212,2213,2214,2215,2216,2217,2218,2219,2220,2221,2222,2223,2224,2225,2226,2227,2228,2229,2230,2231,2232,2233,2234,2235,2236,2237,2238,2239,2240,2241,2242,2243,2244,2245,2246,2247,2248,2249,2250,2251,2252,2253,2254,2255,2256,2257,2258,2259,2260,2261,2262,2263,2264,2265,2266,2267,2268,2269,2270,2271,2272,2273,2274,2275,2276,2277,2278,2279,2280,2281,2282,2283,2284,2285,2286,2287,2288,2289,2290,2291,2292,2293,2294,2295,2296,2297,2298,2299,2300,2301,2302,2303,2304,2305,2306,2307,2308,2309,2310,2311,2312,2313,2314,2315,2316,2317,2318,2319,2320,2321,2322,2323,2324,2325,2326,2327,2328,2329,2330,2331,2332,2333,2334,2335,2336,2337,2338,2339,2340,2341,2342,2343,2344,2345,2346,2347,2348,2349,2350,2351,2352,2353,2354,2355,2356,2357,2358,2359,2360,2361,2362,2363,2364,2365,2366,2367,2368,2369,2370,2371,2372,2373,2374,2375,2376,2377,2378,2379,2380,2381,2382,2383,2384,2385,2386,2387,2388,2389,2390,2391,2392,2393,2394,2395,2396,2397,2398,2399,2400,2401,2402,2403,2404,2405,2406,2407,2408,2409,2410,2411,2412,2413,2414,2415,2416,2417,2418,2419,2420,2421,2422,2423,2424,2425,2426,2427,2428,2429,2430,2431,2432,2433,2434,2435,2436,2437,2438,2439,2440,2441,2442,2443,2444,2445,2446,2447,2448,2449,2450,2451,2452,2453,2454,2455,2456,2457,2458,2459,2460,2461,2462,2463,2464,2465,2466,2467,2468,2469,2470,2471,2472,2473,2474,2475,2476,2477,2478,2479,2480,2481,2482,2483,2484,2485,2486,2487,2488,2489,2490,2491,2492,2493,2494,2495,2496,2497,2498,2499,2500,2501,2502,2503,2504,2505,2506,2507,2508,2509,2510,2511,2512,2513,2514,2515,2516,2517,2518,2519,2520,2521,2522,2523,2524,2525,2526,2527,2528,2529,2530,2531,2532,2533,2534,2535,2536,2537,2538,2539,2540,2541,2542,2543,2544,2545,2546,2547,2548,2549,2550,2551,2552,2553,2554,2555,2556,2557,2558,2559,2560,2561,2562,2563,2564,2565,2566,2567,2568,2569,2570,2571,2572,2573,2574,2575,2576,2577,2578,2579,2580,2581,2582,2583,2584,2585,2586,2587,2588,2589,2590,2591,2592,2593,2594,2595,2596,2597,2598,2599,2600,2601,2602,2603,2604,2605,2606,2607,2608,2609,2610,2611,2612,2613,2614,2615,2616,2617,2618,2619,2620,2621,2622,2623,2624,2625,2626,2627,2628,2629,2630,2631,2632,2633,2634,2635,2636,2637,2638,2639,2640,2641,2642,2643,2644,2645,2646,2647,2648,2649,2650,2651,2652,2653,2654,2655,2656,2657,2658,2659,2660,2661,2662,2663,2664,2665,2666,2667,2668,2669,2670,2671,2672,2673,2674,2675,2676,2677,2678,2679,2680,2681,2682,2683,2684,2685,2686,2687,2688,2689,2690,2691,2692,2693,2694,2695,2696,2697,2698,2699,2700,2701,2702,2703,2704,2705,2706,2707,2708,2709,2710,2711,2712,2713,2714,2715,2716,2717,2718,2719,2720,2721,2722,2723,2724,2725,2726,2727,2728,2729,2730,2731,2732,2733,2734,2735,2736,2737,2738,2739,2740,2741,2742,2743,2744,2745,2746,2747,2748,2749,2750,2751,2752,2753,2754,2755,2756,2757,2758,2759,2760,2761,2762,2763,2764,2765,2766,2767,2768,2769,2770,2771,2772,2773,2774,2775,2776,2777,2778,2779,2780,2781,2782,2783,2784,2785,2786,2787,2788,2789,2790,2791,2792,2793,2794,2795,2796,2797,2798,2799,2800,2801,2802,2803,2804,2805,2806,2807,2808,2809,2810,2811,2812,2813,2814,2815,2816,2817,2818,2819,2820,2821,2822,2823,2824,2825,2826,2827,2828,2829,2830,2831,2832,2833,2834,2835,2836,2837,2838,2839,2840,2841,2842,2843,2844,2845,2846,2847,2848,2849,2850,2851,2852,2853,2854,2855,2856,2857,2858,2859,2860,2861,2862,2863,2864,2865,2866,2867,2868,2869,2870,2871,2872,2873,2874,2875,2876,2877,2878,2879,2880,2881,2882,2883,2884,2885,2886,2887,2888,2889,2890,2891,2892,2893,2894,2895,2896,2897,2898,2899,2900,2901,2902,2903,2904,2905,2906,2907,2908,2909,2910,2911,2912,2913,2914,2915,2916,2917,2918,2919,2920,2921,2922,2923,2924,2925,2926,2927,2928,2929,2930,2931,2932,2933,2934,2935,2936,2937,2938,2939,2940,2941,2942,2943,2944,2945,2946,2947,2948,2949,2950,2951,2952,2953,2954,2955,2956,2957,2958,2959,2960,2961,2962,2963,2964,2965,2966,2967,2968,2969,2970,2971,2972,2973,2974,2975,2976,2977,2978,2979,2980,2981,2982,2983,2984,2985,2986,2987,2988,2989,2990,2991,2992,2993,2994,2995,2996,2997,2998,2999,3000],"tree_info":[0,0,0,0,0,0,0,0,0,0,0,0,0,0,0,0,0,0,0,0,0,0,0,0,0,0,0,0,0,0,0,0,0,0,0,0,0,0,0,0,0,0,0,0,0,0,0,0,0,0,0,0,0,0,0,0,0,0,0,0,0,0,0,0,0,0,0,0,0,0,0,0,0,0,0,0,0,0,0,0,0,0,0,0,0,0,0,0,0,0,0,0,0,0,0,0,0,0,0,0,0,0,0,0,0,0,0,0,0,0,0,0,0,0,0,0,0,0,0,0,0,0,0,0,0,0,0,0,0,0,0,0,0,0,0,0,0,0,0,0,0,0,0,0,0,0,0,0,0,0,0,0,0,0,0,0,0,0,0,0,0,0,0,0,0,0,0,0,0,0,0,0,0,0,0,0,0,0,0,0,0,0,0,0,0,0,0,0,0,0,0,0,0,0,0,0,0,0,0,0,0,0,0,0,0,0,0,0,0,0,0,0,0,0,0,0,0,0,0,0,0,0,0,0,0,0,0,0,0,0,0,0,0,0,0,0,0,0,0,0,0,0,0,0,0,0,0,0,0,0,0,0,0,0,0,0,0,0,0,0,0,0,0,0,0,0,0,0,0,0,0,0,0,0,0,0,0,0,0,0,0,0,0,0,0,0,0,0,0,0,0,0,0,0,0,0,0,0,0,0,0,0,0,0,0,0,0,0,0,0,0,0,0,0,0,0,0,0,0,0,0,0,0,0,0,0,0,0,0,0,0,0,0,0,0,0,0,0,0,0,0,0,0,0,0,0,0,0,0,0,0,0,0,0,0,0,0,0,0,0,0,0,0,0,0,0,0,0,0,0,0,0,0,0,0,0,0,0,0,0,0,0,0,0,0,0,0,0,0,0,0,0,0,0,0,0,0,0,0,0,0,0,0,0,0,0,0,0,0,0,0,0,0,0,0,0,0,0,0,0,0,0,0,0,0,0,0,0,0,0,0,0,0,0,0,0,0,0,0,0,0,0,0,0,0,0,0,0,0,0,0,0,0,0,0,0,0,0,0,0,0,0,0,0,0,0,0,0,0,0,0,0,0,0,0,0,0,0,0,0,0,0,0,0,0,0,0,0,0,0,0,0,0,0,0,0,0,0,0,0,0,0,0,0,0,0,0,0,0,0,0,0,0,0,0,0,0,0,0,0,0,0,0,0,0,0,0,0,0,0,0,0,0,0,0,0,0,0,0,0,0,0,0,0,0,0,0,0,0,0,0,0,0,0,0,0,0,0,0,0,0,0,0,0,0,0,0,0,0,0,0,0,0,0,0,0,0,0,0,0,0,0,0,0,0,0,0,0,0,0,0,0,0,0,0,0,0,0,0,0,0,0,0,0,0,0,0,0,0,0,0,0,0,0,0,0,0,0,0,0,0,0,0,0,0,0,0,0,0,0,0,0,0,0,0,0,0,0,0,0,0,0,0,0,0,0,0,0,0,0,0,0,0,0,0,0,0,0,0,0,0,0,0,0,0,0,0,0,0,0,0,0,0,0,0,0,0,0,0,0,0,0,0,0,0,0,0,0,0,0,0,0,0,0,0,0,0,0,0,0,0,0,0,0,0,0,0,0,0,0,0,0,0,0,0,0,0,0,0,0,0,0,0,0,0,0,0,0,0,0,0,0,0,0,0,0,0,0,0,0,0,0,0,0,0,0,0,0,0,0,0,0,0,0,0,0,0,0,0,0,0,0,0,0,0,0,0,0,0,0,0,0,0,0,0,0,0,0,0,0,0,0,0,0,0,0,0,0,0,0,0,0,0,0,0,0,0,0,0,0,0,0,0,0,0,0,0,0,0,0,0,0,0,0,0,0,0,0,0,0,0,0,0,0,0,0,0,0,0,0,0,0,0,0,0,0,0,0,0,0,0,0,0,0,0,0,0,0,0,0,0,0,0,0,0,0,0,0,0,0,0,0,0,0,0,0,0,0,0,0,0,0,0,0,0,0,0,0,0,0,0,0,0,0,0,0,0,0,0,0,0,0,0,0,0,0,0,0,0,0,0,0,0,0,0,0,0,0,0,0,0,0,0,0,0,0,0,0,0,0,0,0,0,0,0,0,0,0,0,0,0,0,0,0,0,0,0,0,0,0,0,0,0,0,0,0,0,0,0,0,0,0,0,0,0,0,0,0,0,0,0,0,0,0,0,0,0,0,0,0,0,0,0,0,0,0,0,0,0,0,0,0,0,0,0,0,0,0,0,0,0,0,0,0,0,0,0,0,0,0,0,0,0,0,0,0,0,0,0,0,0,0,0,0,0,0,0,0,0,0,0,0,0,0,0,0,0,0,0,0,0,0,0,0,0,0,0,0,0,0,0,0,0,0,0,0,0,0,0,0,0,0,0,0,0,0,0,0,0,0,0,0,0,0,0,0,0,0,0,0,0,0,0,0,0,0,0,0,0,0,0,0,0,0,0,0,0,0,0,0,0,0,0,0,0,0,0,0,0,0,0,0,0,0,0,0,0,0,0,0,0,0,0,0,0,0,0,0,0,0,0,0,0,0,0,0,0,0,0,0,0,0,0,0,0,0,0,0,0,0,0,0,0,0,0,0,0,0,0,0,0,0,0,0,0,0,0,0,0,0,0,0,0,0,0,0,0,0,0,0,0,0,0,0,0,0,0,0,0,0,0,0,0,0,0,0,0,0,0,0,0,0,0,0,0,0,0,0,0,0,0,0,0,0,0,0,0,0,0,0,0,0,0,0,0,0,0,0,0,0,0,0,0,0,0,0,0,0,0,0,0,0,0,0,0,0,0,0,0,0,0,0,0,0,0,0,0,0,0,0,0,0,0,0,0,0,0,0,0,0,0,0,0,0,0,0,0,0,0,0,0,0,0,0,0,0,0,0,0,0,0,0,0,0,0,0,0,0,0,0,0,0,0,0,0,0,0,0,0,0,0,0,0,0,0,0,0,0,0,0,0,0,0,0,0,0,0,0,0,0,0,0,0,0,0,0,0,0,0,0,0,0,0,0,0,0,0,0,0,0,0,0,0,0,0,0,0,0,0,0,0,0,0,0,0,0,0,0,0,0,0,0,0,0,0,0,0,0,0,0,0,0,0,0,0,0,0,0,0,0,0,0,0,0,0,0,0,0,0,0,0,0,0,0,0,0,0,0,0,0,0,0,0,0,0,0,0,0,0,0,0,0,0,0,0,0,0,0,0,0,0,0,0,0,0,0,0,0,0,0,0,0,0,0,0,0,0,0,0,0,0,0,0,0,0,0,0,0,0,0,0,0,0,0,0,0,0,0,0,0,0,0,0,0,0,0,0,0,0,0,0,0,0,0,0,0,0,0,0,0,0,0,0,0,0,0,0,0,0,0,0,0,0,0,0,0,0,0,0,0,0,0,0,0,0,0,0,0,0,0,0,0,0,0,0,0,0,0,0,0,0,0,0,0,0,0,0,0,0,0,0,0,0,0,0,0,0,0,0,0,0,0,0,0,0,0,0,0,0,0,0,0,0,0,0,0,0,0,0,0,0,0,0,0,0,0,0,0,0,0,0,0,0,0,0,0,0,0,0,0,0,0,0,0,0,0,0,0,0,0,0,0,0,0,0,0,0,0,0,0,0,0,0,0,0,0,0,0,0,0,0,0,0,0,0,0,0,0,0,0,0,0,0,0,0,0,0,0,0,0,0,0,0,0,0,0,0,0,0,0,0,0,0,0,0,0,0,0,0,0,0,0,0,0,0,0,0,0,0,0,0,0,0,0,0,0,0,0,0,0,0,0,0,0,0,0,0,0,0,0,0,0,0,0,0,0,0,0,0,0,0,0,0,0,0,0,0,0,0,0,0,0,0,0,0,0,0,0,0,0,0,0,0,0,0,0,0,0,0,0,0,0,0,0,0,0,0,0,0,0,0,0,0,0,0,0,0,0,0,0,0,0,0,0,0,0,0,0,0,0,0,0,0,0,0,0,0,0,0,0,0,0,0,0,0,0,0,0,0,0,0,0,0,0,0,0,0,0,0,0,0,0,0,0,0,0,0,0,0,0,0,0,0,0,0,0,0,0,0,0,0,0,0,0,0,0,0,0,0,0,0,0,0,0,0,0,0,0,0,0,0,0,0,0,0,0,0,0,0,0,0,0,0,0,0,0,0,0,0,0,0,0,0,0,0,0,0,0,0,0,0,0,0,0,0,0,0,0,0,0,0,0,0,0,0,0,0,0,0,0,0,0,0,0,0,0,0,0,0,0,0,0,0,0,0,0,0,0,0,0,0,0,0,0,0,0,0,0,0,0,0,0,0,0,0,0,0,0,0,0,0,0,0,0,0,0,0,0,0,0,0,0,0,0,0,0,0,0,0,0,0,0,0,0,0,0,0,0,0,0,0,0,0,0,0,0,0,0,0,0,0,0,0,0,0,0,0,0,0,0,0,0,0,0,0,0,0,0,0,0,0,0,0,0,0,0,0,0,0,0,0,0,0,0,0,0,0,0,0,0,0,0,0,0,0,0,0,0,0,0,0,0,0,0,0,0,0,0,0,0,0,0,0,0,0,0,0,0,0,0,0,0,0,0,0,0,0,0,0,0,0,0,0,0,0,0,0,0,0,0,0,0,0,0,0,0,0,0,0,0,0,0,0,0,0,0,0,0,0,0,0,0,0,0,0,0,0,0,0,0,0,0,0,0,0,0,0,0,0,0,0,0,0,0,0,0,0,0,0,0,0,0,0,0,0,0,0,0,0,0,0,0,0,0,0,0,0,0,0,0,0,0,0,0,0,0,0,0,0,0,0,0,0,0,0,0,0,0,0,0,0,0,0,0,0,0,0,0,0,0,0,0,0,0,0,0,0,0,0,0,0,0,0,0,0,0,0,0,0,0,0,0,0,0,0,0,0,0,0,0,0,0,0,0,0,0,0,0,0,0,0,0,0,0,0,0,0,0,0,0,0,0,0,0,0,0,0,0,0,0,0,0,0,0,0,0,0,0,0,0,0,0,0,0,0,0,0,0,0,0,0,0,0,0,0,0,0,0,0,0,0,0,0,0,0,0,0,0,0,0,0,0,0,0,0,0,0,0,0,0,0,0,0,0,0,0,0,0,0,0,0,0,0,0,0,0,0,0,0,0,0,0,0,0,0,0,0,0,0,0,0,0,0,0,0,0,0,0,0,0,0,0,0,0,0,0,0,0,0,0,0,0,0,0,0,0,0,0,0,0,0,0,0,0,0,0,0,0,0,0,0,0,0,0,0,0,0,0,0,0,0,0,0,0,0,0,0,0,0,0,0,0,0,0,0,0,0,0,0,0,0,0,0,0,0,0,0,0,0,0,0,0,0,0,0,0,0,0,0,0,0,0,0,0,0,0,0,0,0,0,0,0,0,0,0,0,0,0,0,0,0,0,0,0,0,0,0,0,0,0,0,0,0,0,0,0,0,0,0,0,0,0,0,0,0,0,0,0,0,0,0,0,0,0,0,0,0,0,0,0,0,0,0,0,0,0,0,0,0,0,0,0,0,0,0,0,0,0,0,0,0,0,0,0,0,0,0,0,0,0,0,0,0,0,0,0,0,0,0,0,0,0,0,0,0,0,0,0,0,0,0,0,0,0,0,0,0,0,0,0,0,0,0,0,0,0,0,0,0,0,0,0,0,0,0,0,0,0,0,0,0,0,0,0,0,0,0,0,0,0,0,0,0,0,0,0,0,0,0,0,0,0,0,0,0,0,0,0,0,0,0,0,0,0,0,0,0,0,0,0,0,0,0,0,0,0,0,0,0,0,0,0,0,0,0,0,0,0,0,0,0,0,0,0,0,0,0,0,0,0,0,0,0,0,0,0,0,0,0,0,0,0,0,0,0,0,0,0,0,0,0,0,0,0,0,0,0,0,0,0,0,0,0,0,0,0,0,0,0,0,0,0,0,0,0,0,0,0,0,0,0,0,0,0,0,0,0,0,0,0,0,0,0,0,0,0,0,0,0,0,0,0,0,0,0,0,0,0,0,0,0,0,0,0,0,0,0,0,0,0,0,0,0,0,0,0,0,0,0,0,0,0,0,0,0,0,0,0,0,0,0,0,0,0,0,0,0,0,0,0,0,0,0,0,0,0,0,0,0,0,0,0,0,0,0,0,0,0,0,0,0,0,0,0,0,0,0,0,0,0,0,0,0,0,0,0,0,0,0,0,0,0,0,0,0,0,0,0,0,0,0,0,0,0,0,0,0,0,0,0,0,0,0,0,0,0,0,0,0,0,0,0,0,0,0,0,0,0,0,0,0,0,0,0,0,0,0,0,0,0,0,0,0,0,0,0,0,0,0,0,0,0,0,0,0,0,0,0,0,0,0,0,0,0,0,0,0,0,0,0,0,0,0,0,0,0,0,0,0,0,0,0,0,0,0,0,0,0,0,0,0,0,0,0,0,0,0,0,0,0,0,0,0,0,0,0,0,0,0,0,0,0,0,0,0,0,0,0,0,0,0,0,0,0,0,0,0,0,0,0,0,0,0,0,0,0,0,0,0,0,0,0,0,0,0,0,0,0,0,0,0,0,0,0,0,0,0,0,0,0,0,0,0,0,0,0,0,0,0,0,0,0,0,0,0,0,0,0,0,0,0,0,0,0,0,0,0,0,0,0,0,0,0,0,0,0,0,0,0,0,0,0,0,0,0,0,0,0,0,0,0,0,0,0,0,0,0,0,0,0,0,0,0,0,0,0,0,0,0,0,0,0,0,0,0,0,0,0,0,0,0,0,0,0,0,0,0,0,0,0],"trees":[{"base_weights":[3.0646718E-4,-9.502022E-5,4.4964364E-4],"categories":[],"categories_nodes":[],"categories_segments":[],"categories_sizes":[],"default_left":[0,0,0],"id":0,"left_children":[1,-1,-1],"loss_changes":[1.8880992E-1,0E0,0E0],"parents":[2147483647,0,0],"right_children":[2,-1,-1],"split_conditions":[1.4461003E-1,-9.502022E-5,4.4964364E-4],"split_indices":[0,0,0],"split_type":[0,0,0],"sum_hessian":[4.19E2,3.43E2,7.6E1],"tree_param":{"num_deleted":"0","num_feature":"97","num_nodes":"3","size_leaf_vector":"1"}},{"base_weights":[6.447117E-4,-7.0703136E-5,6.2987796E-4],"categories":[],"categories_nodes":[],"categories_segments":[],"categories_sizes":[],"default_left":[0,0,0],"id":1,"left_children":[1,-1,-1],"loss_changes":[2.0464556E-1,0E0,0E0],"parents":[2147483647,0,0],"right_children":[2,-1,-1],"split_conditions":[2.9983246E-1,-7.0703136E-5,6.2987796E-4],"split_indices":[9,0,0],"split_type":[0,0,0],"sum_hessian":[4.1E2,3.65E2,4.5E1],"tree_param":{"num_deleted":"0","num_feature":"97","num_nodes":"3","size_leaf_vector":"1"}},{"base_weights":[-0E0,-9.791909E-5,4.6507668E-4],"categories":[],"categories_nodes":[],"categories_segments":[],"categories_sizes":[],"default_left":[0,0,0],"id":2,"left_children":[1,-1,-1],"loss_changes":[1.9068778E-1,0E0,0E0],"parents":[2147483647,0,0],"right_children":[2,-1,-1],"split_conditions":[1.5203756E-1,-9.791909E-5,4.6507668E-4],"split_indices":[92,0,0],"split_type":[0,0,0],"sum_hessian":[4.11E2,3.4E2,7.1E1],"tree_param":{"num_deleted":"0","num_feature":"97","num_nodes":"3","size_leaf_vector":"1"}},{"base_weights":[-0E0,-1.0383489E-4,4.495365E-4],"categories":[],"categories_nodes":[],"categories_segments":[],"categories_sizes":[],"default_left":[0,0,0],"id":3,"left_children":[1,-1,-1],"loss_changes":[1.9695027E-1,0E0,0E0],"parents":[2147483647,0,0],"right_children":[2,-1,-1],"split_conditions":[1.4693505E-1,-1.0383489E-4,4.495365E-4],"split_indices":[9,0,0],"split_type":[0,0,0],"sum_hessian":[4.21E2,3.44E2,7.7E1],"tree_param":{"num_deleted":"0","num_feature":"97","num_nodes":"3","size_leaf_vector":"1"}},{"base_weights":[-1.8472805E-3,-1.0584887E-4,3.65294E-4],"categories":[],"categories_nodes":[],"categories_segments":[],"categories_sizes":[],"default_left":[0,0,0],"id":4,"left_children":[1,-1,-1],"loss_changes":[1.4404322E-1,0E0,0E0],"parents":[2147483647,0,0],"right_children":[2,-1,-1],"split_conditions":[1.4693505E-1,-1.0584887E-4,3.65294E-4],"split_indices":[9,0,0],"split_type":[0,0,0],"sum_hessian":[4.33E2,3.56E2,7.7E1],"tree_param":{"num_deleted":"0","num_feature":"97","num_nodes":"3","size_leaf_vector":"1"}},{"base_weights":[3.9042443E-5,-9.375424E-5,4.2130164E-4],"categories":[],"categories_nodes":[],"categories_segments":[],"categories_sizes":[],"default_left":[0,0,0],"id":5,"left_children":[1,-1,-1],"loss_changes":[1.7683718E-1,0E0,0E0],"parents":[2147483647,0,0],"right_children":[2,-1,-1],"split_conditions":[1.5203756E-1,-9.375424E-5,4.2130164E-4],"split_indices":[92,0,0],"split_type":[0,0,0],"sum_hessian":[4.34E2,3.54E2,8E1],"tree_param":{"num_deleted":"0","num_feature":"97","num_nodes":"3","size_leaf_vector":"1"}},{"base_weights":[9.772937E-4,-8.54436E-5,4.5407197E-4],"categories":[],"categories_nodes":[],"categories_segments":[],"categories_sizes":[],"default_left":[0,0,0],"id":6,"left_children":[1,-1,-1],"loss_changes":[1.8383382E-1,0E0,0E0],"parents":[2147483647,0,0],"right_children":[2,-1,-1],"split_conditions":[1.5203756E-1,-8.54436E-5,4.5407197E-4],"split_indices":[92,0,0],"split_type":[0,0,0],"sum_hessian":[4.22E2,3.47E2,7.5E1],"tree_param":{"num_deleted":"0","num_feature":"97","num_nodes":"3","size_leaf_vector":"1"}},{"base_weights":[-0E0,-7.5398086E-5,5.9345533E-4],"categories":[],"categories_nodes":[],"categories_segments":[],"categories_sizes":[],"default_left":[0,0,0],"id":7,"left_children":[1,-1,-1],"loss_changes":[1.9082388E-1,0E0,0E0],"parents":[2147483647,0,0],"right_children":[2,-1,-1],"split_conditions":[2.9983246E-1,-7.5398086E-5,5.9345533E-4],"split_indices":[9,0,0],"split_type":[0,0,0],"sum_hessian":[4.27E2,3.81E2,4.6E1],"tree_param":{"num_deleted":"0","num_feature":"97","num_nodes":"3","size_leaf_vector":"1"}},{"base_weights":[5.194466E-5,-6.9638256E-5,6.8077986E-4],"categories":[],"categories_nodes":[],"categories_segments":[],"categories_sizes":[],"default_left":[0,0,0],"id":8,"left_children":[1,-1,-1],"loss_changes":[2.1371104E-1,0E0,0E0],"parents":[2147483647,0,0],"right_children":[2,-1,-1],"split_conditions":[2.9983246E-1,-6.9638256E-5,6.8077986E-4],"split_indices":[9,0,0],"split_type":[0,0,0],"sum_hessian":[4.31E2,3.91E2,4E1],"tree_param":{"num_deleted":"0","num_feature":"97","num_nodes":"3","size_leaf_vector":"1"}},{"base_weights":[1.5616369E-3,-8.629918E-5,4.2738518E-4],"categories":[],"categories_nodes":[],"categories_segments":[],"categories_sizes":[],"default_left":[0,0,0],"id":9,"left_children":[1,-1,-1],"loss_changes":[1.8334183E-1,0E0,0E0],"parents":[2147483647,0,0],"right_children":[2,-1,-1],"split_conditions":[1.4693505E-1,-8.629918E-5,4.2738518E-4],"split_indices":[9,0,0],"split_type":[0,0,0],"sum_hessian":[4.25E2,3.4E2,8.5E1],"tree_param":{"num_deleted":"0","num_feature":"97","num_nodes":"3","size_leaf_vector":"1"}},{"base_weights":[-0E0,-1.0667342E-4,4.3258537E-4],"categories":[],"categories_nodes":[],"categories_segments":[],"categories_sizes":[],"default_left":[0,0,0],"id":10,"left_children":[1,-1,-1],"loss_changes":[2.0285803E-1,0E0,0E0],"parents":[2147483647,0,0],"right_children":[2,-1,-1],"split_conditions":[1.4693505E-1,-1.0667342E-4,4.3258537E-4],"split_indices":[9,0,0],"split_type":[0,0,0],"sum_hessian":[4.35E2,3.5E2,8.5E1],"tree_param":{"num_deleted":"0","num_feature":"97","num_nodes":"3","size_leaf_vector":"1"}},{"base_weights":[-3.314371E-5,-6.624564E-5,5.94314E-4],"categories":[],"categories_nodes":[],"categories_segments":[],"categories_sizes":[],"default_left":[0,0,0],"id":11,"left_children":[1,-1,-1],"loss_changes":[1.5385687E-1,0E0,0E0],"parents":[2147483647,0,0],"right_children":[2,-1,-1],"split_conditions":[2.9983246E-1,-6.624564E-5,5.94314E-4],"split_indices":[9,0,0],"split_type":[0,0,0],"sum_hessian":[4.02E2,3.65E2,3.7E1],"tree_param":{"num_deleted":"0","num_feature":"97","num_nodes":"3","size_leaf_vector":"1"}},{"base_weights":[6.232662E-4,-9.396203E-5,4.0454246E-4],"categories":[],"categories_nodes":[],"categories_segments":[],"categories_sizes":[],"default_left":[0,0,0],"id":12,"left_children":[1,-1,-1],"loss_changes":[1.7188093E-1,0E0,0E0],"parents":[2147483647,0,0],"right_children":[2,-1,-1],"split_conditions":[1.4693505E-1,-9.396203E-5,4.0454246E-4],"split_indices":[9,0,0],"split_type":[0,0,0],"sum_hessian":[4.19E2,3.34E2,8.5E1],"tree_param":{"num_deleted":"0","num_feature":"97","num_nodes":"3","size_leaf_vector":"1"}},{"base_weights":[-2.0860389E-4,-1.1983674E-4,3.3158905E-4],"categories":[],"categories_nodes":[],"categories_segments":[],"categories_sizes":[],"default_left":[0,0,0],"id":13,"left_children":[1,-1,-1],"loss_changes":[1.5937527E-1,0E0,0E0],"parents":[2147483647,0,0],"right_children":[2,-1,-1],"split_conditions":[9.577372E-2,-1.1983674E-4,3.3158905E-4],"split_indices":[92,0,0],"split_type":[0,0,0],"sum_hessian":[4.07E2,3.04E2,1.03E2],"tree_param":{"num_deleted":"0","num_feature":"97","num_nodes":"3","size_leaf_vector":"1"}},{"base_weights":[-1.6226404E-3,-1.328287E-4,3.101524E-4],"categories":[],"categories_nodes":[],"categories_segments":[],"categories_sizes":[],"default_left":[0,0,0],"id":14,"left_children":[1,-1,-1],"loss_changes":[1.5470186E-1,0E0,0E0],"parents":[2147483647,0,0],"right_children":[2,-1,-1],"split_conditions":[9.577372E-2,-1.328287E-4,3.101524E-4],"split_indices":[92,0,0],"split_type":[0,0,0],"sum_hessian":[4.07E2,3.03E2,1.04E2],"tree_param":{"num_deleted":"0","num_feature":"97","num_nodes":"3","size_leaf_vector":"1"}},{"base_weights":[1.83744E-5,-9.692012E-5,4.1702192E-4],"categories":[],"categories_nodes":[],"categories_segments":[],"categories_sizes":[],"default_left":[0,0,0],"id":15,"left_children":[1,-1,-1],"loss_changes":[1.7684445E-1,0E0,0E0],"parents":[2147483647,0,0],"right_children":[2,-1,-1],"split_conditions":[1.4693505E-1,-9.692012E-5,4.1702192E-4],"split_indices":[9,0,0],"split_type":[0,0,0],"sum_hessian":[4.25E2,3.44E2,8.1E1],"tree_param":{"num_deleted":"0","num_feature":"97","num_nodes":"3","size_leaf_vector":"1"}},{"base_weights":[-0E0,-1.0461694E-4,3.9377908E-4],"categories":[],"categories_nodes":[],"categories_segments":[],"categories_sizes":[],"default_left":[0,0,0],"id":16,"left_children":[1,-1,-1],"loss_changes":[1.6195497E-1,0E0,0E0],"parents":[2147483647,0,0],"right_children":[2,-1,-1],"split_conditions":[1.4693505E-1,-1.0461694E-4,3.9377908E-4],"split_indices":[9,0,0],"split_type":[0,0,0],"sum_hessian":[3.96E2,3.16E2,8E1],"tree_param":{"num_deleted":"0","num_feature":"97","num_nodes":"3","size_leaf_vector":"1"}},{"base_weights":[-1.0100341E-3,-1.14031674E-4,2.4665723E-4],"categories":[],"categories_nodes":[],"categories_segments":[],"categories_sizes":[],"default_left":[0,0,0],"id":17,"left_children":[1,-1,-1],"loss_changes":[1.08645424E-1,0E0,0E0],"parents":[2147483647,0,0],"right_children":[2,-1,-1],"split_conditions":[8.592559E-2,-1.14031674E-4,2.4665723E-4],"split_indices":[92,0,0],"split_type":[0,0,0],"sum_hessian":[4.08E2,2.94E2,1.14E2],"tree_param":{"num_deleted":"0","num_feature":"97","num_nodes":"3","size_leaf_vector":"1"}},{"base_weights":[5.5093034E-5,-8.279747E-5,3.8457036E-4],"categories":[],"categories_nodes":[],"categories_segments":[],"categories_sizes":[],"default_left":[0,0,0],"id":18,"left_children":[1,-1,-1],"loss_changes":[1.4096634E-1,0E0,0E0],"parents":[2147483647,0,0],"right_children":[2,-1,-1],"split_conditions":[1.5496357E-1,-8.279747E-5,3.8457036E-4],"split_indices":[92,0,0],"split_type":[0,0,0],"sum_hessian":[4.27E2,3.5E2,7.7E1],"tree_param":{"num_deleted":"0","num_feature":"97","num_nodes":"3","size_leaf_vector":"1"}},{"base_weights":[5.562091E-4,-8.890601E-5,3.9990133E-4],"categories":[],"categories_nodes":[],"categories_segments":[],"categories_sizes":[],"default_left":[0,0,0],"id":19,"left_children":[1,-1,-1],"loss_changes":[1.5916386E-1,0E0,0E0],"parents":[2147483647,0,0],"right_children":[2,-1,-1],"split_conditions":[1.4693505E-1,-8.890601E-5,3.9990133E-4],"split_indices":[9,0,0],"split_type":[0,0,0],"sum_hessian":[4.15E2,3.34E2,8.1E1],"tree_param":{"num_deleted":"0","num_feature":"97","num_nodes":"3","size_leaf_vector":"1"}},{"base_weights":[-2.7986264E-4,-9.0352936E-5,3.7395704E-4],"categories":[],"categories_nodes":[],"categories_segments":[],"categories_sizes":[],"default_left":[0,0,0],"id":20,"left_children":[1,-1,-1],"loss_changes":[1.3737297E-1,0E0,0E0],"parents":[2147483647,0,0],"right_children":[2,-1,-1],"split_conditions":[1.4967729E-1,-9.0352936E-5,3.7395704E-4],"split_indices":[9,0,0],"split_type":[0,0,0],"sum_hessian":[4.21E2,3.45E2,7.6E1],"tree_param":{"num_deleted":"0","num_feature":"97","num_nodes":"3","size_leaf_vector":"1"}},{"base_weights":[1.6511058E-4,-6.620818E-5,5.510173E-4],"categories":[],"categories_nodes":[],"categories_segments":[],"categories_sizes":[],"default_left":[0,0,0],"id":21,"left_children":[1,-1,-1],"loss_changes":[1.655072E-1,0E0,0E0],"parents":[2147483647,0,0],"right_children":[2,-1,-1],"split_conditions":[2.9983246E-1,-6.620818E-5,5.510173E-4],"split_indices":[9,0,0],"split_type":[0,0,0],"sum_hessian":[4.27E2,3.8E2,4.7E1],"tree_param":{"num_deleted":"0","num_feature":"97","num_nodes":"3","size_leaf_vector":"1"}},{"base_weights":[2.6474718E-4,-9.1477064E-5,3.7218686E-4],"categories":[],"categories_nodes":[],"categories_segments":[],"categories_sizes":[],"default_left":[0,0,0],"id":22,"left_children":[1,-1,-1],"loss_changes":[1.4818415E-1,0E0,0E0],"parents":[2147483647,0,0],"right_children":[2,-1,-1],"split_conditions":[1.4297928E-1,-9.1477064E-5,3.7218686E-4],"split_indices":[9,0,0],"split_type":[0,0,0],"sum_hessian":[4.14E2,3.29E2,8.5E1],"tree_param":{"num_deleted":"0","num_feature":"97","num_nodes":"3","size_leaf_vector":"1"}},{"base_weights":[2.521937E-4,-5.4096454E-5,5.244058E-4],"categories":[],"categories_nodes":[],"categories_segments":[],"categories_sizes":[],"default_left":[0,0,0],"id":23,"left_children":[1,-1,-1],"loss_changes":[1.3232784E-1,0E0,0E0],"parents":[2147483647,0,0],"right_children":[2,-1,-1],"split_conditions":[2.9983246E-1,-5.4096454E-5,5.244058E-4],"split_indices":[9,0,0],"split_type":[0,0,0],"sum_hessian":[4.28E2,3.86E2,4.2E1],"tree_param":{"num_deleted":"0","num_feature":"97","num_nodes":"3","size_leaf_vector":"1"}},{"base_weights":[-2.5517313E-4,-9.4487405E-5,3.8355353E-4],"categories":[],"categories_nodes":[],"categories_segments":[],"categories_sizes":[],"default_left":[0,0,0],"id":24,"left_children":[1,-1,-1],"loss_changes":[1.5047061E-1,0E0,0E0],"parents":[2147483647,0,0],"right_children":[2,-1,-1],"split_conditions":[1.5203756E-1,-9.4487405E-5,3.8355353E-4],"split_indices":[92,0,0],"split_type":[0,0,0],"sum_hessian":[4.28E2,3.49E2,7.9E1],"tree_param":{"num_deleted":"0","num_feature":"97","num_nodes":"3","size_leaf_vector":"1"}},{"base_weights":[1.5840316E-4,-1.0530688E-4,3.0228443E-4],"categories":[],"categories_nodes":[],"categories_segments":[],"categories_sizes":[],"default_left":[0,0,0],"id":25,"left_children":[1,-1,-1],"loss_changes":[1.4113906E-1,0E0,0E0],"parents":[2147483647,0,0],"right_children":[2,-1,-1],"split_conditions":[9.577372E-2,-1.0530688E-4,3.0228443E-4],"split_indices":[92,0,0],"split_type":[0,0,0],"sum_hessian":[4.29E2,3.15E2,1.14E2],"tree_param":{"num_deleted":"0","num_feature":"97","num_nodes":"3","size_leaf_vector":"1"}},{"base_weights":[-1.2944407E-3,-1.797465E-4,1.2371528E-4],"categories":[],"categories_nodes":[],"categories_segments":[],"categories_sizes":[],"default_left":[0,0,0],"id":26,"left_children":[1,-1,-1],"loss_changes":[9.560482E-2,0E0,0E0],"parents":[2147483647,0,0],"right_children":[2,-1,-1],"split_conditions":[1.2454974E-3,-1.797465E-4,1.2371528E-4],"split_indices":[11,0,0],"split_type":[0,0,0],"sum_hessian":[4.13E2,1.89E2,2.24E2],"tree_param":{"num_deleted":"0","num_feature":"97","num_nodes":"3","size_leaf_vector":"1"}},{"base_weights":[-0E0,-8.966262E-5,3.1154044E-4],"categories":[],"categories_nodes":[],"categories_segments":[],"categories_sizes":[],"default_left":[0,0,0],"id":27,"left_children":[1,-1,-1],"loss_changes":[1.21479645E-1,0E0,0E0],"parents":[2147483647,0,0],"right_children":[2,-1,-1],"split_conditions":[2.078324E-1,-8.966262E-5,3.1154044E-4],"split_indices":[4,0,0],"split_type":[0,0,0],"sum_hessian":[4.33E2,3.38E2,9.5E1],"tree_param":{"num_deleted":"0","num_feature":"97","num_nodes":"3","size_leaf_vector":"1"}},{"base_weights":[2.9536136E-4,-8.450681E-5,3.637186E-4],"categories":[],"categories_nodes":[],"categories_segments":[],"categories_sizes":[],"default_left":[0,0,0],"id":28,"left_children":[1,-1,-1],"loss_changes":[1.3340381E-1,0E0,0E0],"parents":[2147483647,0,0],"right_children":[2,-1,-1],"split_conditions":[1.4693505E-1,-8.450681E-5,3.637186E-4],"split_indices":[9,0,0],"split_type":[0,0,0],"sum_hessian":[4.1E2,3.29E2,8.1E1],"tree_param":{"num_deleted":"0","num_feature":"97","num_nodes":"3","size_leaf_vector":"1"}},{"base_weights":[-3.2139395E-4,-1.18691554E-4,2.6908598E-4],"categories":[],"categories_nodes":[],"categories_segments":[],"categories_sizes":[],"default_left":[0,0,0],"id":29,"left_children":[1,-1,-1],"loss_changes":[1.3214526E-1,0E0,0E0],"parents":[2147483647,0,0],"right_children":[2,-1,-1],"split_conditions":[8.592559E-2,-1.18691554E-4,2.6908598E-4],"split_indices":[92,0,0],"split_type":[0,0,0],"sum_hessian":[4.21E2,2.99E2,1.22E2],"tree_param":{"num_deleted":"0","num_feature":"97","num_nodes":"3","size_leaf_vector":"1"}},{"base_weights":[-9.684919E-5,-5.3218642E-5,6.3766044E-4],"categories":[],"categories_nodes":[],"categories_segments":[],"categories_sizes":[],"default_left":[0,0,0],"id":30,"left_children":[1,-1,-1],"loss_changes":[1.3731763E-1,0E0,0E0],"parents":[2147483647,0,0],"right_children":[2,-1,-1],"split_conditions":[4.242731E-1,-5.3218642E-5,6.3766044E-4],"split_indices":[9,0,0],"split_type":[0,0,0],"sum_hessian":[4.25E2,3.96E2,2.9E1],"tree_param":{"num_deleted":"0","num_feature":"97","num_nodes":"3","size_leaf_vector":"1"}},{"base_weights":[-0E0,-8.272328E-5,3.5639253E-4],"categories":[],"categories_nodes":[],"categories_segments":[],"categories_sizes":[],"default_left":[0,0,0],"id":31,"left_children":[1,-1,-1],"loss_changes":[1.2590566E-1,0E0,0E0],"parents":[2147483647,0,0],"right_children":[2,-1,-1],"split_conditions":[1.5203756E-1,-8.272328E-5,3.5639253E-4],"split_indices":[92,0,0],"split_type":[0,0,0],"sum_hessian":[4.31E2,3.53E2,7.8E1],"tree_param":{"num_deleted":"0","num_feature":"97","num_nodes":"3","size_leaf_vector":"1"}},{"base_weights":[-3.1631475E-4,-8.877373E-5,3.3968958E-4],"categories":[],"categories_nodes":[],"categories_segments":[],"categories_sizes":[],"default_left":[0,0,0],"id":32,"left_children":[1,-1,-1],"loss_changes":[1.2137161E-1,0E0,0E0],"parents":[2147483647,0,0],"right_children":[2,-1,-1],"split_conditions":[1.4693505E-1,-8.877373E-5,3.3968958E-4],"split_indices":[9,0,0],"split_type":[0,0,0],"sum_hessian":[4.18E2,3.38E2,8E1],"tree_param":{"num_deleted":"0","num_feature":"97","num_nodes":"3","size_leaf_vector":"1"}},{"base_weights":[-8.58435E-4,-1.1464569E-4,2.7246287E-4],"categories":[],"categories_nodes":[],"categories_segments":[],"categories_sizes":[],"default_left":[0,0,0],"id":33,"left_children":[1,-1,-1],"loss_changes":[1.2632778E-1,0E0,0E0],"parents":[2147483647,0,0],"right_children":[2,-1,-1],"split_conditions":[8.592559E-2,-1.1464569E-4,2.7246287E-4],"split_indices":[92,0,0],"split_type":[0,0,0],"sum_hessian":[4.25E2,3.12E2,1.13E2],"tree_param":{"num_deleted":"0","num_feature":"97","num_nodes":"3","size_leaf_vector":"1"}},{"base_weights":[4.7330373E-5,-5.8399637E-5,5.1155686E-4],"categories":[],"categories_nodes":[],"categories_segments":[],"categories_sizes":[],"default_left":[0,0,0],"id":34,"left_children":[1,-1,-1],"loss_changes":[1.2759127E-1,0E0,0E0],"parents":[2147483647,0,0],"right_children":[2,-1,-1],"split_conditions":[2.9983246E-1,-5.8399637E-5,5.1155686E-4],"split_indices":[9,0,0],"split_type":[0,0,0],"sum_hessian":[4.05E2,3.63E2,4.2E1],"tree_param":{"num_deleted":"0","num_feature":"97","num_nodes":"3","size_leaf_vector":"1"}},{"base_weights":[-0E0,-6.5520406E-5,5.2234554E-4],"categories":[],"categories_nodes":[],"categories_segments":[],"categories_sizes":[],"default_left":[0,0,0],"id":35,"left_children":[1,-1,-1],"loss_changes":[1.4770794E-1,0E0,0E0],"parents":[2147483647,0,0],"right_children":[2,-1,-1],"split_conditions":[2.9983246E-1,-6.5520406E-5,5.2234554E-4],"split_indices":[9,0,0],"split_type":[0,0,0],"sum_hessian":[4.34E2,3.88E2,4.6E1],"tree_param":{"num_deleted":"0","num_feature":"97","num_nodes":"3","size_leaf_vector":"1"}},{"base_weights":[1.5461346E-4,-5.423134E-5,4.604006E-4],"categories":[],"categories_nodes":[],"categories_segments":[],"categories_sizes":[],"default_left":[0,0,0],"id":36,"left_children":[1,-1,-1],"loss_changes":[1.1282261E-1,0E0,0E0],"parents":[2147483647,0,0],"right_children":[2,-1,-1],"split_conditions":[2.9983246E-1,-5.423134E-5,4.604006E-4],"split_indices":[9,0,0],"split_type":[0,0,0],"sum_hessian":[4.21E2,3.75E2,4.6E1],"tree_param":{"num_deleted":"0","num_feature":"97","num_nodes":"3","size_leaf_vector":"1"}},{"base_weights":[-0E0,-8.194639E-5,3.455617E-4],"categories":[],"categories_nodes":[],"categories_segments":[],"categories_sizes":[],"default_left":[0,0,0],"id":37,"left_children":[1,-1,-1],"loss_changes":[1.222802E-1,0E0,0E0],"parents":[2147483647,0,0],"right_children":[2,-1,-1],"split_conditions":[1.5203756E-1,-8.194639E-5,3.455617E-4],"split_indices":[92,0,0],"split_type":[0,0,0],"sum_hessian":[4.24E2,3.43E2,8.1E1],"tree_param":{"num_deleted":"0","num_feature":"97","num_nodes":"3","size_leaf_vector":"1"}},{"base_weights":[-1.21345554E-4,-1.2385103E-4,1.909685E-4],"categories":[],"categories_nodes":[],"categories_segments":[],"categories_sizes":[],"default_left":[0,0,0],"id":38,"left_children":[1,-1,-1],"loss_changes":[9.9261895E-2,0E0,0E0],"parents":[2147483647,0,0],"right_children":[2,-1,-1],"split_conditions":[4.739329E-2,-1.2385103E-4,1.909685E-4],"split_indices":[0,0,0],"split_type":[0,0,0],"sum_hessian":[4.2E2,2.6E2,1.6E2],"tree_param":{"num_deleted":"0","num_feature":"97","num_nodes":"3","size_leaf_vector":"1"}},{"base_weights":[-0E0,-3.7670234E-5,6.689288E-4],"categories":[],"categories_nodes":[],"categories_segments":[],"categories_sizes":[],"default_left":[0,0,0],"id":39,"left_children":[1,-1,-1],"loss_changes":[1.0384902E-1,0E0,0E0],"parents":[2147483647,0,0],"right_children":[2,-1,-1],"split_conditions":[4.833059E-1,-3.7670234E-5,6.689288E-4],"split_indices":[9,0,0],"split_type":[0,0,0],"sum_hessian":[3.99E2,3.79E2,2E1],"tree_param":{"num_deleted":"0","num_feature":"97","num_nodes":"3","size_leaf_vector":"1"}},{"base_weights":[8.556033E-5,-4.7685797E-5,6.6678814E-4],"categories":[],"categories_nodes":[],"categories_segments":[],"categories_sizes":[],"default_left":[0,0,0],"id":40,"left_children":[1,-1,-1],"loss_changes":[1.4226995E-1,0E0,0E0],"parents":[2147483647,0,0],"right_children":[2,-1,-1],"split_conditions":[4.242731E-1,-4.7685797E-5,6.6678814E-4],"split_indices":[9,0,0],"split_type":[0,0,0],"sum_hessian":[4.17E2,3.89E2,2.8E1],"tree_param":{"num_deleted":"0","num_feature":"97","num_nodes":"3","size_leaf_vector":"1"}},{"base_weights":[1.5428846E-5,-7.3721945E-5,3.382381E-4],"categories":[],"categories_nodes":[],"categories_segments":[],"categories_sizes":[],"default_left":[0,0,0],"id":41,"left_children":[1,-1,-1],"loss_changes":[1.092934E-1,0E0,0E0],"parents":[2147483647,0,0],"right_children":[2,-1,-1],"split_conditions":[1.4693505E-1,-7.3721945E-5,3.382381E-4],"split_indices":[9,0,0],"split_type":[0,0,0],"sum_hessian":[4.23E2,3.46E2,7.7E1],"tree_param":{"num_deleted":"0","num_feature":"97","num_nodes":"3","size_leaf_vector":"1"}},{"base_weights":[1.0345607E-3,-6.923154E-5,3.3259316E-4],"categories":[],"categories_nodes":[],"categories_segments":[],"categories_sizes":[],"default_left":[0,0,0],"id":42,"left_children":[1,-1,-1],"loss_changes":[1.1207919E-1,0E0,0E0],"parents":[2147483647,0,0],"right_children":[2,-1,-1],"split_conditions":[1.5203756E-1,-6.923154E-5,3.3259316E-4],"split_indices":[92,0,0],"split_type":[0,0,0],"sum_hessian":[4.23E2,3.38E2,8.5E1],"tree_param":{"num_deleted":"0","num_feature":"97","num_nodes":"3","size_leaf_vector":"1"}},{"base_weights":[9.187406E-4,-3.7574177E-5,6.30652E-4],"categories":[],"categories_nodes":[],"categories_segments":[],"categories_sizes":[],"default_left":[0,0,0],"id":43,"left_children":[1,-1,-1],"loss_changes":[1.2845951E-1,0E0,0E0],"parents":[2147483647,0,0],"right_children":[2,-1,-1],"split_conditions":[4.242731E-1,-3.7574177E-5,6.30652E-4],"split_indices":[9,0,0],"split_type":[0,0,0],"sum_hessian":[4.18E2,3.89E2,2.9E1],"tree_param":{"num_deleted":"0","num_feature":"97","num_nodes":"3","size_leaf_vector":"1"}},{"base_weights":[-0E0,-7.250497E-5,3.3635303E-4],"categories":[],"categories_nodes":[],"categories_segments":[],"categories_sizes":[],"default_left":[0,0,0],"id":44,"left_children":[1,-1,-1],"loss_changes":[9.756755E-2,0E0,0E0],"parents":[2147483647,0,0],"right_children":[2,-1,-1],"split_conditions":[1.4693505E-1,-7.250497E-5,3.3635303E-4],"split_indices":[9,0,0],"split_type":[0,0,0],"sum_hessian":[3.95E2,3.26E2,6.9E1],"tree_param":{"num_deleted":"0","num_feature":"97","num_nodes":"3","size_leaf_vector":"1"}},{"base_weights":[7.836275E-4,-4.8045942E-5,4.7108124E-4],"categories":[],"categories_nodes":[],"categories_segments":[],"categories_sizes":[],"default_left":[0,0,0],"id":45,"left_children":[1,-1,-1],"loss_changes":[1.1263246E-1,0E0,0E0],"parents":[2147483647,0,0],"right_children":[2,-1,-1],"split_conditions":[2.9983246E-1,-4.8045942E-5,4.7108124E-4],"split_indices":[9,0,0],"split_type":[0,0,0],"sum_hessian":[4.15E2,3.7E2,4.5E1],"tree_param":{"num_deleted":"0","num_feature":"97","num_nodes":"3","size_leaf_vector":"1"}},{"base_weights":[3.3196984E-4,-1.5875671E-4,1.3858218E-4],"categories":[],"categories_nodes":[],"categories_segments":[],"categories_sizes":[],"default_left":[0,0,0],"id":46,"left_children":[1,-1,-1],"loss_changes":[9.538348E-2,0E0,0E0],"parents":[2147483647,0,0],"right_children":[2,-1,-1],"split_conditions":[3.1319135E-4,-1.5875671E-4,1.3858218E-4],"split_indices":[11,0,0],"split_type":[0,0,0],"sum_hessian":[4.32E2,1.93E2,2.39E2],"tree_param":{"num_deleted":"0","num_feature":"97","num_nodes":"3","size_leaf_vector":"1"}},{"base_weights":[-1.0103444E-3,-9.0762456E-5,3.2517512E-4],"categories":[],"categories_nodes":[],"categories_segments":[],"categories_sizes":[],"default_left":[0,0,0],"id":47,"left_children":[1,-1,-1],"loss_changes":[1.1534337E-1,0E0,0E0],"parents":[2147483647,0,0],"right_children":[2,-1,-1],"split_conditions":[1.4693505E-1,-9.0762456E-5,3.2517512E-4],"split_indices":[9,0,0],"split_type":[0,0,0],"sum_hessian":[4.31E2,3.51E2,8E1],"tree_param":{"num_deleted":"0","num_feature":"97","num_nodes":"3","size_leaf_vector":"1"}},{"base_weights":[-1.5433008E-4,-2.793998E-4,7.758273E-5],"categories":[],"categories_nodes":[],"categories_segments":[],"categories_sizes":[],"default_left":[0,0,0],"id":48,"left_children":[1,-1,-1],"loss_changes":[9.3472436E-2,0E0,0E0],"parents":[2147483647,0,0],"right_children":[2,-1,-1],"split_conditions":[-3.8476396E-2,-2.793998E-4,7.758273E-5],"split_indices":[92,0,0],"split_type":[0,0,0],"sum_hessian":[4.12E2,9.3E1,3.19E2],"tree_param":{"num_deleted":"0","num_feature":"97","num_nodes":"3","size_leaf_vector":"1"}},{"base_weights":[4.0184526E-4,-7.908196E-5,3.6979906E-4],"categories":[],"categories_nodes":[],"categories_segments":[],"categories_sizes":[],"default_left":[0,0,0],"id":49,"left_children":[1,-1,-1],"loss_changes":[1.3389313E-1,0E0,0E0],"parents":[2147483647,0,0],"right_children":[2,-1,-1],"split_conditions":[1.4693505E-1,-7.908196E-5,3.6979906E-4],"split_indices":[9,0,0],"split_type":[0,0,0],"sum_hessian":[4.27E2,3.47E2,8E1],"tree_param":{"num_deleted":"0","num_feature":"97","num_nodes":"3","size_leaf_vector":"1"}},{"base_weights":[1.9893081E-4,-5.070242E-5,4.702464E-4],"categories":[],"categories_nodes":[],"categories_segments":[],"categories_sizes":[],"default_left":[0,0,0],"id":50,"left_children":[1,-1,-1],"loss_changes":[1.0928699E-1,0E0,0E0],"parents":[2147483647,0,0],"right_children":[2,-1,-1],"split_conditions":[2.9983246E-1,-5.070242E-5,4.702464E-4],"split_indices":[9,0,0],"split_type":[0,0,0],"sum_hessian":[4.22E2,3.79E2,4.3E1],"tree_param":{"num_deleted":"0","num_feature":"97","num_nodes":"3","size_leaf_vector":"1"}},{"base_weights":[-1.0758759E-4,-2.788187E-4,8.702423E-5],"categories":[],"categories_nodes":[],"categories_segments":[],"categories_sizes":[],"default_left":[0,0,0],"id":51,"left_children":[1,-1,-1],"loss_changes":[1.0786536E-1,0E0,0E0],"parents":[2147483647,0,0],"right_children":[2,-1,-1],"split_conditions":[-3.8476396E-2,-2.788187E-4,8.702423E-5],"split_indices":[92,0,0],"split_type":[0,0,0],"sum_hessian":[4.29E2,1.05E2,3.24E2],"tree_param":{"num_deleted":"0","num_feature":"97","num_nodes":"3","size_leaf_vector":"1"}},{"base_weights":[-6.961364E-4,-2.590751E-4,7.297025E-5],"categories":[],"categories_nodes":[],"categories_segments":[],"categories_sizes":[],"default_left":[0,0,0],"id":52,"left_children":[1,-1,-1],"loss_changes":[8.808608E-2,0E0,0E0],"parents":[2147483647,0,0],"right_children":[2,-1,-1],"split_conditions":[-3.8476396E-2,-2.590751E-4,7.297025E-5],"split_indices":[92,0,0],"split_type":[0,0,0],"sum_hessian":[4.24E2,1.04E2,3.2E2],"tree_param":{"num_deleted":"0","num_feature":"97","num_nodes":"3","size_leaf_vector":"1"}},{"base_weights":[2.338893E-4,-5.3068798E-5,4.9111305E-4],"categories":[],"categories_nodes":[],"categories_segments":[],"categories_sizes":[],"default_left":[0,0,0],"id":53,"left_children":[1,-1,-1],"loss_changes":[1.191871E-1,0E0,0E0],"parents":[2147483647,0,0],"right_children":[2,-1,-1],"split_conditions":[2.9983246E-1,-5.3068798E-5,4.9111305E-4],"split_indices":[9,0,0],"split_type":[0,0,0],"sum_hessian":[4.2E2,3.77E2,4.3E1],"tree_param":{"num_deleted":"0","num_feature":"97","num_nodes":"3","size_leaf_vector":"1"}},{"base_weights":[-4.967583E-4,-1.6847365E-4,1.283248E-4],"categories":[],"categories_nodes":[],"categories_segments":[],"categories_sizes":[],"default_left":[0,0,0],"id":54,"left_children":[1,-1,-1],"loss_changes":[9.389473E-2,0E0,0E0],"parents":[2147483647,0,0],"right_children":[2,-1,-1],"split_conditions":[1.1220056E-3,-1.6847365E-4,1.283248E-4],"split_indices":[11,0,0],"split_type":[0,0,0],"sum_hessian":[4.25E2,1.94E2,2.31E2],"tree_param":{"num_deleted":"0","num_feature":"97","num_nodes":"3","size_leaf_vector":"1"}},{"base_weights":[4.6961673E-4,-4.210479E-5,6.5236894E-4],"categories":[],"categories_nodes":[],"categories_segments":[],"categories_sizes":[],"default_left":[0,0,0],"id":55,"left_children":[1,-1,-1],"loss_changes":[1.3456741E-1,0E0,0E0],"parents":[2147483647,0,0],"right_children":[2,-1,-1],"split_conditions":[4.242731E-1,-4.210479E-5,6.5236894E-4],"split_indices":[9,0,0],"split_type":[0,0,0],"sum_hessian":[4.2E2,3.92E2,2.8E1],"tree_param":{"num_deleted":"0","num_feature":"97","num_nodes":"3","size_leaf_vector":"1"}},{"base_weights":[-0E0,-2.6293457E-4,8.630139E-5],"categories":[],"categories_nodes":[],"categories_segments":[],"categories_sizes":[],"default_left":[0,0,0],"id":56,"left_children":[1,-1,-1],"loss_changes":[9.061704E-2,0E0,0E0],"parents":[2147483647,0,0],"right_children":[2,-1,-1],"split_conditions":[-3.489998E-2,-2.6293457E-4,8.630139E-5],"split_indices":[92,0,0],"split_type":[0,0,0],"sum_hessian":[4.01E2,9.6E1,3.05E2],"tree_param":{"num_deleted":"0","num_feature":"97","num_nodes":"3","size_leaf_vector":"1"}},{"base_weights":[1.2101573E-3,-4.5017357E-5,4.822422E-4],"categories":[],"categories_nodes":[],"categories_segments":[],"categories_sizes":[],"default_left":[0,0,0],"id":57,"left_children":[1,-1,-1],"loss_changes":[1.186671E-1,0E0,0E0],"parents":[2147483647,0,0],"right_children":[2,-1,-1],"split_conditions":[2.9983246E-1,-4.5017357E-5,4.822422E-4],"split_indices":[9,0,0],"split_type":[0,0,0],"sum_hessian":[4.22E2,3.76E2,4.6E1],"tree_param":{"num_deleted":"0","num_feature":"97","num_nodes":"3","size_leaf_vector":"1"}},{"base_weights":[9.7264873E-4,-5.541683E-5,3.457284E-4],"categories":[],"categories_nodes":[],"categories_segments":[],"categories_sizes":[],"default_left":[0,0,0],"id":58,"left_children":[1,-1,-1],"loss_changes":[9.390379E-2,0E0,0E0],"parents":[2147483647,0,0],"right_children":[2,-1,-1],"split_conditions":[1.6009428E-1,-5.541683E-5,3.457284E-4],"split_indices":[0,0,0],"split_type":[0,0,0],"sum_hessian":[4.12E2,3.44E2,6.8E1],"tree_param":{"num_deleted":"0","num_feature":"97","num_nodes":"3","size_leaf_vector":"1"}},{"base_weights":[-1.4942244E-3,-2.6480685E-4,6.4335894E-5],"categories":[],"categories_nodes":[],"categories_segments":[],"categories_sizes":[],"default_left":[0,0,0],"id":59,"left_children":[1,-1,-1],"loss_changes":[8.7523274E-2,0E0,0E0],"parents":[2147483647,0,0],"right_children":[2,-1,-1],"split_conditions":[-3.8476396E-2,-2.6480685E-4,6.4335894E-5],"split_indices":[92,0,0],"split_type":[0,0,0],"sum_hessian":[4.28E2,1.05E2,3.23E2],"tree_param":{"num_deleted":"0","num_feature":"97","num_nodes":"3","size_leaf_vector":"1"}},{"base_weights":[-4.585742E-4,-2.8380114E-4,7.102929E-5],"categories":[],"categories_nodes":[],"categories_segments":[],"categories_sizes":[],"default_left":[0,0,0],"id":60,"left_children":[1,-1,-1],"loss_changes":[9.247175E-2,0E0,0E0],"parents":[2147483647,0,0],"right_children":[2,-1,-1],"split_conditions":[-3.8476396E-2,-2.8380114E-4,7.102929E-5],"split_indices":[92,0,0],"split_type":[0,0,0],"sum_hessian":[4.24E2,9.2E1,3.32E2],"tree_param":{"num_deleted":"0","num_feature":"97","num_nodes":"3","size_leaf_vector":"1"}},{"base_weights":[-6.645993E-4,-1.0362791E-4,2.4736792E-4],"categories":[],"categories_nodes":[],"categories_segments":[],"categories_sizes":[],"default_left":[0,0,0],"id":61,"left_children":[1,-1,-1],"loss_changes":[1.0451206E-1,0E0,0E0],"parents":[2147483647,0,0],"right_children":[2,-1,-1],"split_conditions":[8.592559E-2,-1.0362791E-4,2.4736792E-4],"split_indices":[92,0,0],"split_type":[0,0,0],"sum_hessian":[4.26E2,3.12E2,1.14E2],"tree_param":{"num_deleted":"0","num_feature":"97","num_nodes":"3","size_leaf_vector":"1"}},{"base_weights":[3.6037853E-4,-8.8861125E-5,2.4335303E-4],"categories":[],"categories_nodes":[],"categories_segments":[],"categories_sizes":[],"default_left":[0,0,0],"id":62,"left_children":[1,-1,-1],"loss_changes":[9.552804E-2,0E0,0E0],"parents":[2147483647,0,0],"right_children":[2,-1,-1],"split_conditions":[8.592559E-2,-8.8861125E-5,2.4335303E-4],"split_indices":[92,0,0],"split_type":[0,0,0],"sum_hessian":[4.2E2,3.01E2,1.19E2],"tree_param":{"num_deleted":"0","num_feature":"97","num_nodes":"3","size_leaf_vector":"1"}},{"base_weights":[2.2797936E-4,-3.44171E-5,5.313807E-4],"categories":[],"categories_nodes":[],"categories_segments":[],"categories_sizes":[],"default_left":[0,0,0],"id":63,"left_children":[1,-1,-1],"loss_changes":[8.6495794E-2,0E0,0E0],"parents":[2147483647,0,0],"right_children":[2,-1,-1],"split_conditions":[4.242731E-1,-3.44171E-5,5.313807E-4],"split_indices":[9,0,0],"split_type":[0,0,0],"sum_hessian":[4.16E2,3.89E2,2.7E1],"tree_param":{"num_deleted":"0","num_feature":"97","num_nodes":"3","size_leaf_vector":"1"}},{"base_weights":[-0E0,-6.387474E-5,2.791197E-4],"categories":[],"categories_nodes":[],"categories_segments":[],"categories_sizes":[],"default_left":[0,0,0],"id":64,"left_children":[1,-1,-1],"loss_changes":[7.886182E-2,0E0,0E0],"parents":[2147483647,0,0],"right_children":[2,-1,-1],"split_conditions":[1.4693505E-1,-6.387474E-5,2.791197E-4],"split_indices":[9,0,0],"split_type":[0,0,0],"sum_hessian":[4.27E2,3.46E2,8.1E1],"tree_param":{"num_deleted":"0","num_feature":"97","num_nodes":"3","size_leaf_vector":"1"}},{"base_weights":[-0E0,-4.6033798E-5,4.7589475E-4],"categories":[],"categories_nodes":[],"categories_segments":[],"categories_sizes":[],"default_left":[0,0,0],"id":65,"left_children":[1,-1,-1],"loss_changes":[9.426177E-2,0E0,0E0],"parents":[2147483647,0,0],"right_children":[2,-1,-1],"split_conditions":[3.310138E-1,-4.6033798E-5,4.7589475E-4],"split_indices":[9,0,0],"split_type":[0,0,0],"sum_hessian":[4.21E2,3.85E2,3.6E1],"tree_param":{"num_deleted":"0","num_feature":"97","num_nodes":"3","size_leaf_vector":"1"}},{"base_weights":[-0E0,-4.8375947E-5,4.1531597E-4],"categories":[],"categories_nodes":[],"categories_segments":[],"categories_sizes":[],"default_left":[0,0,0],"id":66,"left_children":[1,-1,-1],"loss_changes":[8.499795E-2,0E0,0E0],"parents":[2147483647,0,0],"right_children":[2,-1,-1],"split_conditions":[2.9983246E-1,-4.8375947E-5,4.1531597E-4],"split_indices":[9,0,0],"split_type":[0,0,0],"sum_hessian":[4.29E2,3.87E2,4.2E1],"tree_param":{"num_deleted":"0","num_feature":"97","num_nodes":"3","size_leaf_vector":"1"}},{"base_weights":[3.222883E-5,-1.1831183E-4,1.7855916E-4],"categories":[],"categories_nodes":[],"categories_segments":[],"categories_sizes":[],"default_left":[0,0,0],"id":67,"left_children":[1,-1,-1],"loss_changes":[9.1948375E-2,0E0,0E0],"parents":[2147483647,0,0],"right_children":[2,-1,-1],"split_conditions":[4.4405185E-2,-1.1831183E-4,1.7855916E-4],"split_indices":[0,0,0],"split_type":[0,0,0],"sum_hessian":[4.28E2,2.54E2,1.74E2],"tree_param":{"num_deleted":"0","num_feature":"97","num_nodes":"3","size_leaf_vector":"1"}},{"base_weights":[-0E0,-2.5948635E-4,7.3708354E-5],"categories":[],"categories_nodes":[],"categories_segments":[],"categories_sizes":[],"default_left":[0,0,0],"id":68,"left_children":[1,-1,-1],"loss_changes":[8.167784E-2,0E0,0E0],"parents":[2147483647,0,0],"right_children":[2,-1,-1],"split_conditions":[-3.8476396E-2,-2.5948635E-4,7.3708354E-5],"split_indices":[92,0,0],"split_type":[0,0,0],"sum_hessian":[4.17E2,9.3E1,3.24E2],"tree_param":{"num_deleted":"0","num_feature":"97","num_nodes":"3","size_leaf_vector":"1"}},{"base_weights":[-1.1448726E-3,-2.739457E-4,5.459398E-5],"categories":[],"categories_nodes":[],"categories_segments":[],"categories_sizes":[],"default_left":[0,0,0],"id":69,"left_children":[1,-1,-1],"loss_changes":[7.461044E-2,0E0,0E0],"parents":[2147483647,0,0],"right_children":[2,-1,-1],"split_conditions":[-5.4574147E-2,-2.739457E-4,5.459398E-5],"split_indices":[0,0,0],"split_type":[0,0,0],"sum_hessian":[4.14E2,8.5E1,3.29E2],"tree_param":{"num_deleted":"0","num_feature":"97","num_nodes":"3","size_leaf_vector":"1"}},{"base_weights":[-5.7737096E-5,-1.6188902E-4,1.09635905E-4],"categories":[],"categories_nodes":[],"categories_segments":[],"categories_sizes":[],"default_left":[0,0,0],"id":70,"left_children":[1,-1,-1],"loss_changes":[7.643693E-2,0E0,0E0],"parents":[2147483647,0,0],"right_children":[2,-1,-1],"split_conditions":[1.1034763E-2,-1.6188902E-4,1.09635905E-4],"split_indices":[0,0,0],"split_type":[0,0,0],"sum_hessian":[4.23E2,1.75E2,2.48E2],"tree_param":{"num_deleted":"0","num_feature":"97","num_nodes":"3","size_leaf_vector":"1"}},{"base_weights":[-0E0,-4.7978785E-5,4.123342E-4],"categories":[],"categories_nodes":[],"categories_segments":[],"categories_sizes":[],"default_left":[0,0,0],"id":71,"left_children":[1,-1,-1],"loss_changes":[8.351E-2,0E0,0E0],"parents":[2147483647,0,0],"right_children":[2,-1,-1],"split_conditions":[2.9983246E-1,-4.7978785E-5,4.123342E-4],"split_indices":[9,0,0],"split_type":[0,0,0],"sum_hessian":[4.18E2,3.76E2,4.2E1],"tree_param":{"num_deleted":"0","num_feature":"97","num_nodes":"3","size_leaf_vector":"1"}},{"base_weights":[4.608898E-4,-3.6027737E-5,5.740386E-4],"categories":[],"categories_nodes":[],"categories_segments":[],"categories_sizes":[],"default_left":[0,0,0],"id":72,"left_children":[1,-1,-1],"loss_changes":[1.039061E-1,0E0,0E0],"parents":[2147483647,0,0],"right_children":[2,-1,-1],"split_conditions":[4.242731E-1,-3.6027737E-5,5.740386E-4],"split_indices":[9,0,0],"split_type":[0,0,0],"sum_hessian":[4.22E2,3.94E2,2.8E1],"tree_param":{"num_deleted":"0","num_feature":"97","num_nodes":"3","size_leaf_vector":"1"}},{"base_weights":[-0E0,-4.070583E-5,5.353916E-4],"categories":[],"categories_nodes":[],"categories_segments":[],"categories_sizes":[],"default_left":[0,0,0],"id":73,"left_children":[1,-1,-1],"loss_changes":[9.250512E-2,0E0,0E0],"parents":[2147483647,0,0],"right_children":[2,-1,-1],"split_conditions":[4.242731E-1,-4.070583E-5,5.353916E-4],"split_indices":[9,0,0],"split_type":[0,0,0],"sum_hessian":[4.19E2,3.91E2,2.8E1],"tree_param":{"num_deleted":"0","num_feature":"97","num_nodes":"3","size_leaf_vector":"1"}},{"base_weights":[-8.818676E-4,-2.478611E-4,7.307667E-5],"categories":[],"categories_nodes":[],"categories_segments":[],"categories_sizes":[],"default_left":[0,0,0],"id":74,"left_children":[1,-1,-1],"loss_changes":[8.4527016E-2,0E0,0E0],"parents":[2147483647,0,0],"right_children":[2,-1,-1],"split_conditions":[-3.489998E-2,-2.478611E-4,7.307667E-5],"split_indices":[92,0,0],"split_type":[0,0,0],"sum_hessian":[4.19E2,1.09E2,3.1E2],"tree_param":{"num_deleted":"0","num_feature":"97","num_nodes":"3","size_leaf_vector":"1"}},{"base_weights":[-0E0,-6.755598E-5,3.142261E-4],"categories":[],"categories_nodes":[],"categories_segments":[],"categories_sizes":[],"default_left":[0,0,0],"id":75,"left_children":[1,-1,-1],"loss_changes":[9.663574E-2,0E0,0E0],"parents":[2147483647,0,0],"right_children":[2,-1,-1],"split_conditions":[1.5203756E-1,-6.755598E-5,3.142261E-4],"split_indices":[92,0,0],"split_type":[0,0,0],"sum_hessian":[4.42E2,3.63E2,7.9E1],"tree_param":{"num_deleted":"0","num_feature":"97","num_nodes":"3","size_leaf_vector":"1"}},{"base_weights":[-0E0,-2.5965288E-4,7.734307E-5],"categories":[],"categories_nodes":[],"categories_segments":[],"categories_sizes":[],"default_left":[0,0,0],"id":76,"left_children":[1,-1,-1],"loss_changes":[8.53331E-2,0E0,0E0],"parents":[2147483647,0,0],"right_children":[2,-1,-1],"split_conditions":[-3.8476396E-2,-2.5965288E-4,7.734307E-5],"split_indices":[92,0,0],"split_type":[0,0,0],"sum_hessian":[4.16E2,9.6E1,3.2E2],"tree_param":{"num_deleted":"0","num_feature":"97","num_nodes":"3","size_leaf_vector":"1"}},{"base_weights":[-0E0,-7.723986E-5,2.0752082E-4],"categories":[],"categories_nodes":[],"categories_segments":[],"categories_sizes":[],"default_left":[0,0,0],"id":77,"left_children":[1,-1,-1],"loss_changes":[7.021909E-2,0E0,0E0],"parents":[2147483647,0,0],"right_children":[2,-1,-1],"split_conditions":[8.592559E-2,-7.723986E-5,2.0752082E-4],"split_indices":[92,0,0],"split_type":[0,0,0],"sum_hessian":[4.33E2,3.16E2,1.17E2],"tree_param":{"num_deleted":"0","num_feature":"97","num_nodes":"3","size_leaf_vector":"1"}},{"base_weights":[5.6681817E-4,-3.00312E-5,5.198552E-4],"categories":[],"categories_nodes":[],"categories_segments":[],"categories_sizes":[],"default_left":[0,0,0],"id":78,"left_children":[1,-1,-1],"loss_changes":[8.175566E-2,0E0,0E0],"parents":[2147483647,0,0],"right_children":[2,-1,-1],"split_conditions":[4.242731E-1,-3.00312E-5,5.198552E-4],"split_indices":[9,0,0],"split_type":[0,0,0],"sum_hessian":[4.15E2,3.88E2,2.7E1],"tree_param":{"num_deleted":"0","num_feature":"97","num_nodes":"3","size_leaf_vector":"1"}},{"base_weights":[-9.270127E-5,-5.4190066E-5,4.5594323E-4],"categories":[],"categories_nodes":[],"categories_segments":[],"categories_sizes":[],"default_left":[0,0,0],"id":79,"left_children":[1,-1,-1],"loss_changes":[9.8437354E-2,0E0,0E0],"parents":[2147483647,0,0],"right_children":[2,-1,-1],"split_conditions":[2.9983246E-1,-5.4190066E-5,4.5594323E-4],"split_indices":[9,0,0],"split_type":[0,0,0],"sum_hessian":[4.17E2,3.77E2,4E1],"tree_param":{"num_deleted":"0","num_feature":"97","num_nodes":"3","size_leaf_vector":"1"}},{"base_weights":[-2.9507407E-4,-1.567449E-4,1.085411E-4],"categories":[],"categories_nodes":[],"categories_segments":[],"categories_sizes":[],"default_left":[0,0,0],"id":80,"left_children":[1,-1,-1],"loss_changes":[7.1981505E-2,0E0,0E0],"parents":[2147483647,0,0],"right_children":[2,-1,-1],"split_conditions":[1.1034763E-2,-1.567449E-4,1.085411E-4],"split_indices":[0,0,0],"split_type":[0,0,0],"sum_hessian":[4.13E2,1.77E2,2.36E2],"tree_param":{"num_deleted":"0","num_feature":"97","num_nodes":"3","size_leaf_vector":"1"}},{"base_weights":[-4.953977E-5,-4.9895698E-5,4.034388E-4],"categories":[],"categories_nodes":[],"categories_segments":[],"categories_sizes":[],"default_left":[0,0,0],"id":81,"left_children":[1,-1,-1],"loss_changes":[8.1075035E-2,0E0,0E0],"parents":[2147483647,0,0],"right_children":[2,-1,-1],"split_conditions":[2.9983246E-1,-4.9895698E-5,4.034388E-4],"split_indices":[9,0,0],"split_type":[0,0,0],"sum_hessian":[4.2E2,3.78E2,4.2E1],"tree_param":{"num_deleted":"0","num_feature":"97","num_nodes":"3","size_leaf_vector":"1"}},{"base_weights":[5.3994387E-4,-2.7422779E-5,6.9175597E-4],"categories":[],"categories_nodes":[],"categories_segments":[],"categories_sizes":[],"default_left":[0,0,0],"id":82,"left_children":[1,-1,-1],"loss_changes":[1.03441484E-1,0E0,0E0],"parents":[2147483647,0,0],"right_children":[2,-1,-1],"split_conditions":[5.923809E-1,-2.7422779E-5,6.9175597E-4],"split_indices":[9,0,0],"split_type":[0,0,0],"sum_hessian":[4.26E2,4.07E2,1.9E1],"tree_param":{"num_deleted":"0","num_feature":"97","num_nodes":"3","size_leaf_vector":"1"}},{"base_weights":[-0E0,-3.1302567E-5,5.0561834E-4],"categories":[],"categories_nodes":[],"categories_segments":[],"categories_sizes":[],"default_left":[0,0,0],"id":83,"left_children":[1,-1,-1],"loss_changes":[7.306246E-2,0E0,0E0],"parents":[2147483647,0,0],"right_children":[2,-1,-1],"split_conditions":[4.242731E-1,-3.1302567E-5,5.0561834E-4],"split_indices":[9,0,0],"split_type":[0,0,0],"sum_hessian":[4.35E2,4.1E2,2.5E1],"tree_param":{"num_deleted":"0","num_feature":"97","num_nodes":"3","size_leaf_vector":"1"}},{"base_weights":[-8.391806E-4,-2.2532049E-4,5.5330205E-5],"categories":[],"categories_nodes":[],"categories_segments":[],"categories_sizes":[],"default_left":[0,0,0],"id":84,"left_children":[1,-1,-1],"loss_changes":[6.0421098E-2,0E0,0E0],"parents":[2147483647,0,0],"right_children":[2,-1,-1],"split_conditions":[-3.489998E-2,-2.2532049E-4,5.5330205E-5],"split_indices":[92,0,0],"split_type":[0,0,0],"sum_hessian":[4.21E2,9.8E1,3.23E2],"tree_param":{"num_deleted":"0","num_feature":"97","num_nodes":"3","size_leaf_vector":"1"}},{"base_weights":[-2.7657652E-4,-2.8154693E-4,4.5539615E-5],"categories":[],"categories_nodes":[],"categories_segments":[],"categories_sizes":[],"default_left":[0,0,0],"id":85,"left_children":[1,-1,-1],"loss_changes":[5.7021685E-2,0E0,0E0],"parents":[2147483647,0,0],"right_children":[2,-1,-1],"split_conditions":[3.4871504E-1,-2.8154693E-4,4.5539615E-5],"split_indices":[2,0,0],"split_type":[0,0,0],"sum_hessian":[4.02E2,6.1E1,3.41E2],"tree_param":{"num_deleted":"0","num_feature":"97","num_nodes":"3","size_leaf_vector":"1"}},{"base_weights":[-0E0,-6.4788575E-5,3.0513492E-4],"categories":[],"categories_nodes":[],"categories_segments":[],"categories_sizes":[],"default_left":[0,0,0],"id":86,"left_children":[1,-1,-1],"loss_changes":[8.862402E-2,0E0,0E0],"parents":[2147483647,0,0],"right_children":[2,-1,-1],"split_conditions":[1.6198961E-1,-6.4788575E-5,3.0513492E-4],"split_indices":[92,0,0],"split_type":[0,0,0],"sum_hessian":[4.34E2,3.57E2,7.7E1],"tree_param":{"num_deleted":"0","num_feature":"97","num_nodes":"3","size_leaf_vector":"1"}},{"base_weights":[-2.3633921E-4,-3.8346162E-4,3.949799E-5],"categories":[],"categories_nodes":[],"categories_segments":[],"categories_sizes":[],"default_left":[0,0,0],"id":87,"left_children":[1,-1,-1],"loss_changes":[7.377754E-2,0E0,0E0],"parents":[2147483647,0,0],"right_children":[2,-1,-1],"split_conditions":[-2.6168168E-1,-3.8346162E-4,3.949799E-5],"split_indices":[0,0,0],"split_type":[0,0,0],"sum_hessian":[4.37E2,4.4E1,3.93E2],"tree_param":{"num_deleted":"0","num_feature":"97","num_nodes":"3","size_leaf_vector":"1"}},{"base_weights":[-1.7359923E-4,-4.162025E-5,5.057767E-4],"categories":[],"categories_nodes":[],"categories_segments":[],"categories_sizes":[],"default_left":[0,0,0],"id":88,"left_children":[1,-1,-1],"loss_changes":[8.0997296E-2,0E0,0E0],"parents":[2147483647,0,0],"right_children":[2,-1,-1],"split_conditions":[3.914297E-1,-4.162025E-5,5.057767E-4],"split_indices":[9,0,0],"split_type":[0,0,0],"sum_hessian":[4.19E2,3.92E2,2.7E1],"tree_param":{"num_deleted":"0","num_feature":"97","num_nodes":"3","size_leaf_vector":"1"}},{"base_weights":[-4.4926426E-5,-3.7609265E-5,4.3631258E-4],"categories":[],"categories_nodes":[],"categories_segments":[],"categories_sizes":[],"default_left":[0,0,0],"id":89,"left_children":[1,-1,-1],"loss_changes":[6.661737E-2,0E0,0E0],"parents":[2147483647,0,0],"right_children":[2,-1,-1],"split_conditions":[4.242731E-1,-3.7609265E-5,4.3631258E-4],"split_indices":[9,0,0],"split_type":[0,0,0],"sum_hessian":[4.31E2,4.01E2,3E1],"tree_param":{"num_deleted":"0","num_feature":"97","num_nodes":"3","size_leaf_vector":"1"}},{"base_weights":[5.183717E-4,-1.3457016E-4,1.3375806E-4],"categories":[],"categories_nodes":[],"categories_segments":[],"categories_sizes":[],"default_left":[0,0,0],"id":90,"left_children":[1,-1,-1],"loss_changes":[7.600037E-2,0E0,0E0],"parents":[2147483647,0,0],"right_children":[2,-1,-1],"split_conditions":[2.1363782E-2,-1.3457016E-4,1.3375806E-4],"split_indices":[92,0,0],"split_type":[0,0,0],"sum_hessian":[4.19E2,1.97E2,2.22E2],"tree_param":{"num_deleted":"0","num_feature":"97","num_nodes":"3","size_leaf_vector":"1"}},{"base_weights":[2.841272E-5,-3.535304E-5,4.9580703E-4],"categories":[],"categories_nodes":[],"categories_segments":[],"categories_sizes":[],"default_left":[0,0,0],"id":91,"left_children":[1,-1,-1],"loss_changes":[8.124214E-2,0E0,0E0],"parents":[2147483647,0,0],"right_children":[2,-1,-1],"split_conditions":[4.242731E-1,-3.535304E-5,4.9580703E-4],"split_indices":[9,0,0],"split_type":[0,0,0],"sum_hessian":[4.3E2,4.01E2,2.9E1],"tree_param":{"num_deleted":"0","num_feature":"97","num_nodes":"3","size_leaf_vector":"1"}},{"base_weights":[-0E0,-2.1672834E-4,6.867389E-5],"categories":[],"categories_nodes":[],"categories_segments":[],"categories_sizes":[],"default_left":[0,0,0],"id":92,"left_children":[1,-1,-1],"loss_changes":[6.3943446E-2,0E0,0E0],"parents":[2147483647,0,0],"right_children":[2,-1,-1],"split_conditions":[-3.8476396E-2,-2.1672834E-4,6.867389E-5],"split_indices":[92,0,0],"split_type":[0,0,0],"sum_hessian":[4.29E2,1.01E2,3.28E2],"tree_param":{"num_deleted":"0","num_feature":"97","num_nodes":"3","size_leaf_vector":"1"}},{"base_weights":[1.17412266E-4,-3.258574E-5,5.800874E-4],"categories":[],"categories_nodes":[],"categories_segments":[],"categories_sizes":[],"default_left":[0,0,0],"id":93,"left_children":[1,-1,-1],"loss_changes":[8.4810965E-2,0E0,0E0],"parents":[2147483647,0,0],"right_children":[2,-1,-1],"split_conditions":[4.833059E-1,-3.258574E-5,5.800874E-4],"split_indices":[9,0,0],"split_type":[0,0,0],"sum_hessian":[4.02E2,3.8E2,2.2E1],"tree_param":{"num_deleted":"0","num_feature":"97","num_nodes":"3","size_leaf_vector":"1"}},{"base_weights":[-0E0,-6.581959E-5,2.7775465E-4],"categories":[],"categories_nodes":[],"categories_segments":[],"categories_sizes":[],"default_left":[0,0,0],"id":94,"left_children":[1,-1,-1],"loss_changes":[7.85538E-2,0E0,0E0],"parents":[2147483647,0,0],"right_children":[2,-1,-1],"split_conditions":[1.5203756E-1,-6.581959E-5,2.7775465E-4],"split_indices":[92,0,0],"split_type":[0,0,0],"sum_hessian":[4.31E2,3.51E2,8E1],"tree_param":{"num_deleted":"0","num_feature":"97","num_nodes":"3","size_leaf_vector":"1"}},{"base_weights":[3.134407E-4,-5.6631674E-5,2.6479695E-4],"categories":[],"categories_nodes":[],"categories_segments":[],"categories_sizes":[],"default_left":[0,0,0],"id":95,"left_children":[1,-1,-1],"loss_changes":[6.7594305E-2,0E0,0E0],"parents":[2147483647,0,0],"right_children":[2,-1,-1],"split_conditions":[1.4693505E-1,-5.6631674E-5,2.6479695E-4],"split_indices":[9,0,0],"split_type":[0,0,0],"sum_hessian":[4.15E2,3.36E2,7.9E1],"tree_param":{"num_deleted":"0","num_feature":"97","num_nodes":"3","size_leaf_vector":"1"}},{"base_weights":[1.3483434E-3,-2.0872005E-5,5.256431E-4],"categories":[],"categories_nodes":[],"categories_segments":[],"categories_sizes":[],"default_left":[0,0,0],"id":96,"left_children":[1,-1,-1],"loss_changes":[8.1103615E-2,0E0,0E0],"parents":[2147483647,0,0],"right_children":[2,-1,-1],"split_conditions":[4.242731E-1,-2.0872005E-5,5.256431E-4],"split_indices":[9,0,0],"split_type":[0,0,0],"sum_hessian":[4.29E2,4.02E2,2.7E1],"tree_param":{"num_deleted":"0","num_feature":"97","num_nodes":"3","size_leaf_vector":"1"}},{"base_weights":[2.6952822E-4,-2.9171137E-5,4.8751742E-4],"categories":[],"categories_nodes":[],"categories_segments":[],"categories_sizes":[],"default_left":[0,0,0],"id":97,"left_children":[1,-1,-1],"loss_changes":[7.23824E-2,0E0,0E0],"parents":[2147483647,0,0],"right_children":[2,-1,-1],"split_conditions":[4.242731E-1,-2.9171137E-5,4.8751742E-4],"split_indices":[9,0,0],"split_type":[0,0,0],"sum_hessian":[4.35E2,4.08E2,2.7E1],"tree_param":{"num_deleted":"0","num_feature":"97","num_nodes":"3","size_leaf_vector":"1"}},{"base_weights":[-0E0,-3.440069E-5,4.8776413E-4],"categories":[],"categories_nodes":[],"categories_segments":[],"categories_sizes":[],"default_left":[0,0,0],"id":98,"left_children":[1,-1,-1],"loss_changes":[7.118383E-2,0E0,0E0],"parents":[2147483647,0,0],"right_children":[2,-1,-1],"split_conditions":[4.242731E-1,-3.440069E-5,4.8776413E-4],"split_indices":[9,0,0],"split_type":[0,0,0],"sum_hessian":[4.1E2,3.84E2,2.6E1],"tree_param":{"num_deleted":"0","num_feature":"97","num_nodes":"3","size_leaf_vector":"1"}},{"base_weights":[-0E0,-2.3531963E-4,7.2232026E-5],"categories":[],"categories_nodes":[],"categories_segments":[],"categories_sizes":[],"default_left":[0,0,0],"id":99,"left_children":[1,-1,-1],"loss_changes":[7.075502E-2,0E0,0E0],"parents":[2147483647,0,0],"right_children":[2,-1,-1],"split_conditions":[-3.8476396E-2,-2.3531963E-4,7.2232026E-5],"split_indices":[92,0,0],"split_type":[0,0,0],"sum_hessian":[4.1E2,9.6E1,3.14E2],"tree_param":{"num_deleted":"0","num_feature":"97","num_nodes":"3","size_leaf_vector":"1"}},{"base_weights":[-0E0,-3.929812E-5,4.8800165E-4],"categories":[],"categories_nodes":[],"categories_segments":[],"categories_sizes":[],"default_left":[0,0,0],"id":100,"left_children":[1,-1,-1],"loss_changes":[7.994073E-2,0E0,0E0],"parents":[2147483647,0,0],"right_children":[2,-1,-1],"split_conditions":[4.242731E-1,-3.929812E-5,4.8800165E-4],"split_indices":[9,0,0],"split_type":[0,0,0],"sum_hessian":[4.23E2,3.94E2,2.9E1],"tree_param":{"num_deleted":"0","num_feature":"97","num_nodes":"3","size_leaf_vector":"1"}},{"base_weights":[1.6149768E-4,-1.1637532E-4,1.1536206E-4],"categories":[],"categories_nodes":[],"categories_segments":[],"categories_sizes":[],"default_left":[0,0,0],"id":101,"left_children":[1,-1,-1],"loss_changes":[5.4211013E-2,0E0,0E0],"parents":[2147483647,0,0],"right_children":[2,-1,-1],"split_conditions":[8.6528035E-3,-1.1637532E-4,1.1536206E-4],"split_indices":[23,0,0],"split_type":[0,0,0],"sum_hessian":[4E2,1.92E2,2.08E2],"tree_param":{"num_deleted":"0","num_feature":"97","num_nodes":"3","size_leaf_vector":"1"}},{"base_weights":[1.0553644E-3,-2.4404239E-5,4.6295192E-4],"categories":[],"categories_nodes":[],"categories_segments":[],"categories_sizes":[],"default_left":[0,0,0],"id":102,"left_children":[1,-1,-1],"loss_changes":[7.4829526E-2,0E0,0E0],"parents":[2147483647,0,0],"right_children":[2,-1,-1],"split_conditions":[4.242731E-1,-2.4404239E-5,4.6295192E-4],"split_indices":[9,0,0],"split_type":[0,0,0],"sum_hessian":[4.42E2,4.1E2,3.2E1],"tree_param":{"num_deleted":"0","num_feature":"97","num_nodes":"3","size_leaf_vector":"1"}},{"base_weights":[4.443945E-4,-3.176732E-5,4.9314444E-4],"categories":[],"categories_nodes":[],"categories_segments":[],"categories_sizes":[],"default_left":[0,0,0],"id":103,"left_children":[1,-1,-1],"loss_changes":[7.9252236E-2,0E0,0E0],"parents":[2147483647,0,0],"right_children":[2,-1,-1],"split_conditions":[4.242731E-1,-3.176732E-5,4.9314444E-4],"split_indices":[9,0,0],"split_type":[0,0,0],"sum_hessian":[4.18E2,3.89E2,2.9E1],"tree_param":{"num_deleted":"0","num_feature":"97","num_nodes":"3","size_leaf_vector":"1"}},{"base_weights":[-0E0,-1.4218129E-4,1.1389904E-4],"categories":[],"categories_nodes":[],"categories_segments":[],"categories_sizes":[],"default_left":[0,0,0],"id":104,"left_children":[1,-1,-1],"loss_changes":[6.5562055E-2,0E0,0E0],"parents":[2147483647,0,0],"right_children":[2,-1,-1],"split_conditions":[3.1319135E-4,-1.4218129E-4,1.1389904E-4],"split_indices":[11,0,0],"split_type":[0,0,0],"sum_hessian":[4.02E2,1.76E2,2.26E2],"tree_param":{"num_deleted":"0","num_feature":"97","num_nodes":"3","size_leaf_vector":"1"}},{"base_weights":[-0E0,-2.2956636E-4,6.9802634E-5],"categories":[],"categories_nodes":[],"categories_segments":[],"categories_sizes":[],"default_left":[0,0,0],"id":105,"left_children":[1,-1,-1],"loss_changes":[6.864244E-2,0E0,0E0],"parents":[2147483647,0,0],"right_children":[2,-1,-1],"split_conditions":[-4.7497053E-2,-2.2956636E-4,6.9802634E-5],"split_indices":[0,0,0],"split_type":[0,0,0],"sum_hessian":[4.33E2,9.7E1,3.36E2],"tree_param":{"num_deleted":"0","num_feature":"97","num_nodes":"3","size_leaf_vector":"1"}},{"base_weights":[-0E0,-5.5617642E-5,2.6278198E-4],"categories":[],"categories_nodes":[],"categories_segments":[],"categories_sizes":[],"default_left":[0,0,0],"id":106,"left_children":[1,-1,-1],"loss_changes":[6.0648598E-2,0E0,0E0],"parents":[2147483647,0,0],"right_children":[2,-1,-1],"split_conditions":[1.4693505E-1,-5.5617642E-5,2.6278198E-4],"split_indices":[9,0,0],"split_type":[0,0,0],"sum_hessian":[4E2,3.29E2,7.1E1],"tree_param":{"num_deleted":"0","num_feature":"97","num_nodes":"3","size_leaf_vector":"1"}},{"base_weights":[-3.4382168E-4,-2.8295413E-4,3.902292E-5],"categories":[],"categories_nodes":[],"categories_segments":[],"categories_sizes":[],"default_left":[0,0,0],"id":107,"left_children":[1,-1,-1],"loss_changes":[5.274549E-2,0E0,0E0],"parents":[2147483647,0,0],"right_children":[2,-1,-1],"split_conditions":[3.3280578E-1,-2.8295413E-4,3.902292E-5],"split_indices":[94,0,0],"split_type":[0,0,0],"sum_hessian":[4.2E2,5.7E1,3.63E2],"tree_param":{"num_deleted":"0","num_feature":"97","num_nodes":"3","size_leaf_vector":"1"}},{"base_weights":[2.0204166E-4,-5.3468702E-5,2.727694E-4],"categories":[],"categories_nodes":[],"categories_segments":[],"categories_sizes":[],"default_left":[0,0,0],"id":108,"left_children":[1,-1,-1],"loss_changes":[6.573415E-2,0E0,0E0],"parents":[2147483647,0,0],"right_children":[2,-1,-1],"split_conditions":[1.5203756E-1,-5.3468702E-5,2.727694E-4],"split_indices":[92,0,0],"split_type":[0,0,0],"sum_hessian":[4.19E2,3.46E2,7.3E1],"tree_param":{"num_deleted":"0","num_feature":"97","num_nodes":"3","size_leaf_vector":"1"}},{"base_weights":[4.7238012E-5,-1.3304997E-4,1.1911782E-4],"categories":[],"categories_nodes":[],"categories_segments":[],"categories_sizes":[],"default_left":[0,0,0],"id":109,"left_children":[1,-1,-1],"loss_changes":[6.988165E-2,0E0,0E0],"parents":[2147483647,0,0],"right_children":[2,-1,-1],"split_conditions":[3.1319135E-4,-1.3304997E-4,1.1911782E-4],"split_indices":[11,0,0],"split_type":[0,0,0],"sum_hessian":[4.38E2,2.02E2,2.36E2],"tree_param":{"num_deleted":"0","num_feature":"97","num_nodes":"3","size_leaf_vector":"1"}},{"base_weights":[7.2540314E-4,-2.9363955E-5,3.483945E-4],"categories":[],"categories_nodes":[],"categories_segments":[],"categories_sizes":[],"default_left":[0,0,0],"id":110,"left_children":[1,-1,-1],"loss_changes":[5.6485392E-2,0E0,0E0],"parents":[2147483647,0,0],"right_children":[2,-1,-1],"split_conditions":[2.9983246E-1,-2.9363955E-5,3.483945E-4],"split_indices":[9,0,0],"split_type":[0,0,0],"sum_hessian":[4.23E2,3.81E2,4.2E1],"tree_param":{"num_deleted":"0","num_feature":"97","num_nodes":"3","size_leaf_vector":"1"}},{"base_weights":[-0E0,-3.477531E-4,3.783997E-5],"categories":[],"categories_nodes":[],"categories_segments":[],"categories_sizes":[],"default_left":[0,0,0],"id":111,"left_children":[1,-1,-1],"loss_changes":[5.63758E-2,0E0,0E0],"parents":[2147483647,0,0],"right_children":[2,-1,-1],"split_conditions":[-2.6168168E-1,-3.477531E-4,3.783997E-5],"split_indices":[0,0,0],"split_type":[0,0,0],"sum_hessian":[4.28E2,4E1,3.88E2],"tree_param":{"num_deleted":"0","num_feature":"97","num_nodes":"3","size_leaf_vector":"1"}},{"base_weights":[-0E0,-2.266862E-4,7.049781E-5],"categories":[],"categories_nodes":[],"categories_segments":[],"categories_sizes":[],"default_left":[0,0,0],"id":112,"left_children":[1,-1,-1],"loss_changes":[7.0489004E-2,0E0,0E0],"parents":[2147483647,0,0],"right_children":[2,-1,-1],"split_conditions":[-3.8476396E-2,-2.266862E-4,7.049781E-5],"split_indices":[92,0,0],"split_type":[0,0,0],"sum_hessian":[4.43E2,1.02E2,3.41E2],"tree_param":{"num_deleted":"0","num_feature":"97","num_nodes":"3","size_leaf_vector":"1"}},{"base_weights":[-5.2016194E-4,-2.2702302E-4,6.5116306E-5],"categories":[],"categories_nodes":[],"categories_segments":[],"categories_sizes":[],"default_left":[0,0,0],"id":113,"left_children":[1,-1,-1],"loss_changes":[6.6802494E-2,0E0,0E0],"parents":[2147483647,0,0],"right_children":[2,-1,-1],"split_conditions":[-3.8476396E-2,-2.2702302E-4,6.5116306E-5],"split_indices":[92,0,0],"split_type":[0,0,0],"sum_hessian":[4.14E2,1.02E2,3.12E2],"tree_param":{"num_deleted":"0","num_feature":"97","num_nodes":"3","size_leaf_vector":"1"}},{"base_weights":[-0E0,-4.2405765E-5,3.9927653E-4],"categories":[],"categories_nodes":[],"categories_segments":[],"categories_sizes":[],"default_left":[0,0,0],"id":114,"left_children":[1,-1,-1],"loss_changes":[7.5618476E-2,0E0,0E0],"parents":[2147483647,0,0],"right_children":[2,-1,-1],"split_conditions":[2.9983246E-1,-4.2405765E-5,3.9927653E-4],"split_indices":[9,0,0],"split_type":[0,0,0],"sum_hessian":[4.32E2,3.91E2,4.1E1],"tree_param":{"num_deleted":"0","num_feature":"97","num_nodes":"3","size_leaf_vector":"1"}},{"base_weights":[-0E0,-2.161942E-4,6.333513E-5],"categories":[],"categories_nodes":[],"categories_segments":[],"categories_sizes":[],"default_left":[0,0,0],"id":115,"left_children":[1,-1,-1],"loss_changes":[6.1233055E-2,0E0,0E0],"parents":[2147483647,0,0],"right_children":[2,-1,-1],"split_conditions":[-3.8476396E-2,-2.161942E-4,6.333513E-5],"split_indices":[92,0,0],"split_type":[0,0,0],"sum_hessian":[4.36E2,1E2,3.36E2],"tree_param":{"num_deleted":"0","num_feature":"97","num_nodes":"3","size_leaf_vector":"1"}},{"base_weights":[5.718552E-4,-2.6627464E-5,5.077312E-4],"categories":[],"categories_nodes":[],"categories_segments":[],"categories_sizes":[],"default_left":[0,0,0],"id":116,"left_children":[1,-1,-1],"loss_changes":[7.4905306E-2,0E0,0E0],"parents":[2147483647,0,0],"right_children":[2,-1,-1],"split_conditions":[4.242731E-1,-2.6627464E-5,5.077312E-4],"split_indices":[9,0,0],"split_type":[0,0,0],"sum_hessian":[4.28E2,4.02E2,2.6E1],"tree_param":{"num_deleted":"0","num_feature":"97","num_nodes":"3","size_leaf_vector":"1"}},{"base_weights":[2.7947585E-4,-2.5651525E-5,4.3729454E-4],"categories":[],"categories_nodes":[],"categories_segments":[],"categories_sizes":[],"default_left":[0,0,0],"id":117,"left_children":[1,-1,-1],"loss_changes":[5.810636E-2,0E0,0E0],"parents":[2147483647,0,0],"right_children":[2,-1,-1],"split_conditions":[5.514243E-1,-2.5651525E-5,4.3729454E-4],"split_indices":[4,0,0],"split_type":[0,0,0],"sum_hessian":[4.33E2,4.06E2,2.7E1],"tree_param":{"num_deleted":"0","num_feature":"97","num_nodes":"3","size_leaf_vector":"1"}},{"base_weights":[-6.774307E-4,-2.066487E-4,5.3721407E-5],"categories":[],"categories_nodes":[],"categories_segments":[],"categories_sizes":[],"default_left":[0,0,0],"id":118,"left_children":[1,-1,-1],"loss_changes":[5.314037E-2,0E0,0E0],"parents":[2147483647,0,0],"right_children":[2,-1,-1],"split_conditions":[-3.8476396E-2,-2.066487E-4,5.3721407E-5],"split_indices":[92,0,0],"split_type":[0,0,0],"sum_hessian":[4.23E2,1.01E2,3.22E2],"tree_param":{"num_deleted":"0","num_feature":"97","num_nodes":"3","size_leaf_vector":"1"}},{"base_weights":[-0E0,-2.2400706E-4,6.72154E-5],"categories":[],"categories_nodes":[],"categories_segments":[],"categories_sizes":[],"default_left":[0,0,0],"id":119,"left_children":[1,-1,-1],"loss_changes":[6.5314166E-2,0E0,0E0],"parents":[2147483647,0,0],"right_children":[2,-1,-1],"split_conditions":[-3.8476396E-2,-2.2400706E-4,6.72154E-5],"split_indices":[92,0,0],"split_type":[0,0,0],"sum_hessian":[4.31E2,9.8E1,3.33E2],"tree_param":{"num_deleted":"0","num_feature":"97","num_nodes":"3","size_leaf_vector":"1"}},{"base_weights":[9.5338575E-5,-1.3047038E-4,1.0391709E-4],"categories":[],"categories_nodes":[],"categories_segments":[],"categories_sizes":[],"default_left":[0,0,0],"id":120,"left_children":[1,-1,-1],"loss_changes":[5.711015E-2,0E0,0E0],"parents":[2147483647,0,0],"right_children":[2,-1,-1],"split_conditions":[3.1319135E-4,-1.3047038E-4,1.0391709E-4],"split_indices":[11,0,0],"split_type":[0,0,0],"sum_hessian":[4.2E2,1.8E2,2.4E2],"tree_param":{"num_deleted":"0","num_feature":"97","num_nodes":"3","size_leaf_vector":"1"}},{"base_weights":[-0E0,-2.1369064E-4,5.5482917E-5],"categories":[],"categories_nodes":[],"categories_segments":[],"categories_sizes":[],"default_left":[0,0,0],"id":121,"left_children":[1,-1,-1],"loss_changes":[5.1409807E-2,0E0,0E0],"parents":[2147483647,0,0],"right_children":[2,-1,-1],"split_conditions":[-5.399717E-2,-2.1369064E-4,5.5482917E-5],"split_indices":[92,0,0],"split_type":[0,0,0],"sum_hessian":[4.21E2,8.8E1,3.33E2],"tree_param":{"num_deleted":"0","num_feature":"97","num_nodes":"3","size_leaf_vector":"1"}},{"base_weights":[1.8938037E-4,-1.011697E-4,1.2402455E-4],"categories":[],"categories_nodes":[],"categories_segments":[],"categories_sizes":[],"default_left":[0,0,0],"id":122,"left_children":[1,-1,-1],"loss_changes":[5.649264E-2,0E0,0E0],"parents":[2147483647,0,0],"right_children":[2,-1,-1],"split_conditions":[3.22075E-2,-1.011697E-4,1.2402455E-4],"split_indices":[92,0,0],"split_type":[0,0,0],"sum_hessian":[4.43E2,2.36E2,2.07E2],"tree_param":{"num_deleted":"0","num_feature":"97","num_nodes":"3","size_leaf_vector":"1"}},{"base_weights":[-1.6530737E-4,-2.7885035E-4,4.1182935E-5],"categories":[],"categories_nodes":[],"categories_segments":[],"categories_sizes":[],"default_left":[0,0,0],"id":123,"left_children":[1,-1,-1],"loss_changes":[5.2833475E-2,0E0,0E0],"parents":[2147483647,0,0],"right_children":[2,-1,-1],"split_conditions":[3.390762E-1,-2.7885035E-4,4.1182935E-5],"split_indices":[14,0,0],"split_type":[0,0,0],"sum_hessian":[4.21E2,5.8E1,3.63E2],"tree_param":{"num_deleted":"0","num_feature":"97","num_nodes":"3","size_leaf_vector":"1"}},{"base_weights":[-3.7599905E-4,-1.2777392E-4,9.167308E-5],"categories":[],"categories_nodes":[],"categories_segments":[],"categories_sizes":[],"default_left":[0,0,0],"id":124,"left_children":[1,-1,-1],"loss_changes":[5.2196003E-2,0E0,0E0],"parents":[2147483647,0,0],"right_children":[2,-1,-1],"split_conditions":[3.1319135E-4,-1.2777392E-4,9.167308E-5],"split_indices":[11,0,0],"split_type":[0,0,0],"sum_hessian":[4.34E2,1.93E2,2.41E2],"tree_param":{"num_deleted":"0","num_feature":"97","num_nodes":"3","size_leaf_vector":"1"}},{"base_weights":[-8.425648E-5,-7.272284E-5,1.8470571E-4],"categories":[],"categories_nodes":[],"categories_segments":[],"categories_sizes":[],"default_left":[0,0,0],"id":125,"left_children":[1,-1,-1],"loss_changes":[5.423171E-2,0E0,0E0],"parents":[2147483647,0,0],"right_children":[2,-1,-1],"split_conditions":[9.577372E-2,-7.272284E-5,1.8470571E-4],"split_indices":[92,0,0],"split_type":[0,0,0],"sum_hessian":[4.11E2,3.01E2,1.1E2],"tree_param":{"num_deleted":"0","num_feature":"97","num_nodes":"3","size_leaf_vector":"1"}},{"base_weights":[1.0171344E-4,-2.5958063E-5,5.7519786E-4],"categories":[],"categories_nodes":[],"categories_segments":[],"categories_sizes":[],"default_left":[0,0,0],"id":126,"left_children":[1,-1,-1],"loss_changes":[7.223728E-2,0E0,0E0],"parents":[2147483647,0,0],"right_children":[2,-1,-1],"split_conditions":[5.923809E-1,-2.5958063E-5,5.7519786E-4],"split_indices":[9,0,0],"split_type":[0,0,0],"sum_hessian":[4.27E2,4.08E2,1.9E1],"tree_param":{"num_deleted":"0","num_feature":"97","num_nodes":"3","size_leaf_vector":"1"}},{"base_weights":[-0E0,-4.9325627E-5,2.2955162E-4],"categories":[],"categories_nodes":[],"categories_segments":[],"categories_sizes":[],"default_left":[0,0,0],"id":127,"left_children":[1,-1,-1],"loss_changes":[4.930887E-2,0E0,0E0],"parents":[2147483647,0,0],"right_children":[2,-1,-1],"split_conditions":[1.6009428E-1,-4.9325627E-5,2.2955162E-4],"split_indices":[0,0,0],"split_type":[0,0,0],"sum_hessian":[4.32E2,3.57E2,7.5E1],"tree_param":{"num_deleted":"0","num_feature":"97","num_nodes":"3","size_leaf_vector":"1"}},{"base_weights":[1.1669291E-3,-2.1905846E-5,4.9189315E-4],"categories":[],"categories_nodes":[],"categories_segments":[],"categories_sizes":[],"default_left":[0,0,0],"id":128,"left_children":[1,-1,-1],"loss_changes":[7.392431E-2,0E0,0E0],"parents":[2147483647,0,0],"right_children":[2,-1,-1],"split_conditions":[4.242731E-1,-2.1905846E-5,4.9189315E-4],"split_indices":[9,0,0],"split_type":[0,0,0],"sum_hessian":[4.26E2,3.98E2,2.8E1],"tree_param":{"num_deleted":"0","num_feature":"97","num_nodes":"3","size_leaf_vector":"1"}},{"base_weights":[6.3315243E-4,-4.8381575E-5,2.754946E-4],"categories":[],"categories_nodes":[],"categories_segments":[],"categories_sizes":[],"default_left":[0,0,0],"id":129,"left_children":[1,-1,-1],"loss_changes":[6.4095505E-2,0E0,0E0],"parents":[2147483647,0,0],"right_children":[2,-1,-1],"split_conditions":[1.6009428E-1,-4.8381575E-5,2.754946E-4],"split_indices":[0,0,0],"split_type":[0,0,0],"sum_hessian":[4.16E2,3.44E2,7.2E1],"tree_param":{"num_deleted":"0","num_feature":"97","num_nodes":"3","size_leaf_vector":"1"}},{"base_weights":[-8.752278E-5,-3.3012624E-5,4.248742E-4],"categories":[],"categories_nodes":[],"categories_segments":[],"categories_sizes":[],"default_left":[0,0,0],"id":130,"left_children":[1,-1,-1],"loss_changes":[5.4922916E-2,0E0,0E0],"parents":[2147483647,0,0],"right_children":[2,-1,-1],"split_conditions":[4.242731E-1,-3.3012624E-5,4.248742E-4],"split_indices":[9,0,0],"split_type":[0,0,0],"sum_hessian":[4.26E2,4E2,2.6E1],"tree_param":{"num_deleted":"0","num_feature":"97","num_nodes":"3","size_leaf_vector":"1"}},{"base_weights":[7.170701E-4,-2.2703523E-5,4.4291574E-4],"categories":[],"categories_nodes":[],"categories_segments":[],"categories_sizes":[],"default_left":[0,0,0],"id":131,"left_children":[1,-1,-1],"loss_changes":[5.8686405E-2,0E0,0E0],"parents":[2147483647,0,0],"right_children":[2,-1,-1],"split_conditions":[5.514243E-1,-2.2703523E-5,4.4291574E-4],"split_indices":[4,0,0],"split_type":[0,0,0],"sum_hessian":[4.15E2,3.88E2,2.7E1],"tree_param":{"num_deleted":"0","num_feature":"97","num_nodes":"3","size_leaf_vector":"1"}},{"base_weights":[-0E0,-2.8014972E-4,4.7281308E-5],"categories":[],"categories_nodes":[],"categories_segments":[],"categories_sizes":[],"default_left":[0,0,0],"id":132,"left_children":[1,-1,-1],"loss_changes":[6.0115498E-2,0E0,0E0],"parents":[2147483647,0,0],"right_children":[2,-1,-1],"split_conditions":[3.390762E-1,-2.8014972E-4,4.7281308E-5],"split_indices":[14,0,0],"split_type":[0,0,0],"sum_hessian":[4.34E2,6.4E1,3.7E2],"tree_param":{"num_deleted":"0","num_feature":"97","num_nodes":"3","size_leaf_vector":"1"}},{"base_weights":[-0E0,-2.5393252E-4,4.4127766E-5],"categories":[],"categories_nodes":[],"categories_segments":[],"categories_sizes":[],"default_left":[0,0,0],"id":133,"left_children":[1,-1,-1],"loss_changes":[4.6129793E-2,0E0,0E0],"parents":[2147483647,0,0],"right_children":[2,-1,-1],"split_conditions":[3.3695E-1,-2.5393252E-4,4.4127766E-5],"split_indices":[14,0,0],"split_type":[0,0,0],"sum_hessian":[4.06E2,5.9E1,3.47E2],"tree_param":{"num_deleted":"0","num_feature":"97","num_nodes":"3","size_leaf_vector":"1"}},{"base_weights":[4.0415055E-4,-2.7809014E-5,4.4701327E-4],"categories":[],"categories_nodes":[],"categories_segments":[],"categories_sizes":[],"default_left":[0,0,0],"id":134,"left_children":[1,-1,-1],"loss_changes":[6.496776E-2,0E0,0E0],"parents":[2147483647,0,0],"right_children":[2,-1,-1],"split_conditions":[4.242731E-1,-2.7809014E-5,4.4701327E-4],"split_indices":[9,0,0],"split_type":[0,0,0],"sum_hessian":[4.27E2,3.98E2,2.9E1],"tree_param":{"num_deleted":"0","num_feature":"97","num_nodes":"3","size_leaf_vector":"1"}},{"base_weights":[-2.226784E-4,-3.0415982E-5,5.074385E-4],"categories":[],"categories_nodes":[],"categories_segments":[],"categories_sizes":[],"default_left":[0,0,0],"id":135,"left_children":[1,-1,-1],"loss_changes":[5.7891488E-2,0E0,0E0],"parents":[2147483647,0,0],"right_children":[2,-1,-1],"split_conditions":[5.923809E-1,-3.0415982E-5,5.074385E-4],"split_indices":[9,0,0],"split_type":[0,0,0],"sum_hessian":[4.32E2,4.13E2,1.9E1],"tree_param":{"num_deleted":"0","num_feature":"97","num_nodes":"3","size_leaf_vector":"1"}},{"base_weights":[-1.12432295E-4,-1.1517605E-4,8.476878E-5],"categories":[],"categories_nodes":[],"categories_segments":[],"categories_sizes":[],"default_left":[0,0,0],"id":136,"left_children":[1,-1,-1],"loss_changes":[4.272121E-2,0E0,0E0],"parents":[2147483647,0,0],"right_children":[2,-1,-1],"split_conditions":[3.1319135E-4,-1.1517605E-4,8.476878E-5],"split_indices":[11,0,0],"split_type":[0,0,0],"sum_hessian":[4.29E2,1.89E2,2.4E2],"tree_param":{"num_deleted":"0","num_feature":"97","num_nodes":"3","size_leaf_vector":"1"}},{"base_weights":[1.4067262E-4,-7.90165E-5,1.3405737E-4],"categories":[],"categories_nodes":[],"categories_segments":[],"categories_sizes":[],"default_left":[0,0,0],"id":137,"left_children":[1,-1,-1],"loss_changes":[4.727558E-2,0E0,0E0],"parents":[2147483647,0,0],"right_children":[2,-1,-1],"split_conditions":[4.739329E-2,-7.90165E-5,1.3405737E-4],"split_indices":[0,0,0],"split_type":[0,0,0],"sum_hessian":[4.34E2,2.66E2,1.68E2],"tree_param":{"num_deleted":"0","num_feature":"97","num_nodes":"3","size_leaf_vector":"1"}},{"base_weights":[-5.3497043E-4,-1.2163021E-4,9.0539994E-5],"categories":[],"categories_nodes":[],"categories_segments":[],"categories_sizes":[],"default_left":[0,0,0],"id":138,"left_children":[1,-1,-1],"loss_changes":[4.8253592E-2,0E0,0E0],"parents":[2147483647,0,0],"right_children":[2,-1,-1],"split_conditions":[3.1319135E-4,-1.2163021E-4,9.0539994E-5],"split_indices":[11,0,0],"split_type":[0,0,0],"sum_hessian":[4.26E2,1.97E2,2.29E2],"tree_param":{"num_deleted":"0","num_feature":"97","num_nodes":"3","size_leaf_vector":"1"}},{"base_weights":[-0E0,-2.5146603E-4,3.340376E-5],"categories":[],"categories_nodes":[],"categories_segments":[],"categories_sizes":[],"default_left":[0,0,0],"id":139,"left_children":[1,-1,-1],"loss_changes":[3.9075214E-2,0E0,0E0],"parents":[2147483647,0,0],"right_children":[2,-1,-1],"split_conditions":[3.233853E-1,-2.5146603E-4,3.340376E-5],"split_indices":[14,0,0],"split_type":[0,0,0],"sum_hessian":[4.36E2,5.3E1,3.83E2],"tree_param":{"num_deleted":"0","num_feature":"97","num_nodes":"3","size_leaf_vector":"1"}},{"base_weights":[4.0321203E-5,-2.4128467E-5,5.495826E-4],"categories":[],"categories_nodes":[],"categories_segments":[],"categories_sizes":[],"default_left":[0,0,0],"id":140,"left_children":[1,-1,-1],"loss_changes":[6.2777E-2,0E0,0E0],"parents":[2147483647,0,0],"right_children":[2,-1,-1],"split_conditions":[5.923809E-1,-2.4128467E-5,5.495826E-4],"split_indices":[9,0,0],"split_type":[0,0,0],"sum_hessian":[4.23E2,4.05E2,1.8E1],"tree_param":{"num_deleted":"0","num_feature":"97","num_nodes":"3","size_leaf_vector":"1"}},{"base_weights":[-6.3514226E-4,-1.8345086E-4,4.4632256E-5],"categories":[],"categories_nodes":[],"categories_segments":[],"categories_sizes":[],"default_left":[0,0,0],"id":141,"left_children":[1,-1,-1],"loss_changes":[4.0016253E-2,0E0,0E0],"parents":[2147483647,0,0],"right_children":[2,-1,-1],"split_conditions":[-3.8476396E-2,-1.8345086E-4,4.4632256E-5],"split_indices":[92,0,0],"split_type":[0,0,0],"sum_hessian":[4.24E2,9.8E1,3.26E2],"tree_param":{"num_deleted":"0","num_feature":"97","num_nodes":"3","size_leaf_vector":"1"}},{"base_weights":[-0E0,-2.3323904E-5,5.020248E-4],"categories":[],"categories_nodes":[],"categories_segments":[],"categories_sizes":[],"default_left":[0,0,0],"id":142,"left_children":[1,-1,-1],"loss_changes":[4.996903E-2,0E0,0E0],"parents":[2147483647,0,0],"right_children":[2,-1,-1],"split_conditions":[4.9876872E-1,-2.3323904E-5,5.020248E-4],"split_indices":[9,0,0],"split_type":[0,0,0],"sum_hessian":[3.98E2,3.81E2,1.7E1],"tree_param":{"num_deleted":"0","num_feature":"97","num_nodes":"3","size_leaf_vector":"1"}},{"base_weights":[-7.1360223E-4,-1.2609197E-4,8.496083E-5],"categories":[],"categories_nodes":[],"categories_segments":[],"categories_sizes":[],"default_left":[0,0,0],"id":143,"left_children":[1,-1,-1],"loss_changes":[4.718631E-2,0E0,0E0],"parents":[2147483647,0,0],"right_children":[2,-1,-1],"split_conditions":[3.1319135E-4,-1.2609197E-4,8.496083E-5],"split_indices":[11,0,0],"split_type":[0,0,0],"sum_hessian":[4.23E2,1.89E2,2.34E2],"tree_param":{"num_deleted":"0","num_feature":"97","num_nodes":"3","size_leaf_vector":"1"}},{"base_weights":[2.4390558E-4,-3.4989367E-4,4.2145453E-5],"categories":[],"categories_nodes":[],"categories_segments":[],"categories_sizes":[],"default_left":[0,0,0],"id":144,"left_children":[1,-1,-1],"loss_changes":[5.569507E-2,0E0,0E0],"parents":[2147483647,0,0],"right_children":[2,-1,-1],"split_conditions":[-2.6168168E-1,-3.4989367E-4,4.2145453E-5],"split_indices":[0,0,0],"split_type":[0,0,0],"sum_hessian":[4.16E2,3.8E1,3.78E2],"tree_param":{"num_deleted":"0","num_feature":"97","num_nodes":"3","size_leaf_vector":"1"}},{"base_weights":[5.5239238E-5,-2.813644E-5,3.9832605E-4],"categories":[],"categories_nodes":[],"categories_segments":[],"categories_sizes":[],"default_left":[0,0,0],"id":145,"left_children":[1,-1,-1],"loss_changes":[5.2311495E-2,0E0,0E0],"parents":[2147483647,0,0],"right_children":[2,-1,-1],"split_conditions":[4.242731E-1,-2.813644E-5,3.9832605E-4],"split_indices":[9,0,0],"split_type":[0,0,0],"sum_hessian":[4.22E2,3.93E2,2.9E1],"tree_param":{"num_deleted":"0","num_feature":"97","num_nodes":"3","size_leaf_vector":"1"}},{"base_weights":[1.6224408E-4,2.866929E-4,-3.66214E-5],"categories":[],"categories_nodes":[],"categories_segments":[],"categories_sizes":[],"default_left":[0,0,0],"id":146,"left_children":[1,-1,-1],"loss_changes":[4.8499897E-2,0E0,0E0],"parents":[2147483647,0,0],"right_children":[2,-1,-1],"split_conditions":[-2.979446E-1,2.866929E-4,-3.66214E-5],"split_indices":[72,0,0],"split_type":[0,0,0],"sum_hessian":[4.18E2,5.1E1,3.67E2],"tree_param":{"num_deleted":"0","num_feature":"97","num_nodes":"3","size_leaf_vector":"1"}},{"base_weights":[-0E0,-4.956369E-5,2.3044835E-4],"categories":[],"categories_nodes":[],"categories_segments":[],"categories_sizes":[],"default_left":[0,0,0],"id":147,"left_children":[1,-1,-1],"loss_changes":[4.8722576E-2,0E0,0E0],"parents":[2147483647,0,0],"right_children":[2,-1,-1],"split_conditions":[1.6009428E-1,-4.956369E-5,2.3044835E-4],"split_indices":[0,0,0],"split_type":[0,0,0],"sum_hessian":[4.33E2,3.6E2,7.3E1],"tree_param":{"num_deleted":"0","num_feature":"97","num_nodes":"3","size_leaf_vector":"1"}},{"base_weights":[-3.6125595E-4,-3.027901E-4,3.075183E-5],"categories":[],"categories_nodes":[],"categories_segments":[],"categories_sizes":[],"default_left":[0,0,0],"id":148,"left_children":[1,-1,-1],"loss_changes":[4.7629204E-2,0E0,0E0],"parents":[2147483647,0,0],"right_children":[2,-1,-1],"split_conditions":[-2.6677468E-1,-3.027901E-4,3.075183E-5],"split_indices":[92,0,0],"split_type":[0,0,0],"sum_hessian":[4.33E2,4.6E1,3.87E2],"tree_param":{"num_deleted":"0","num_feature":"97","num_nodes":"3","size_leaf_vector":"1"}},{"base_weights":[7.8051315E-5,-6.153473E-5,1.7377106E-4],"categories":[],"categories_nodes":[],"categories_segments":[],"categories_sizes":[],"default_left":[0,0,0],"id":149,"left_children":[1,-1,-1],"loss_changes":[4.6612006E-2,0E0,0E0],"parents":[2147483647,0,0],"right_children":[2,-1,-1],"split_conditions":[9.061751E-2,-6.153473E-5,1.7377106E-4],"split_indices":[0,0,0],"split_type":[0,0,0],"sum_hessian":[4.18E2,3.04E2,1.14E2],"tree_param":{"num_deleted":"0","num_feature":"97","num_nodes":"3","size_leaf_vector":"1"}},{"base_weights":[-0E0,-8.3579485E-5,1.4242486E-4],"categories":[],"categories_nodes":[],"categories_segments":[],"categories_sizes":[],"default_left":[0,0,0],"id":150,"left_children":[1,-1,-1],"loss_changes":[5.1170256E-2,0E0,0E0],"parents":[2147483647,0,0],"right_children":[2,-1,-1],"split_conditions":[4.739329E-2,-8.3579485E-5,1.4242486E-4],"split_indices":[0,0,0],"split_type":[0,0,0],"sum_hessian":[4.22E2,2.63E2,1.59E2],"tree_param":{"num_deleted":"0","num_feature":"97","num_nodes":"3","size_leaf_vector":"1"}},{"base_weights":[-6.731298E-4,-9.8398436E-5,9.481813E-5],"categories":[],"categories_nodes":[],"categories_segments":[],"categories_sizes":[],"default_left":[0,0,0],"id":151,"left_children":[1,-1,-1],"loss_changes":[3.9691485E-2,0E0,0E0],"parents":[2147483647,0,0],"right_children":[2,-1,-1],"split_conditions":[1.5277715E-2,-9.8398436E-5,9.481813E-5],"split_indices":[23,0,0],"split_type":[0,0,0],"sum_hessian":[4.22E2,2.27E2,1.95E2],"tree_param":{"num_deleted":"0","num_feature":"97","num_nodes":"3","size_leaf_vector":"1"}},{"base_weights":[8.7061606E-4,2.9589565E-4,-2.9308185E-5],"categories":[],"categories_nodes":[],"categories_segments":[],"categories_sizes":[],"default_left":[0,0,0],"id":152,"left_children":[1,-1,-1],"loss_changes":[4.8364542E-2,0E0,0E0],"parents":[2147483647,0,0],"right_children":[2,-1,-1],"split_conditions":[-2.979446E-1,2.9589565E-4,-2.9308185E-5],"split_indices":[72,0,0],